Language model created by QuickLM on Wed Nov 29 23:49:19 EST 2017
Copyright (c) 1996-2010 Carnegie Mellon University and Alexander I. Rudnicky

The model is in standard ARPA format, designed by Doug Paul while he was at MITRE.

The code that was used to produce this language model is available in Open Source.
Please visit http://www.speech.cs.cmu.edu/tools/ for more information

The (fixed) discount mass is 0.5. The backoffs are computed using the ratio method.
This model based on a corpus of 51 sentences and 69 words

\data\
ngram 1=69
ngram 2=122
ngram 3=75

\1-grams:
-0.8559 </s> -0.3010
-0.8559 <s> -0.2359
-2.0864 A -0.2975
-2.5635 AN -0.2998
-2.5635 ARE -0.2998
-2.5635 BAD -0.2359
-2.5635 COIN -0.2359
-2.2625 CONNECTED -0.2359
-2.5635 DICE -0.2359
-2.5635 DOWN -0.2359
-2.5635 EIGHT -0.2359
-2.5635 EIGHTEEN -0.2359
-2.5635 EIGHTY -0.2359
-2.5635 ELEVEN -0.2359
-2.5635 EMAIL -0.2359
-2.5635 FIFTEEN -0.2359
-2.5635 FIFTY -0.2359
-2.5635 FIVE -0.2359
-2.5635 FLIP -0.2975
-2.2625 FOR -0.2359
-2.5635 FOUR -0.2359
-2.5635 FOURTEEN -0.2359
-2.5635 FOURTY -0.2359
-2.5635 GAETAN -0.2359
-2.5635 GOOD -0.2359
-2.5635 HUNDERED -0.2359
-2.0864 IS -0.2963
-2.2625 IT -0.2359
-2.5635 JOKE -0.2359
-2.5635 LIGHTS -0.2359
-2.5635 ME -0.2975
-2.5635 MILLION -0.2359
-2.5635 MOOD -0.2359
-2.5635 NEGATIVE -0.2359
-2.5635 NINE -0.2359
-2.5635 NINETEEN -0.2359
-2.5635 NINETY -0.2359
-2.5635 OFF -0.2359
-2.5635 ON -0.2359
-2.5635 ONE -0.2359
-2.5635 ROLL -0.2963
-2.2625 SEARCH -0.2963
-2.5635 SEND -0.2998
-2.5635 SET -0.2975
-2.5635 SEVEN -0.2359
-2.5635 SEVENTEEN -0.2359
-2.5635 SEVENTY -0.2359
-2.5635 SIX -0.2359
-2.5635 SIXTEEN -0.2359
-2.5635 SIXTY -0.2359
-2.5635 TELL -0.2998
-2.5635 TEN -0.2359
-1.9614 THE -0.2963
-2.5635 THEY -0.2987
-2.5635 THIRTEEN -0.2359
-2.5635 THIRTY -0.2359
-2.5635 THOUSAND -0.2359
-2.5635 THREE -0.2359
-2.2625 TIME -0.2975
-2.5635 TIMER -0.2987
-2.5635 TURN -0.2963
-2.5635 TWELVE -0.2359
-2.5635 TWENTY -0.2359
-2.5635 TWO -0.2359
-2.5635 UP -0.2359
-2.2625 WEB -0.2331
-2.2625 WHAT -0.2987
-2.5635 WHERE -0.2998
-2.5635 WHO -0.2975

\2-grams:
-2.0086 <s> BAD 0.0000
-2.0086 <s> DOWN 0.0000
-2.0086 <s> EIGHT 0.0000
-2.0086 <s> EIGHTEEN 0.0000
-2.0086 <s> EIGHTY 0.0000
-2.0086 <s> ELEVEN 0.0000
-2.0086 <s> FIFTEEN 0.0000
-2.0086 <s> FIFTY 0.0000
-2.0086 <s> FIVE 0.0000
-2.0086 <s> FLIP 0.0000
-2.0086 <s> FOUR 0.0000
-2.0086 <s> FOURTEEN 0.0000
-2.0086 <s> FOURTY 0.0000
-2.0086 <s> GAETAN 0.0000
-2.0086 <s> GOOD 0.0000
-2.0086 <s> HUNDERED 0.0000
-2.0086 <s> MILLION 0.0000
-2.0086 <s> MOOD 0.0000
-2.0086 <s> NEGATIVE 0.0000
-2.0086 <s> NINE 0.0000
-2.0086 <s> NINETEEN 0.0000
-2.0086 <s> NINETY 0.0000
-2.0086 <s> OFF 0.0000
-2.0086 <s> ON 0.0000
-2.0086 <s> ONE 0.0000
-2.0086 <s> ROLL 0.0000
-1.7076 <s> SEARCH 0.0000
-2.0086 <s> SEND 0.0000
-2.0086 <s> SET 0.0000
-2.0086 <s> SEVEN 0.0000
-2.0086 <s> SEVENTEEN 0.0000
-2.0086 <s> SEVENTY 0.0000
-2.0086 <s> SIX 0.0000
-2.0086 <s> SIXTEEN 0.0000
-2.0086 <s> SIXTY 0.0000
-2.0086 <s> TELL 0.0000
-2.0086 <s> TEN 0.0000
-2.0086 <s> THIRTEEN 0.0000
-2.0086 <s> THIRTY 0.0000
-2.0086 <s> THOUSAND 0.0000
-2.0086 <s> THREE 0.0000
-2.0086 <s> TURN 0.0000
-2.0086 <s> TWELVE 0.0000
-2.0086 <s> TWENTY 0.0000
-2.0086 <s> TWO 0.0000
-2.0086 <s> UP 0.0000
-1.7076 <s> WHAT 0.0000
-2.0086 <s> WHERE 0.0000
-2.0086 <s> WHO 0.0000
-0.7782 A COIN 0.0000
-0.7782 A JOKE 0.0000
-0.7782 A TIMER 0.0000
-0.3010 AN EMAIL 0.0000
-0.3010 ARE THEY 0.0000
-0.3010 BAD </s> -0.3010
-0.3010 COIN </s> -0.3010
-0.3010 CONNECTED </s> -0.3010
-0.3010 DICE </s> -0.3010
-0.3010 DOWN </s> -0.3010
-0.3010 EIGHT </s> -0.3010
-0.3010 EIGHTEEN </s> -0.3010
-0.3010 EIGHTY </s> -0.3010
-0.3010 ELEVEN </s> -0.3010
-0.3010 EMAIL </s> -0.3010
-0.3010 FIFTEEN </s> -0.3010
-0.3010 FIFTY </s> -0.3010
-0.3010 FIVE </s> -0.3010
-0.3010 FLIP A -0.2218
-0.3010 FOR </s> -0.3010
-0.3010 FOUR </s> -0.3010
-0.3010 FOURTEEN </s> -0.3010
-0.3010 FOURTY </s> -0.3010
-0.3010 GAETAN </s> -0.3010
-0.3010 GOOD </s> -0.3010
-0.3010 HUNDERED </s> -0.3010
-0.7782 IS CONNECTED 0.0000
-0.4771 IS IT 0.0000
-0.3010 IT </s> -0.3010
-0.3010 JOKE </s> -0.3010
-0.3010 LIGHTS </s> -0.3010
-0.3010 ME A -0.2218
-0.3010 MILLION </s> -0.3010
-0.3010 MOOD </s> -0.3010
-0.3010 NEGATIVE </s> -0.3010
-0.3010 NINE </s> -0.3010
-0.3010 NINETEEN </s> -0.3010
-0.3010 NINETY </s> -0.3010
-0.3010 OFF </s> -0.3010
-0.3010 ON </s> -0.3010
-0.3010 ONE </s> -0.3010
-0.3010 ROLL THE -0.2430
-0.3010 SEARCH THE -0.1761
-0.3010 SEND AN 0.0000
-0.3010 SET A -0.2218
-0.3010 SEVEN </s> -0.3010
-0.3010 SEVENTEEN </s> -0.3010
-0.3010 SEVENTY </s> -0.3010
-0.3010 SIX </s> -0.3010
-0.3010 SIXTEEN </s> -0.3010
-0.3010 SIXTY </s> -0.3010
-0.3010 TELL ME 0.0000
-0.3010 TEN </s> -0.3010
-0.9031 THE DICE 0.0000
-0.9031 THE LIGHTS 0.0000
-0.6021 THE WEB 0.0000
-0.3010 THEY CONNECTED 0.0000
-0.3010 THIRTEEN </s> -0.3010
-0.3010 THIRTY </s> -0.3010
-0.3010 THOUSAND </s> -0.3010
-0.3010 THREE </s> -0.3010
-0.3010 TIME IS -0.1249
-0.3010 TIMER FOR 0.0000
-0.3010 TURN THE -0.2430
-0.3010 TWELVE </s> -0.3010
-0.3010 TWENTY </s> -0.3010
-0.3010 TWO </s> -0.3010
-0.3010 UP </s> -0.3010
-0.6021 WEB </s> -0.3010
-0.6021 WEB FOR 0.0000
-0.3010 WHAT TIME 0.0000
-0.3010 WHERE ARE 0.0000
-0.3010 WHO IS -0.2218

\3-grams:
-0.3010 <s> BAD </s>
-0.3010 <s> DOWN </s>
-0.3010 <s> EIGHT </s>
-0.3010 <s> EIGHTEEN </s>
-0.3010 <s> EIGHTY </s>
-0.3010 <s> ELEVEN </s>
-0.3010 <s> FIFTEEN </s>
-0.3010 <s> FIFTY </s>
-0.3010 <s> FIVE </s>
-0.3010 <s> FLIP A
-0.3010 <s> FOUR </s>
-0.3010 <s> FOURTEEN </s>
-0.3010 <s> FOURTY </s>
-0.3010 <s> GAETAN </s>
-0.3010 <s> GOOD </s>
-0.3010 <s> HUNDERED </s>
-0.3010 <s> MILLION </s>
-0.3010 <s> MOOD </s>
-0.3010 <s> NEGATIVE </s>
-0.3010 <s> NINE </s>
-0.3010 <s> NINETEEN </s>
-0.3010 <s> NINETY </s>
-0.3010 <s> OFF </s>
-0.3010 <s> ON </s>
-0.3010 <s> ONE </s>
-0.3010 <s> ROLL THE
-0.3010 <s> SEARCH THE
-0.3010 <s> SEND AN
-0.3010 <s> SET A
-0.3010 <s> SEVEN </s>
-0.3010 <s> SEVENTEEN </s>
-0.3010 <s> SEVENTY </s>
-0.3010 <s> SIX </s>
-0.3010 <s> SIXTEEN </s>
-0.3010 <s> SIXTY </s>
-0.3010 <s> TELL ME
-0.3010 <s> TEN </s>
-0.3010 <s> THIRTEEN </s>
-0.3010 <s> THIRTY </s>
-0.3010 <s> THOUSAND </s>
-0.3010 <s> THREE </s>
-0.3010 <s> TURN THE
-0.3010 <s> TWELVE </s>
-0.3010 <s> TWENTY </s>
-0.3010 <s> TWO </s>
-0.3010 <s> UP </s>
-0.3010 <s> WHAT TIME
-0.3010 <s> WHERE ARE
-0.3010 <s> WHO IS
-0.3010 A COIN </s>
-0.3010 A JOKE </s>
-0.3010 A TIMER FOR
-0.3010 AN EMAIL </s>
-0.3010 ARE THEY CONNECTED
-0.3010 FLIP A COIN
-0.3010 IS CONNECTED </s>
-0.3010 IS IT </s>
-0.3010 ME A JOKE
-0.3010 ROLL THE DICE
-0.3010 SEARCH THE WEB
-0.3010 SEND AN EMAIL
-0.3010 SET A TIMER
-0.3010 TELL ME A
-0.3010 THE DICE </s>
-0.3010 THE LIGHTS </s>
-0.6021 THE WEB </s>
-0.6021 THE WEB FOR
-0.3010 THEY CONNECTED </s>
-0.3010 TIME IS IT
-0.3010 TIMER FOR </s>
-0.3010 TURN THE LIGHTS
-0.3010 WEB FOR </s>
-0.3010 WHAT TIME IS
-0.3010 WHERE ARE THEY
-0.3010 WHO IS CONNECTED

\end\
