Language model created by QuickLM on Wed Nov 22 20:07:24 EST 2017
Copyright (c) 1996-2010 Carnegie Mellon University and Alexander I. Rudnicky

The model is in standard ARPA format, designed by Doug Paul while he was at MITRE.

The code that was used to produce this language model is available in Open Source.
Please visit http://www.speech.cs.cmu.edu/tools/ for more information

The (fixed) discount mass is 0.5. The backoffs are computed using the ratio method.
This model based on a corpus of 240 sentences and 212 words

\data\
ngram 1=212
ngram 2=479
ngram 3=318

\1-grams:
-3.2143 1 -0.2322
-3.2143 10 -0.2322
-3.2143 100 -0.2322
-3.2143 11 -0.2322
-3.2143 12 -0.2322
-3.2143 13 -0.2322
-3.2143 14 -0.2322
-3.2143 15 -0.2322
-3.2143 16 -0.2322
-3.2143 17 -0.2322
-3.2143 18 -0.2322
-3.2143 19 -0.2322
-3.2143 2 -0.2322
-3.2143 20 -0.2322
-3.2143 21 -0.2322
-3.2143 22 -0.2322
-3.2143 23 -0.2322
-3.2143 24 -0.2322
-3.2143 25 -0.2322
-3.2143 26 -0.2322
-3.2143 27 -0.2322
-3.2143 28 -0.2322
-3.2143 29 -0.2322
-3.2143 3 -0.2322
-3.2143 30 -0.2322
-3.2143 31 -0.2322
-3.2143 32 -0.2322
-3.2143 33 -0.2322
-3.2143 34 -0.2322
-3.2143 35 -0.2322
-3.2143 36 -0.2322
-3.2143 37 -0.2322
-3.2143 38 -0.2322
-3.2143 39 -0.2322
-3.2143 4 -0.2322
-3.2143 40 -0.2322
-3.2143 41 -0.2322
-3.2143 42 -0.2322
-3.2143 43 -0.2322
-3.2143 44 -0.2322
-3.2143 45 -0.2322
-3.2143 46 -0.2322
-3.2143 47 -0.2322
-3.2143 48 -0.2322
-3.2143 49 -0.2322
-3.2143 5 -0.2322
-3.2143 50 -0.2322
-3.2143 51 -0.2322
-3.2143 52 -0.2322
-3.2143 53 -0.2322
-3.2143 54 -0.2322
-3.2143 55 -0.2322
-3.2143 56 -0.2322
-3.2143 57 -0.2322
-3.2143 58 -0.2322
-3.2143 59 -0.2322
-3.2143 6 -0.2322
-3.2143 60 -0.2322
-3.2143 61 -0.2322
-3.2143 62 -0.2322
-3.2143 63 -0.2322
-3.2143 64 -0.2322
-3.2143 65 -0.2322
-3.2143 66 -0.2322
-3.2143 67 -0.2322
-3.2143 68 -0.2322
-3.2143 69 -0.2322
-3.2143 7 -0.2322
-3.2143 70 -0.2322
-3.2143 71 -0.2322
-3.2143 72 -0.2322
-3.2143 73 -0.2322
-3.2143 74 -0.2322
-3.2143 75 -0.2322
-3.2143 76 -0.2322
-3.2143 77 -0.2322
-3.2143 78 -0.2322
-3.2143 79 -0.2322
-3.2143 8 -0.2322
-3.2143 80 -0.2322
-3.2143 81 -0.2322
-3.2143 82 -0.2322
-3.2143 83 -0.2322
-3.2143 84 -0.2322
-3.2143 85 -0.2322
-3.2143 86 -0.2322
-3.2143 87 -0.2322
-3.2143 88 -0.2322
-3.2143 89 -0.2322
-3.2143 9 -0.2322
-3.2143 90 -0.2322
-3.2143 91 -0.2322
-3.2143 92 -0.2322
-3.2143 93 -0.2322
-3.2143 94 -0.2322
-3.2143 95 -0.2322
-3.2143 96 -0.2322
-3.2143 97 -0.2322
-3.2143 98 -0.2322
-3.2143 99 -0.2322
-0.8341 </s> -0.3010
-0.8341 <s> -0.2040
-2.4362 A -0.2285
-3.2143 AGAIN -0.2322
-2.9133 AHEAD -0.2322
-2.6123 ALARM -0.2300
-2.6123 AM -0.2310
-2.7372 AN -0.2304
-2.6123 ARE -0.2297
-2.7372 AT -0.2313
-3.2143 BAD -0.2322
-2.9133 BEAM -0.2294
-3.2143 BEARING -0.2322
-2.9133 BEDTIME -0.2313
-3.2143 BILLION -0.2322
-3.2143 BRIGHTNESS -0.2322
-2.5153 CAN -0.2297
-2.9133 CHECK -0.2316
-3.2143 CLOCK -0.2322
-2.9133 CONNECTED -0.2322
-3.2143 CONTINUE -0.2322
-2.9133 CRACKING -0.2322
-2.9133 CURRENT -0.2319
-3.2143 DATE -0.2322
-3.2143 DECREASE -0.2322
-3.2143 DIM -0.2322
-3.2143 DIRECTORY -0.2322
-3.2143 DOING -0.2322
-2.7372 DOWN -0.2322
-2.9133 EMAIL -0.2319
-3.2143 ENGAGE -0.3008
-2.9133 ENGINES -0.2300
-3.2143 EVENTS -0.2322
-2.3692 FOR -0.2313
-3.2143 FORECAST -0.2322
-3.2143 FREMONT -0.2322
-2.9133 FROM -0.2322
-3.2143 FUNNY -0.2322
-2.9133 GAETAN -0.2322
-3.2143 GO -0.3005
-3.2143 GOOD -0.2322
-3.2143 GOOGLE -0.2322
-3.2143 HELLO -0.2322
-3.2143 HERE -0.2322
-2.9133 HISTORY -0.2322
-2.5153 HOW -0.2285
-3.2143 HUNDRED -0.2322
-2.6123 I -0.2322
-3.2143 IN -0.2322
-3.2143 INCREASE -0.2322
-2.9133 INSULT -0.2322
-2.4362 IS -0.2294
-2.7372 JOKE -0.2322
-2.9133 LEVEL -0.2310
-2.7372 LIGHTS -0.2297
-2.9133 LIKE -0.2322
-3.2143 LOCK -0.3008
-2.9133 LONG -0.2316
-3.2143 MAX -0.2322
-2.2601 ME -0.2269
-3.2143 MILLION -0.2322
-2.9133 MUSIC -0.2322
-3.2143 MUTE -0.2322
-3.2143 MY -0.2322
-3.2143 OFF -0.2322
-3.2143 ON -0.2322
-3.2143 OPEN -0.2322
-3.2143 OUR -0.3005
-2.9133 PLAY -0.2316
-3.2143 PLEASE -0.2322
-3.2143 PM -0.2322
-3.2143 POINT -0.2322
-3.2143 PREPARE -0.3000
-3.2143 READY -0.2322
-2.9133 REPORT -0.2322
-3.2143 SCHEDULE -0.2986
-3.2143 SCREEN -0.2322
-2.9133 SEARCH -0.2300
-2.9133 SEND -0.2316
-2.3692 SET -0.2269
-2.9133 SHOW -0.2294
-3.2143 SING -0.2322
-3.2143 SOUL -0.2322
-3.2143 STEAL -0.2322
-3.2143 STOP -0.2322
-2.7372 STORY -0.2322
-2.9133 TAKE -0.2313
-2.3692 TELL -0.2275
-3.2143 THAT -0.3005
-2.6123 THE -0.2297
-3.2143 THOUSAND -0.2322
-3.2143 TIME -0.2322
-2.6123 TIMER -0.2300
-3.2143 TO -0.2322
-3.2143 TODAY -0.2322
-3.2143 TOMORROW -0.2322
-2.7372 TRAFFIC -0.2310
-3.2143 TURN -0.2322
-2.5153 UP -0.2322
-2.7372 VOLUME -0.2297
-2.7372 WARP -0.2322
-2.7372 WEATHER -0.2310
-3.2143 WEB -0.2322
-2.7372 WHAT -0.2297
-2.6123 WHATS -0.2294
-3.2143 WHEN -0.3008
-2.7372 WHERE -0.2297
-2.5153 WHO -0.2279
-2.9133 WILL -0.2319
-2.9133 WRONG -0.2322
-2.3112 YOU -0.2272
-3.2143 YOUTUBE -0.2322

\2-grams:
-0.3010 1 </s> -0.3010
-0.3010 10 </s> -0.3010
-0.3010 100 </s> -0.3010
-0.3010 11 </s> -0.3010
-0.3010 12 </s> -0.3010
-0.3010 13 </s> -0.3010
-0.3010 14 </s> -0.3010
-0.3010 15 </s> -0.3010
-0.3010 16 </s> -0.3010
-0.3010 17 </s> -0.3010
-0.3010 18 </s> -0.3010
-0.3010 19 </s> -0.3010
-0.3010 2 </s> -0.3010
-0.3010 20 </s> -0.3010
-0.3010 21 </s> -0.3010
-0.3010 22 </s> -0.3010
-0.3010 23 </s> -0.3010
-0.3010 24 </s> -0.3010
-0.3010 25 </s> -0.3010
-0.3010 26 </s> -0.3010
-0.3010 27 </s> -0.3010
-0.3010 28 </s> -0.3010
-0.3010 29 </s> -0.3010
-0.3010 3 </s> -0.3010
-0.3010 30 </s> -0.3010
-0.3010 31 </s> -0.3010
-0.3010 32 </s> -0.3010
-0.3010 33 </s> -0.3010
-0.3010 34 </s> -0.3010
-0.3010 35 </s> -0.3010
-0.3010 36 </s> -0.3010
-0.3010 37 </s> -0.3010
-0.3010 38 </s> -0.3010
-0.3010 39 </s> -0.3010
-0.3010 4 </s> -0.3010
-0.3010 40 </s> -0.3010
-0.3010 41 </s> -0.3010
-0.3010 42 </s> -0.3010
-0.3010 43 </s> -0.3010
-0.3010 44 </s> -0.3010
-0.3010 45 </s> -0.3010
-0.3010 46 </s> -0.3010
-0.3010 47 </s> -0.3010
-0.3010 48 </s> -0.3010
-0.3010 49 </s> -0.3010
-0.3010 5 </s> -0.3010
-0.3010 50 </s> -0.3010
-0.3010 51 </s> -0.3010
-0.3010 52 </s> -0.3010
-0.3010 53 </s> -0.3010
-0.3010 54 </s> -0.3010
-0.3010 55 </s> -0.3010
-0.3010 56 </s> -0.3010
-0.3010 57 </s> -0.3010
-0.3010 58 </s> -0.3010
-0.3010 59 </s> -0.3010
-0.3010 6 </s> -0.3010
-0.3010 60 </s> -0.3010
-0.3010 61 </s> -0.3010
-0.3010 62 </s> -0.3010
-0.3010 63 </s> -0.3010
-0.3010 64 </s> -0.3010
-0.3010 65 </s> -0.3010
-0.3010 66 </s> -0.3010
-0.3010 67 </s> -0.3010
-0.3010 68 </s> -0.3010
-0.3010 69 </s> -0.3010
-0.3010 7 </s> -0.3010
-0.3010 70 </s> -0.3010
-0.3010 71 </s> -0.3010
-0.3010 72 </s> -0.3010
-0.3010 73 </s> -0.3010
-0.3010 74 </s> -0.3010
-0.3010 75 </s> -0.3010
-0.3010 76 </s> -0.3010
-0.3010 77 </s> -0.3010
-0.3010 78 </s> -0.3010
-0.3010 79 </s> -0.3010
-0.3010 8 </s> -0.3010
-0.3010 80 </s> -0.3010
-0.3010 81 </s> -0.3010
-0.3010 82 </s> -0.3010
-0.3010 83 </s> -0.3010
-0.3010 84 </s> -0.3010
-0.3010 85 </s> -0.3010
-0.3010 86 </s> -0.3010
-0.3010 87 </s> -0.3010
-0.3010 88 </s> -0.3010
-0.3010 89 </s> -0.3010
-0.3010 9 </s> -0.3010
-0.3010 90 </s> -0.3010
-0.3010 91 </s> -0.3010
-0.3010 92 </s> -0.3010
-0.3010 93 </s> -0.3010
-0.3010 94 </s> -0.3010
-0.3010 95 </s> -0.3010
-0.3010 96 </s> -0.3010
-0.3010 97 </s> -0.3010
-0.3010 98 </s> -0.3010
-0.3010 99 </s> -0.3010
-2.6812 <s> 1 0.0000
-2.6812 <s> 10 0.0000
-2.6812 <s> 100 0.0000
-2.6812 <s> 11 0.0000
-2.6812 <s> 12 0.0000
-2.6812 <s> 13 0.0000
-2.6812 <s> 14 0.0000
-2.6812 <s> 15 0.0000
-2.6812 <s> 16 0.0000
-2.6812 <s> 17 0.0000
-2.6812 <s> 18 0.0000
-2.6812 <s> 19 0.0000
-2.6812 <s> 2 0.0000
-2.6812 <s> 20 0.0000
-2.6812 <s> 21 0.0000
-2.6812 <s> 22 0.0000
-2.6812 <s> 23 0.0000
-2.6812 <s> 24 0.0000
-2.6812 <s> 25 0.0000
-2.6812 <s> 26 0.0000
-2.6812 <s> 27 0.0000
-2.6812 <s> 28 0.0000
-2.6812 <s> 29 0.0000
-2.6812 <s> 3 0.0000
-2.6812 <s> 30 0.0000
-2.6812 <s> 31 0.0000
-2.6812 <s> 32 0.0000
-2.6812 <s> 33 0.0000
-2.6812 <s> 34 0.0000
-2.6812 <s> 35 0.0000
-2.6812 <s> 36 0.0000
-2.6812 <s> 37 0.0000
-2.6812 <s> 38 0.0000
-2.6812 <s> 39 0.0000
-2.6812 <s> 4 0.0000
-2.6812 <s> 40 0.0000
-2.6812 <s> 41 0.0000
-2.6812 <s> 42 0.0000
-2.6812 <s> 43 0.0000
-2.6812 <s> 44 0.0000
-2.6812 <s> 45 0.0000
-2.6812 <s> 46 0.0000
-2.6812 <s> 47 0.0000
-2.6812 <s> 48 0.0000
-2.6812 <s> 49 0.0000
-2.6812 <s> 5 0.0000
-2.6812 <s> 50 0.0000
-2.6812 <s> 51 0.0000
-2.6812 <s> 52 0.0000
-2.6812 <s> 53 0.0000
-2.6812 <s> 54 0.0000
-2.6812 <s> 55 0.0000
-2.6812 <s> 56 0.0000
-2.6812 <s> 57 0.0000
-2.6812 <s> 58 0.0000
-2.6812 <s> 59 0.0000
-2.6812 <s> 6 0.0000
-2.6812 <s> 60 0.0000
-2.6812 <s> 61 0.0000
-2.6812 <s> 62 0.0000
-2.6812 <s> 63 0.0000
-2.6812 <s> 64 0.0000
-2.6812 <s> 65 0.0000
-2.6812 <s> 66 0.0000
-2.6812 <s> 67 0.0000
-2.6812 <s> 68 0.0000
-2.6812 <s> 69 0.0000
-2.6812 <s> 7 0.0000
-2.6812 <s> 70 0.0000
-2.6812 <s> 71 0.0000
-2.6812 <s> 72 0.0000
-2.6812 <s> 73 0.0000
-2.6812 <s> 74 0.0000
-2.6812 <s> 75 0.0000
-2.6812 <s> 76 0.0000
-2.6812 <s> 77 0.0000
-2.6812 <s> 78 0.0000
-2.6812 <s> 79 0.0000
-2.6812 <s> 8 0.0000
-2.6812 <s> 80 0.0000
-2.6812 <s> 81 0.0000
-2.6812 <s> 82 0.0000
-2.6812 <s> 83 0.0000
-2.6812 <s> 84 0.0000
-2.6812 <s> 85 0.0000
-2.6812 <s> 86 0.0000
-2.6812 <s> 87 0.0000
-2.6812 <s> 88 0.0000
-2.6812 <s> 89 0.0000
-2.6812 <s> 9 0.0000
-2.6812 <s> 90 0.0000
-2.6812 <s> 91 0.0000
-2.6812 <s> 92 0.0000
-2.6812 <s> 93 0.0000
-2.6812 <s> 94 0.0000
-2.6812 <s> 95 0.0000
-2.6812 <s> 96 0.0000
-2.6812 <s> 97 0.0000
-2.6812 <s> 98 0.0000
-2.6812 <s> 99 0.0000
-2.6812 <s> A -0.2632
-2.6812 <s> AGAIN 0.0000
-2.6812 <s> AHEAD 0.0000
-2.6812 <s> ALARM -0.1761
-2.6812 <s> AM -0.2430
-2.6812 <s> AN -0.2218
-2.6812 <s> ARE -0.2430
-2.6812 <s> AT -0.1249
-2.6812 <s> BAD 0.0000
-2.3802 <s> BEAM 0.0000
-2.6812 <s> BEDTIME -0.1761
-2.6812 <s> BILLION 0.0000
-2.6812 <s> BRIGHTNESS 0.0000
-1.9823 <s> CAN 0.0000
-2.3802 <s> CHECK 0.0000
-2.6812 <s> CLOCK 0.0000
-2.6812 <s> CONNECTED 0.0000
-2.6812 <s> CONTINUE 0.0000
-2.6812 <s> CRACKING 0.0000
-2.6812 <s> CURRENT -0.1761
-2.6812 <s> DATE 0.0000
-2.6812 <s> DECREASE 0.0000
-2.6812 <s> DIM 0.0000
-2.6812 <s> DIRECTORY 0.0000
-2.6812 <s> DOING 0.0000
-2.6812 <s> DOWN 0.0000
-2.6812 <s> EMAIL -0.1761
-2.6812 <s> ENGAGE 0.0000
-2.6812 <s> ENGINES -0.1761
-2.6812 <s> EVENTS 0.0000
-2.6812 <s> FOR -0.0580
-2.6812 <s> FORECAST 0.0000
-2.6812 <s> FREMONT 0.0000
-2.6812 <s> FROM 0.0000
-2.6812 <s> FUNNY 0.0000
-2.6812 <s> GAETAN 0.0000
-2.6812 <s> GO 0.0000
-2.6812 <s> GOOD 0.0000
-2.6812 <s> GOOGLE 0.0000
-2.6812 <s> HELLO 0.0000
-2.6812 <s> HERE 0.0000
-2.6812 <s> HISTORY 0.0000
-1.9823 <s> HOW 0.0000
-2.6812 <s> HUNDRED 0.0000
-2.6812 <s> I 0.0000
-2.6812 <s> IN 0.0000
-2.6812 <s> INCREASE 0.0000
-2.6812 <s> INSULT 0.0000
-2.6812 <s> IS -0.2632
-2.6812 <s> JOKE 0.0000
-2.6812 <s> LEVEL -0.1761
-2.2041 <s> LIGHTS 0.0000
-2.6812 <s> LOCK 0.0000
-2.6812 <s> LONG -0.1761
-2.6812 <s> MAX 0.0000
-2.6812 <s> ME -0.2218
-2.6812 <s> MILLION 0.0000
-2.6812 <s> MUSIC 0.0000
-2.6812 <s> MUTE 0.0000
-2.6812 <s> MY 0.0000
-2.6812 <s> OFF 0.0000
-2.6812 <s> ON 0.0000
-2.6812 <s> OPEN 0.0000
-2.3802 <s> PLAY 0.0000
-2.6812 <s> PLEASE 0.0000
-2.6812 <s> PM 0.0000
-2.6812 <s> POINT 0.0000
-2.6812 <s> PREPARE 0.0000
-2.6812 <s> SCHEDULE 0.0000
-2.3802 <s> SEARCH 0.0000
-2.3802 <s> SEND 0.0000
-1.9823 <s> SET -0.1091
-2.3802 <s> SHOW 0.0000
-2.6812 <s> SING 0.0000
-2.6812 <s> SOUL 0.0000
-2.6812 <s> STEAL 0.0000
-2.6812 <s> STOP 0.0000
-2.6812 <s> STORY 0.0000
-2.6812 <s> TAKE -0.1761
-1.9823 <s> TELL 0.0000
-2.6812 <s> THE -0.2430
-2.6812 <s> THOUSAND 0.0000
-2.6812 <s> TIME 0.0000
-2.6812 <s> TIMER -0.1761
-2.6812 <s> TODAY 0.0000
-2.6812 <s> TOMORROW 0.0000
-2.3802 <s> TRAFFIC -0.1249
-2.6812 <s> TURN 0.0000
-2.6812 <s> UP 0.0000
-2.2041 <s> VOLUME 0.0000
-2.6812 <s> WARP 0.0000
-2.3802 <s> WEATHER -0.1249
-2.6812 <s> WEB 0.0000
-2.2041 <s> WHAT 0.0000
-2.0792 <s> WHATS 0.0000
-2.2041 <s> WHERE 0.0000
-1.9823 <s> WHO 0.0000
-2.6812 <s> WILL -0.1761
-2.6812 <s> WRONG 0.0000
-2.6812 <s> YOU -0.2109
-2.6812 <s> YOUTUBE 0.0000
-1.0792 A </s> -0.3010
-1.0792 A BEDTIME -0.1761
-0.7782 A JOKE 0.0000
-1.0792 A STORY 0.0000
-1.0792 A TIMER -0.1761
-0.3010 AGAIN </s> -0.3010
-0.3010 AHEAD </s> -0.3010
-0.6021 ALARM </s> -0.3010
-0.6021 ALARM FOR -0.0580
-0.9031 AM </s> -0.3010
-0.4260 AM I 0.0000
-0.7782 AN </s> -0.3010
-0.7782 AN ALARM -0.1761
-0.7782 AN INSULT 0.0000
-0.9031 ARE </s> -0.3010
-0.4260 ARE YOU -0.1761
-0.4771 AT </s> -0.3010
-0.7782 AT WARP 0.0000
-0.3010 BAD </s> -0.3010
-0.6021 BEAM </s> -0.3010
-0.6021 BEAM ME -0.2762
-0.3010 BEARING </s> -0.3010
-0.6021 BEDTIME </s> -0.3010
-0.6021 BEDTIME STORY 0.0000
-0.3010 BILLION </s> -0.3010
-0.3010 BRIGHTNESS </s> -0.3010
-1.0000 CAN </s> -0.3010
-0.3979 CAN YOU -0.1761
-0.6021 CHECK </s> -0.3010
-0.6021 CHECK HISTORY 0.0000
-0.3010 CLOCK </s> -0.3010
-0.3010 CONNECTED </s> -0.3010
-0.3010 CONTINUE </s> -0.3010
-0.3010 CRACKING </s> -0.3010
-0.6021 CURRENT </s> -0.3010
-0.6021 CURRENT BEARING 0.0000
-0.3010 DATE </s> -0.3010
-0.3010 DECREASE </s> -0.3010
-0.3010 DIM </s> -0.3010
-0.3010 DIRECTORY </s> -0.3010
-0.3010 DOING </s> -0.3010
-0.3010 DOWN </s> -0.3010
-0.6021 EMAIL </s> -0.3010
-0.6021 EMAIL TO 0.0000
-0.3010 ENGAGE WHEN 0.0000
-0.6021 ENGINES </s> -0.3010
-0.6021 ENGINES FOR -0.2688
-0.3010 EVENTS </s> -0.3010
-0.3680 FOR </s> -0.3010
-1.1461 FOR WARP 0.0000
-0.3010 FORECAST </s> -0.3010
-0.3010 FREMONT </s> -0.3010
-0.3010 FROM </s> -0.3010
-0.3010 FUNNY </s> -0.3010
-0.3010 GAETAN </s> -0.3010
-0.3010 GO AHEAD 0.0000
-0.3010 GOOD </s> -0.3010
-0.3010 GOOGLE </s> -0.3010
-0.3010 HELLO </s> -0.3010
-0.3010 HERE </s> -0.3010
-0.3010 HISTORY </s> -0.3010
-1.0000 HOW </s> -0.3010
-1.0000 HOW ARE -0.0969
-0.6990 HOW IS -0.2218
-1.0000 HOW LONG -0.1761
-0.3010 HUNDRED </s> -0.3010
-0.3010 I </s> -0.3010
-0.3010 IN </s> -0.3010
-0.3010 INCREASE </s> -0.3010
-0.3010 INSULT </s> -0.3010
-1.0792 IS </s> -0.3010
-1.0792 IS CONNECTED 0.0000
-1.0792 IS GAETAN 0.0000
-1.0792 IS OUR 0.0000
-0.7782 IS THE -0.1761
-0.3010 JOKE </s> -0.3010
-0.6021 LEVEL </s> -0.3010
-0.6021 LEVEL AM -0.0969
-0.7782 LIGHTS </s> -0.3010
-0.7782 LIGHTS DOWN 0.0000
-0.7782 LIGHTS UP 0.0000
-0.3010 LIKE </s> -0.3010
-0.3010 LOCK SCREEN 0.0000
-0.6021 LONG </s> -0.3010
-0.6021 LONG WILL -0.1761
-0.3010 MAX </s> -0.3010
-0.7782 ME </s> -0.3010
-0.7782 ME A -0.1249
-1.2553 ME AN -0.2218
-1.2553 ME AT -0.1249
-1.2553 ME UP 0.0000
-0.3010 MILLION </s> -0.3010
-0.3010 MUSIC </s> -0.3010
-0.3010 MUTE </s> -0.3010
-0.3010 MY </s> -0.3010
-0.3010 OFF </s> -0.3010
-0.3010 ON </s> -0.3010
-0.3010 OPEN </s> -0.3010
-0.3010 OUR CURRENT -0.1761
-0.6021 PLAY </s> -0.3010
-0.6021 PLAY MUSIC 0.0000
-0.3010 PLEASE </s> -0.3010
-0.3010 PM </s> -0.3010
-0.3010 POINT </s> -0.3010
-0.3010 PREPARE THE -0.2430
-0.3010 READY </s> -0.3010
-0.3010 REPORT </s> -0.3010
-0.3010 SCHEDULE ME -0.2762
-0.3010 SCREEN </s> -0.3010
-0.6021 SEARCH </s> -0.3010
-0.6021 SEARCH FOR -0.0580
-0.6021 SEND </s> -0.3010
-0.6021 SEND EMAIL -0.1761
-1.1461 SET </s> -0.3010
-1.1461 SET A -0.2632
-0.8451 SET ALARM 0.0000
-1.1461 SET AN -0.2218
-0.8451 SET TIMER 0.0000
-0.6021 SHOW </s> -0.3010
-0.6021 SHOW ME -0.2218
-0.3010 SING </s> -0.3010
-0.3010 SOUL </s> -0.3010
-0.3010 STEAL </s> -0.3010
-0.3010 STOP </s> -0.3010
-0.3010 STORY </s> -0.3010
-0.6021 TAKE </s> -0.3010
-0.6021 TAKE AT -0.2218
-1.1461 TELL </s> -0.3010
-1.1461 TELL A -0.2218
-0.4472 TELL ME -0.0872
-0.3010 THAT TAKE -0.1761
-0.9031 THE </s> -0.3010
-0.9031 THE ENGINES -0.1761
-0.9031 THE TRAFFIC -0.2218
-0.9031 THE WEATHER -0.2218
-0.3010 THOUSAND </s> -0.3010
-0.3010 TIME </s> -0.3010
-0.6021 TIMER </s> -0.3010
-0.6021 TIMER FOR -0.0580
-0.3010 TO </s> -0.3010
-0.3010 TODAY </s> -0.3010
-0.3010 TOMORROW </s> -0.3010
-0.7782 TRAFFIC </s> -0.3010
-0.7782 TRAFFIC LIKE 0.0000
-0.7782 TRAFFIC REPORT 0.0000
-0.3010 TURN </s> -0.3010
-0.3010 UP </s> -0.3010
-0.7782 VOLUME </s> -0.3010
-0.7782 VOLUME DOWN 0.0000
-0.7782 VOLUME UP 0.0000
-0.3010 WARP </s> -0.3010
-0.7782 WEATHER </s> -0.3010
-0.7782 WEATHER LIKE 0.0000
-0.7782 WEATHER REPORT 0.0000
-0.3010 WEB </s> -0.3010
-0.7782 WHAT </s> -0.3010
-0.7782 WHAT IS -0.2632
-0.7782 WHAT LEVEL -0.1761
-0.9031 WHATS </s> -0.3010
-0.9031 WHATS CRACKING 0.0000
-0.9031 WHATS UP 0.0000
-0.9031 WHATS WRONG 0.0000
-0.3010 WHEN READY 0.0000
-0.7782 WHERE </s> -0.3010
-0.7782 WHERE AM -0.0969
-0.7782 WHERE ARE -0.0969
-1.0000 WHO </s> -0.3010
-1.0000 WHO AM -0.0969
-1.0000 WHO ARE -0.0969
-0.6990 WHO IS -0.2218
-0.6021 WILL </s> -0.3010
-0.6021 WILL THAT 0.0000
-0.3010 WRONG </s> -0.3010
-0.7270 YOU </s> -0.3010
-1.2041 YOU FROM 0.0000
-0.9031 YOU SET -0.2341
-0.9031 YOU TELL -0.1091
-0.3010 YOUTUBE </s> -0.3010

\3-grams:
-0.3010 <s> 1 </s>
-0.3010 <s> 10 </s>
-0.3010 <s> 100 </s>
-0.3010 <s> 11 </s>
-0.3010 <s> 12 </s>
-0.3010 <s> 13 </s>
-0.3010 <s> 14 </s>
-0.3010 <s> 15 </s>
-0.3010 <s> 16 </s>
-0.3010 <s> 17 </s>
-0.3010 <s> 18 </s>
-0.3010 <s> 19 </s>
-0.3010 <s> 2 </s>
-0.3010 <s> 20 </s>
-0.3010 <s> 21 </s>
-0.3010 <s> 22 </s>
-0.3010 <s> 23 </s>
-0.3010 <s> 24 </s>
-0.3010 <s> 25 </s>
-0.3010 <s> 26 </s>
-0.3010 <s> 27 </s>
-0.3010 <s> 28 </s>
-0.3010 <s> 29 </s>
-0.3010 <s> 3 </s>
-0.3010 <s> 30 </s>
-0.3010 <s> 31 </s>
-0.3010 <s> 32 </s>
-0.3010 <s> 33 </s>
-0.3010 <s> 34 </s>
-0.3010 <s> 35 </s>
-0.3010 <s> 36 </s>
-0.3010 <s> 37 </s>
-0.3010 <s> 38 </s>
-0.3010 <s> 39 </s>
-0.3010 <s> 4 </s>
-0.3010 <s> 40 </s>
-0.3010 <s> 41 </s>
-0.3010 <s> 42 </s>
-0.3010 <s> 43 </s>
-0.3010 <s> 44 </s>
-0.3010 <s> 45 </s>
-0.3010 <s> 46 </s>
-0.3010 <s> 47 </s>
-0.3010 <s> 48 </s>
-0.3010 <s> 49 </s>
-0.3010 <s> 5 </s>
-0.3010 <s> 50 </s>
-0.3010 <s> 51 </s>
-0.3010 <s> 52 </s>
-0.3010 <s> 53 </s>
-0.3010 <s> 54 </s>
-0.3010 <s> 55 </s>
-0.3010 <s> 56 </s>
-0.3010 <s> 57 </s>
-0.3010 <s> 58 </s>
-0.3010 <s> 59 </s>
-0.3010 <s> 6 </s>
-0.3010 <s> 60 </s>
-0.3010 <s> 61 </s>
-0.3010 <s> 62 </s>
-0.3010 <s> 63 </s>
-0.3010 <s> 64 </s>
-0.3010 <s> 65 </s>
-0.3010 <s> 66 </s>
-0.3010 <s> 67 </s>
-0.3010 <s> 68 </s>
-0.3010 <s> 69 </s>
-0.3010 <s> 7 </s>
-0.3010 <s> 70 </s>
-0.3010 <s> 71 </s>
-0.3010 <s> 72 </s>
-0.3010 <s> 73 </s>
-0.3010 <s> 74 </s>
-0.3010 <s> 75 </s>
-0.3010 <s> 76 </s>
-0.3010 <s> 77 </s>
-0.3010 <s> 78 </s>
-0.3010 <s> 79 </s>
-0.3010 <s> 8 </s>
-0.3010 <s> 80 </s>
-0.3010 <s> 81 </s>
-0.3010 <s> 82 </s>
-0.3010 <s> 83 </s>
-0.3010 <s> 84 </s>
-0.3010 <s> 85 </s>
-0.3010 <s> 86 </s>
-0.3010 <s> 87 </s>
-0.3010 <s> 88 </s>
-0.3010 <s> 89 </s>
-0.3010 <s> 9 </s>
-0.3010 <s> 90 </s>
-0.3010 <s> 91 </s>
-0.3010 <s> 92 </s>
-0.3010 <s> 93 </s>
-0.3010 <s> 94 </s>
-0.3010 <s> 95 </s>
-0.3010 <s> 96 </s>
-0.3010 <s> 97 </s>
-0.3010 <s> 98 </s>
-0.3010 <s> 99 </s>
-0.3010 <s> A </s>
-0.3010 <s> AGAIN </s>
-0.3010 <s> AHEAD </s>
-0.3010 <s> ALARM </s>
-0.3010 <s> AM </s>
-0.3010 <s> AN </s>
-0.3010 <s> ARE </s>
-0.3010 <s> AT </s>
-0.3010 <s> BAD </s>
-0.6021 <s> BEAM </s>
-0.6021 <s> BEAM ME
-0.3010 <s> BEDTIME </s>
-0.3010 <s> BILLION </s>
-0.3010 <s> BRIGHTNESS </s>
-1.0000 <s> CAN </s>
-0.3979 <s> CAN YOU
-0.6021 <s> CHECK </s>
-0.6021 <s> CHECK HISTORY
-0.3010 <s> CLOCK </s>
-0.3010 <s> CONNECTED </s>
-0.3010 <s> CONTINUE </s>
-0.3010 <s> CRACKING </s>
-0.3010 <s> CURRENT </s>
-0.3010 <s> DATE </s>
-0.3010 <s> DECREASE </s>
-0.3010 <s> DIM </s>
-0.3010 <s> DIRECTORY </s>
-0.3010 <s> DOING </s>
-0.3010 <s> DOWN </s>
-0.3010 <s> EMAIL </s>
-0.3010 <s> ENGAGE WHEN
-0.3010 <s> ENGINES </s>
-0.3010 <s> EVENTS </s>
-0.3010 <s> FOR </s>
-0.3010 <s> FORECAST </s>
-0.3010 <s> FREMONT </s>
-0.3010 <s> FROM </s>
-0.3010 <s> FUNNY </s>
-0.3010 <s> GAETAN </s>
-0.3010 <s> GO AHEAD
-0.3010 <s> GOOD </s>
-0.3010 <s> GOOGLE </s>
-0.3010 <s> HELLO </s>
-0.3010 <s> HERE </s>
-0.3010 <s> HISTORY </s>
-1.0000 <s> HOW </s>
-1.0000 <s> HOW ARE
-0.6990 <s> HOW IS
-1.0000 <s> HOW LONG
-0.3010 <s> HUNDRED </s>
-0.3010 <s> I </s>
-0.3010 <s> IN </s>
-0.3010 <s> INCREASE </s>
-0.3010 <s> INSULT </s>
-0.3010 <s> IS </s>
-0.3010 <s> JOKE </s>
-0.3010 <s> LEVEL </s>
-0.7782 <s> LIGHTS </s>
-0.7782 <s> LIGHTS DOWN
-0.7782 <s> LIGHTS UP
-0.3010 <s> LOCK SCREEN
-0.3010 <s> LONG </s>
-0.3010 <s> MAX </s>
-0.3010 <s> ME </s>
-0.3010 <s> MILLION </s>
-0.3010 <s> MUSIC </s>
-0.3010 <s> MUTE </s>
-0.3010 <s> MY </s>
-0.3010 <s> OFF </s>
-0.3010 <s> ON </s>
-0.3010 <s> OPEN </s>
-0.6021 <s> PLAY </s>
-0.6021 <s> PLAY MUSIC
-0.3010 <s> PLEASE </s>
-0.3010 <s> PM </s>
-0.3010 <s> POINT </s>
-0.3010 <s> PREPARE THE
-0.3010 <s> SCHEDULE ME
-0.6021 <s> SEARCH </s>
-0.6021 <s> SEARCH FOR
-0.6021 <s> SEND </s>
-0.6021 <s> SEND EMAIL
-1.0000 <s> SET </s>
-0.6990 <s> SET ALARM
-0.6990 <s> SET TIMER
-0.6021 <s> SHOW </s>
-0.6021 <s> SHOW ME
-0.3010 <s> SING </s>
-0.3010 <s> SOUL </s>
-0.3010 <s> STEAL </s>
-0.3010 <s> STOP </s>
-0.3010 <s> STORY </s>
-0.3010 <s> TAKE </s>
-1.0000 <s> TELL </s>
-1.0000 <s> TELL A
-0.5229 <s> TELL ME
-0.3010 <s> THE </s>
-0.3010 <s> THOUSAND </s>
-0.3010 <s> TIME </s>
-0.3010 <s> TIMER </s>
-0.3010 <s> TODAY </s>
-0.3010 <s> TOMORROW </s>
-0.6021 <s> TRAFFIC </s>
-0.6021 <s> TRAFFIC REPORT
-0.3010 <s> TURN </s>
-0.3010 <s> UP </s>
-0.7782 <s> VOLUME </s>
-0.7782 <s> VOLUME DOWN
-0.7782 <s> VOLUME UP
-0.3010 <s> WARP </s>
-0.6021 <s> WEATHER </s>
-0.6021 <s> WEATHER REPORT
-0.3010 <s> WEB </s>
-0.7782 <s> WHAT </s>
-0.7782 <s> WHAT IS
-0.7782 <s> WHAT LEVEL
-0.9031 <s> WHATS </s>
-0.9031 <s> WHATS CRACKING
-0.9031 <s> WHATS UP
-0.9031 <s> WHATS WRONG
-0.7782 <s> WHERE </s>
-0.7782 <s> WHERE AM
-0.7782 <s> WHERE ARE
-1.0000 <s> WHO </s>
-1.0000 <s> WHO AM
-1.0000 <s> WHO ARE
-0.6990 <s> WHO IS
-0.3010 <s> WILL </s>
-0.3010 <s> WRONG </s>
-0.3010 <s> YOU </s>
-0.3010 <s> YOUTUBE </s>
-0.3010 A BEDTIME STORY
-0.3010 A JOKE </s>
-0.3010 A STORY </s>
-0.3010 A TIMER FOR
-0.3010 ALARM FOR </s>
-0.3010 AM I </s>
-0.3010 AN ALARM FOR
-0.3010 AN INSULT </s>
-0.4771 ARE YOU </s>
-0.7782 ARE YOU FROM
-0.3010 AT WARP </s>
-0.3010 BEAM ME UP
-0.3010 BEDTIME STORY </s>
-0.6021 CAN YOU SET
-0.6021 CAN YOU TELL
-0.3010 CHECK HISTORY </s>
-0.3010 CURRENT BEARING </s>
-0.3010 EMAIL TO </s>
-0.3010 ENGAGE WHEN READY
-0.3010 ENGINES FOR WARP
-0.3010 FOR WARP </s>
-0.3010 GO AHEAD </s>
-0.3010 HOW ARE YOU
-0.3010 HOW IS THE
-0.3010 HOW LONG WILL
-0.3010 IS CONNECTED </s>
-0.3010 IS GAETAN </s>
-0.3010 IS OUR CURRENT
-0.6021 IS THE TRAFFIC
-0.6021 IS THE WEATHER
-0.3010 LEVEL AM I
-0.3010 LIGHTS DOWN </s>
-0.3010 LIGHTS UP </s>
-0.3010 LOCK SCREEN </s>
-0.3010 LONG WILL THAT
-0.7782 ME A BEDTIME
-0.7782 ME A JOKE
-0.7782 ME A STORY
-0.3010 ME AN INSULT
-0.3010 ME AT </s>
-0.3010 ME UP </s>
-0.3010 OUR CURRENT BEARING
-0.3010 PLAY MUSIC </s>
-0.3010 PREPARE THE ENGINES
-0.3010 SCHEDULE ME AT
-0.3010 SEARCH FOR </s>
-0.3010 SEND EMAIL TO
-0.3010 SET A TIMER
-0.6021 SET ALARM </s>
-0.6021 SET ALARM FOR
-0.3010 SET AN ALARM
-0.6021 SET TIMER </s>
-0.6021 SET TIMER FOR
-0.3010 SHOW ME </s>
-0.3010 TAKE AT WARP
-0.3010 TELL A JOKE
-1.0000 TELL ME </s>
-0.5229 TELL ME A
-1.0000 TELL ME AN
-0.3010 THAT TAKE AT
-0.3010 THE ENGINES FOR
-0.3010 THE TRAFFIC LIKE
-0.3010 THE WEATHER LIKE
-0.3010 TIMER FOR </s>
-0.3010 TRAFFIC LIKE </s>
-0.3010 TRAFFIC REPORT </s>
-0.3010 VOLUME DOWN </s>
-0.3010 VOLUME UP </s>
-0.3010 WEATHER LIKE </s>
-0.3010 WEATHER REPORT </s>
-0.3010 WHAT IS OUR
-0.3010 WHAT LEVEL AM
-0.3010 WHATS CRACKING </s>
-0.3010 WHATS UP </s>
-0.3010 WHATS WRONG </s>
-0.3010 WHEN READY </s>
-0.3010 WHERE AM I
-0.3010 WHERE ARE YOU
-0.3010 WHO AM I
-0.3010 WHO ARE YOU
-0.6021 WHO IS CONNECTED
-0.6021 WHO IS GAETAN
-0.3010 WILL THAT TAKE
-0.3010 YOU FROM </s>
-0.6021 YOU SET A
-0.6021 YOU SET AN
-0.3010 YOU TELL ME

\end\
