Language model created by QuickLM on Thu Nov 30 21:21:40 EST 2017
Copyright (c) 1996-2010 Carnegie Mellon University and Alexander I. Rudnicky

The model is in standard ARPA format, designed by Doug Paul while he was at MITRE.

The code that was used to produce this language model is available in Open Source.
Please visit http://www.speech.cs.cmu.edu/tools/ for more information

The (fixed) discount mass is 0.5. The backoffs are computed using the ratio method.
This model based on a corpus of 64 sentences and 91 words

\data\
ngram 1=91
ngram 2=160
ngram 3=99

\1-grams:
-2.6646 1 -0.2363
-2.6646 10 -0.2363
-2.6646 100 -0.2363
-2.6646 1000 -0.2363
-2.6646 11 -0.2363
-2.6646 12 -0.2363
-2.6646 13 -0.2363
-2.6646 14 -0.2363
-2.6646 15 -0.2363
-2.6646 16 -0.2363
-2.6646 17 -0.2363
-2.6646 18 -0.2363
-2.6646 19 -0.2363
-2.6646 2 -0.2363
-2.6646 20 -0.2363
-2.6646 200 -0.2363
-2.6646 3 -0.2363
-2.6646 30 -0.2363
-2.6646 300 -0.2363
-2.6646 4 -0.2363
-2.6646 40 -0.2363
-2.6646 400 -0.2363
-2.6646 5 -0.2363
-2.6646 50 -0.2363
-2.6646 500 -0.2363
-2.6646 6 -0.2363
-2.6646 60 -0.2363
-2.6646 600 -0.2363
-2.6646 7 -0.2363
-2.6646 70 -0.2363
-2.6646 700 -0.2363
-2.6646 8 -0.2363
-2.6646 80 -0.2363
-2.6646 800 -0.2363
-2.6646 9 -0.2363
-2.6646 90 -0.2363
-2.6646 900 -0.2363
-0.8585 </s> -0.3010
-0.8585 <s> -0.2363
-2.1875 A -0.2982
-2.6646 AN -0.3001
-2.3636 ARE -0.2991
-2.6646 CHECK -0.2973
-2.6646 COIN -0.2363
-2.3636 CONNECTED -0.2363
-2.6646 DICE -0.2363
-2.6646 DOING -0.3001
-2.6646 DOWN -0.2363
-2.6646 EMAIL -0.2363
-2.6646 FLIP -0.2982
-2.3636 FOR -0.2363
-2.6646 GAETAN -0.2363
-2.6646 HOUR -0.2363
-2.6646 HOURS -0.2363
-2.6646 HOW -0.2991
-2.1875 IS -0.2973
-2.3636 IT -0.2363
-2.6646 JOKE -0.2363
-2.6646 LETS -0.3001
-2.6646 LIGHTS -0.2363
-2.3636 ME -0.2973
-2.6646 MINUTE -0.2363
-2.6646 MINUTES -0.2363
-2.6646 MUSIC -0.2363
-2.6646 NEGATIVE -0.2363
-2.6646 NETFLIX -0.2363
-2.6646 NEWS -0.2363
-2.6646 OFF -0.2363
-2.6646 ON -0.2363
-2.6646 PLAY -0.2991
-2.6646 ROLL -0.2973
-2.6646 SEARCH -0.2973
-2.6646 SECOND -0.2363
-2.6646 SECONDS -0.2363
-2.6646 SEND -0.3001
-2.6646 SET -0.2982
-2.6646 SOME -0.3001
-2.6646 TELL -0.2991
-2.0626 THE -0.2973
-2.6646 THEY -0.2991
-2.3636 TIME -0.2982
-2.6646 TIMER -0.2991
-2.6646 TODAY -0.2363
-2.6646 TURN -0.2973
-2.6646 UP -0.2363
-2.6646 WATCH -0.3001
-2.6646 WEB -0.2991
-2.3636 WHAT -0.2991
-2.6646 WHERE -0.2991
-2.6646 WHO -0.2982
-2.6646 YOU -0.3001

\2-grams:
-0.3010 1 </s> -0.3010
-0.3010 10 </s> -0.3010
-0.3010 100 </s> -0.3010
-0.3010 1000 </s> -0.3010
-0.3010 11 </s> -0.3010
-0.3010 12 </s> -0.3010
-0.3010 13 </s> -0.3010
-0.3010 14 </s> -0.3010
-0.3010 15 </s> -0.3010
-0.3010 16 </s> -0.3010
-0.3010 17 </s> -0.3010
-0.3010 18 </s> -0.3010
-0.3010 19 </s> -0.3010
-0.3010 2 </s> -0.3010
-0.3010 20 </s> -0.3010
-0.3010 200 </s> -0.3010
-0.3010 3 </s> -0.3010
-0.3010 30 </s> -0.3010
-0.3010 300 </s> -0.3010
-0.3010 4 </s> -0.3010
-0.3010 40 </s> -0.3010
-0.3010 400 </s> -0.3010
-0.3010 5 </s> -0.3010
-0.3010 50 </s> -0.3010
-0.3010 500 </s> -0.3010
-0.3010 6 </s> -0.3010
-0.3010 60 </s> -0.3010
-0.3010 600 </s> -0.3010
-0.3010 7 </s> -0.3010
-0.3010 70 </s> -0.3010
-0.3010 700 </s> -0.3010
-0.3010 8 </s> -0.3010
-0.3010 80 </s> -0.3010
-0.3010 800 </s> -0.3010
-0.3010 9 </s> -0.3010
-0.3010 90 </s> -0.3010
-0.3010 900 </s> -0.3010
-2.1072 <s> 1 0.0000
-2.1072 <s> 10 0.0000
-2.1072 <s> 100 0.0000
-2.1072 <s> 1000 0.0000
-2.1072 <s> 11 0.0000
-2.1072 <s> 12 0.0000
-2.1072 <s> 13 0.0000
-2.1072 <s> 14 0.0000
-2.1072 <s> 15 0.0000
-2.1072 <s> 16 0.0000
-2.1072 <s> 17 0.0000
-2.1072 <s> 18 0.0000
-2.1072 <s> 19 0.0000
-2.1072 <s> 2 0.0000
-2.1072 <s> 20 0.0000
-2.1072 <s> 200 0.0000
-2.1072 <s> 3 0.0000
-2.1072 <s> 30 0.0000
-2.1072 <s> 300 0.0000
-2.1072 <s> 4 0.0000
-2.1072 <s> 40 0.0000
-2.1072 <s> 400 0.0000
-2.1072 <s> 5 0.0000
-2.1072 <s> 50 0.0000
-2.1072 <s> 500 0.0000
-2.1072 <s> 6 0.0000
-2.1072 <s> 60 0.0000
-2.1072 <s> 600 0.0000
-2.1072 <s> 7 0.0000
-2.1072 <s> 70 0.0000
-2.1072 <s> 700 0.0000
-2.1072 <s> 8 0.0000
-2.1072 <s> 80 0.0000
-2.1072 <s> 800 0.0000
-2.1072 <s> 9 0.0000
-2.1072 <s> 90 0.0000
-2.1072 <s> 900 0.0000
-2.1072 <s> CHECK 0.0000
-2.1072 <s> DOWN 0.0000
-2.1072 <s> FLIP 0.0000
-2.1072 <s> GAETAN 0.0000
-2.1072 <s> HOUR 0.0000
-2.1072 <s> HOURS 0.0000
-2.1072 <s> HOW 0.0000
-2.1072 <s> LETS 0.0000
-2.1072 <s> MINUTE 0.0000
-2.1072 <s> MINUTES 0.0000
-2.1072 <s> NEGATIVE 0.0000
-2.1072 <s> OFF 0.0000
-2.1072 <s> ON 0.0000
-2.1072 <s> PLAY 0.0000
-2.1072 <s> ROLL 0.0000
-2.1072 <s> SEARCH 0.0000
-2.1072 <s> SECOND 0.0000
-2.1072 <s> SECONDS 0.0000
-2.1072 <s> SEND 0.0000
-2.1072 <s> SET 0.0000
-2.1072 <s> TELL 0.0000
-2.1072 <s> TURN 0.0000
-2.1072 <s> UP 0.0000
-1.8062 <s> WHAT 0.0000
-2.1072 <s> WHERE 0.0000
-2.1072 <s> WHO 0.0000
-0.7782 A COIN 0.0000
-0.7782 A JOKE 0.0000
-0.7782 A TIMER 0.0000
-0.3010 AN EMAIL 0.0000
-0.6021 ARE THEY 0.0000
-0.6021 ARE YOU 0.0000
-0.3010 CHECK THE -0.2430
-0.3010 COIN </s> -0.3010
-0.3010 CONNECTED </s> -0.3010
-0.3010 DICE </s> -0.3010
-0.3010 DOING TODAY 0.0000
-0.3010 DOWN </s> -0.3010
-0.3010 EMAIL </s> -0.3010
-0.3010 FLIP A -0.2218
-0.3010 FOR </s> -0.3010
-0.3010 GAETAN </s> -0.3010
-0.3010 HOUR </s> -0.3010
-0.3010 HOURS </s> -0.3010
-0.3010 HOW ARE -0.1761
-0.7782 IS CONNECTED 0.0000
-0.4771 IS IT 0.0000
-0.3010 IT </s> -0.3010
-0.3010 JOKE </s> -0.3010
-0.3010 LETS WATCH 0.0000
-0.3010 LIGHTS </s> -0.3010
-0.6021 ME A -0.2218
-0.6021 ME SOME 0.0000
-0.3010 MINUTE </s> -0.3010
-0.3010 MINUTES </s> -0.3010
-0.3010 MUSIC </s> -0.3010
-0.3010 NEGATIVE </s> -0.3010
-0.3010 NETFLIX </s> -0.3010
-0.3010 NEWS </s> -0.3010
-0.3010 OFF </s> -0.3010
-0.3010 ON </s> -0.3010
-0.3010 PLAY ME -0.1761
-0.3010 ROLL THE -0.2430
-0.3010 SEARCH THE -0.2430
-0.3010 SECOND </s> -0.3010
-0.3010 SECONDS </s> -0.3010
-0.3010 SEND AN 0.0000
-0.3010 SET A -0.2218
-0.3010 SOME MUSIC 0.0000
-0.3010 TELL ME -0.1761
-0.9031 THE DICE 0.0000
-0.9031 THE LIGHTS 0.0000
-0.9031 THE NEWS 0.0000
-0.9031 THE WEB 0.0000
-0.3010 THEY CONNECTED 0.0000
-0.3010 TIME IS -0.1249
-0.3010 TIMER FOR 0.0000
-0.3010 TODAY </s> -0.3010
-0.3010 TURN THE -0.2430
-0.3010 UP </s> -0.3010
-0.3010 WATCH NETFLIX 0.0000
-0.3010 WEB FOR 0.0000
-0.3010 WHAT TIME 0.0000
-0.3010 WHERE ARE -0.1761
-0.3010 WHO IS -0.2218
-0.3010 YOU DOING 0.0000

\3-grams:
-0.3010 <s> 1 </s>
-0.3010 <s> 10 </s>
-0.3010 <s> 100 </s>
-0.3010 <s> 1000 </s>
-0.3010 <s> 11 </s>
-0.3010 <s> 12 </s>
-0.3010 <s> 13 </s>
-0.3010 <s> 14 </s>
-0.3010 <s> 15 </s>
-0.3010 <s> 16 </s>
-0.3010 <s> 17 </s>
-0.3010 <s> 18 </s>
-0.3010 <s> 19 </s>
-0.3010 <s> 2 </s>
-0.3010 <s> 20 </s>
-0.3010 <s> 200 </s>
-0.3010 <s> 3 </s>
-0.3010 <s> 30 </s>
-0.3010 <s> 300 </s>
-0.3010 <s> 4 </s>
-0.3010 <s> 40 </s>
-0.3010 <s> 400 </s>
-0.3010 <s> 5 </s>
-0.3010 <s> 50 </s>
-0.3010 <s> 500 </s>
-0.3010 <s> 6 </s>
-0.3010 <s> 60 </s>
-0.3010 <s> 600 </s>
-0.3010 <s> 7 </s>
-0.3010 <s> 70 </s>
-0.3010 <s> 700 </s>
-0.3010 <s> 8 </s>
-0.3010 <s> 80 </s>
-0.3010 <s> 800 </s>
-0.3010 <s> 9 </s>
-0.3010 <s> 90 </s>
-0.3010 <s> 900 </s>
-0.3010 <s> CHECK THE
-0.3010 <s> DOWN </s>
-0.3010 <s> FLIP A
-0.3010 <s> GAETAN </s>
-0.3010 <s> HOUR </s>
-0.3010 <s> HOURS </s>
-0.3010 <s> HOW ARE
-0.3010 <s> LETS WATCH
-0.3010 <s> MINUTE </s>
-0.3010 <s> MINUTES </s>
-0.3010 <s> NEGATIVE </s>
-0.3010 <s> OFF </s>
-0.3010 <s> ON </s>
-0.3010 <s> PLAY ME
-0.3010 <s> ROLL THE
-0.3010 <s> SEARCH THE
-0.3010 <s> SECOND </s>
-0.3010 <s> SECONDS </s>
-0.3010 <s> SEND AN
-0.3010 <s> SET A
-0.3010 <s> TELL ME
-0.3010 <s> TURN THE
-0.3010 <s> UP </s>
-0.3010 <s> WHAT TIME
-0.3010 <s> WHERE ARE
-0.3010 <s> WHO IS
-0.3010 A COIN </s>
-0.3010 A JOKE </s>
-0.3010 A TIMER FOR
-0.3010 AN EMAIL </s>
-0.3010 ARE THEY CONNECTED
-0.3010 ARE YOU DOING
-0.3010 CHECK THE NEWS
-0.3010 DOING TODAY </s>
-0.3010 FLIP A COIN
-0.3010 HOW ARE YOU
-0.3010 IS CONNECTED </s>
-0.3010 IS IT </s>
-0.3010 LETS WATCH NETFLIX
-0.3010 ME A JOKE
-0.3010 ME SOME MUSIC
-0.3010 PLAY ME SOME
-0.3010 ROLL THE DICE
-0.3010 SEARCH THE WEB
-0.3010 SEND AN EMAIL
-0.3010 SET A TIMER
-0.3010 SOME MUSIC </s>
-0.3010 TELL ME A
-0.3010 THE DICE </s>
-0.3010 THE LIGHTS </s>
-0.3010 THE NEWS </s>
-0.3010 THE WEB FOR
-0.3010 THEY CONNECTED </s>
-0.3010 TIME IS IT
-0.3010 TIMER FOR </s>
-0.3010 TURN THE LIGHTS
-0.3010 WATCH NETFLIX </s>
-0.3010 WEB FOR </s>
-0.3010 WHAT TIME IS
-0.3010 WHERE ARE THEY
-0.3010 WHO IS CONNECTED
-0.3010 YOU DOING TODAY

\end\
