Language model created by QuickLM on Thu Nov 30 03:47:32 EST 2017
Copyright (c) 1996-2010 Carnegie Mellon University and Alexander I. Rudnicky

The model is in standard ARPA format, designed by Doug Paul while he was at MITRE.

The code that was used to produce this language model is available in Open Source.
Please visit http://www.speech.cs.cmu.edu/tools/ for more information

The (fixed) discount mass is 0.5. The backoffs are computed using the ratio method.
This model based on a corpus of 73 sentences and 102 words

\data\
ngram 1=102
ngram 2=188
ngram 3=124

\1-grams:
-2.7419 1 -0.2394
-2.7419 10 -0.2394
-2.7419 100 -0.2394
-2.7419 1000 -0.2394
-2.7419 11 -0.2394
-2.7419 12 -0.2394
-2.7419 13 -0.2394
-2.7419 14 -0.2394
-2.7419 15 -0.2394
-2.7419 16 -0.2394
-2.7419 17 -0.2394
-2.7419 18 -0.2394
-2.7419 19 -0.2394
-2.7419 2 -0.2394
-2.7419 20 -0.2394
-2.7419 200 -0.2394
-2.7419 3 -0.2394
-2.7419 30 -0.2394
-2.7419 300 -0.2394
-2.7419 4 -0.2394
-2.7419 40 -0.2394
-2.7419 400 -0.2394
-2.7419 5 -0.2394
-2.7419 50 -0.2394
-2.7419 500 -0.2394
-2.7419 6 -0.2394
-2.7419 60 -0.2394
-2.7419 600 -0.2394
-2.7419 7 -0.2394
-2.7419 70 -0.2394
-2.7419 700 -0.2394
-2.7419 8 -0.2394
-2.7419 80 -0.2394
-2.7419 800 -0.2394
-2.7419 9 -0.2394
-2.7419 90 -0.2394
-2.7419 900 -0.2394
-0.8786 </s> -0.3010
-0.8786 <s> -0.2376
-2.1399 A -0.2979
-2.7419 AM -0.2995
-2.7419 AN -0.3002
-2.7419 ANTHEM -0.2394
-2.4409 ARE -0.2995
-2.7419 BITCOIN -0.3002
-2.7419 COIN -0.2394
-2.4409 CONNECTED -0.2394
-2.7419 CROISSANT -0.2394
-2.7419 DICE -0.2394
-2.7419 DOWN -0.2394
-2.7419 EMAIL -0.2394
-2.7419 FAST -0.2971
-2.7419 FEEL -0.3002
-2.7419 FLIP -0.2979
-2.2648 FOR -0.2367
-2.7419 GAETAN -0.2394
-2.7419 GAME -0.2394
-2.7419 GRUMPY -0.2394
-2.7419 HOUR -0.2394
-2.7419 HOURS -0.2394
-2.2648 HOW -0.2979
-2.4409 I -0.2385
-2.7419 INTERNET -0.2394
-2.0430 IS -0.2955
-2.4409 IT -0.2394
-2.7419 JOKE -0.2394
-2.4409 LETS -0.2979
-2.7419 LIGHTS -0.2394
-2.2648 ME -0.2312
-2.7419 MINUTE -0.2394
-2.7419 MINUTES -0.2394
-2.7419 MUCH -0.2971
-2.7419 MUSIC -0.2394
-2.4409 MY -0.2995
-2.7419 NEGATIVE -0.2394
-2.7419 NETFLIX -0.2394
-2.7419 NEWS -0.2394
-2.7419 OFF -0.2394
-2.7419 ON -0.2394
-2.2648 PLAY -0.2955
-2.7419 ROLL -0.2971
-2.4409 SEARCH -0.2971
-2.7419 SECOND -0.2394
-2.7419 SECONDS -0.2394
-2.7419 SEND -0.3002
-2.7419 SET -0.2979
-2.7419 SHOW -0.2987
-2.7419 TELL -0.2987
-2.0430 THE -0.2971
-2.7419 THEY -0.2995
-2.4409 TIME -0.2971
-2.7419 TIMER -0.2987
-2.7419 TRANSLATE -0.2987
-2.7419 TURN -0.2971
-2.7419 UP -0.2394
-2.7419 WATCH -0.3002
-2.4409 WEB -0.2367
-2.4409 WHAT -0.2995
-2.4409 WHERE -0.2987
-2.7419 WHO -0.2971
-2.7419 WORTH -0.2394
-2.7419 YOU -0.2394

\2-grams:
-0.3010 1 </s> -0.3010
-0.3010 10 </s> -0.3010
-0.3010 100 </s> -0.3010
-0.3010 1000 </s> -0.3010
-0.3010 11 </s> -0.3010
-0.3010 12 </s> -0.3010
-0.3010 13 </s> -0.3010
-0.3010 14 </s> -0.3010
-0.3010 15 </s> -0.3010
-0.3010 16 </s> -0.3010
-0.3010 17 </s> -0.3010
-0.3010 18 </s> -0.3010
-0.3010 19 </s> -0.3010
-0.3010 2 </s> -0.3010
-0.3010 20 </s> -0.3010
-0.3010 200 </s> -0.3010
-0.3010 3 </s> -0.3010
-0.3010 30 </s> -0.3010
-0.3010 300 </s> -0.3010
-0.3010 4 </s> -0.3010
-0.3010 40 </s> -0.3010
-0.3010 400 </s> -0.3010
-0.3010 5 </s> -0.3010
-0.3010 50 </s> -0.3010
-0.3010 500 </s> -0.3010
-0.3010 6 </s> -0.3010
-0.3010 60 </s> -0.3010
-0.3010 600 </s> -0.3010
-0.3010 7 </s> -0.3010
-0.3010 70 </s> -0.3010
-0.3010 700 </s> -0.3010
-0.3010 8 </s> -0.3010
-0.3010 80 </s> -0.3010
-0.3010 800 </s> -0.3010
-0.3010 9 </s> -0.3010
-0.3010 90 </s> -0.3010
-0.3010 900 </s> -0.3010
-2.1644 <s> 1 0.0000
-2.1644 <s> 10 0.0000
-2.1644 <s> 100 0.0000
-2.1644 <s> 1000 0.0000
-2.1644 <s> 11 0.0000
-2.1644 <s> 12 0.0000
-2.1644 <s> 13 0.0000
-2.1644 <s> 14 0.0000
-2.1644 <s> 15 0.0000
-2.1644 <s> 16 0.0000
-2.1644 <s> 17 0.0000
-2.1644 <s> 18 0.0000
-2.1644 <s> 19 0.0000
-2.1644 <s> 2 0.0000
-2.1644 <s> 20 0.0000
-2.1644 <s> 200 0.0000
-2.1644 <s> 3 0.0000
-2.1644 <s> 30 0.0000
-2.1644 <s> 300 0.0000
-2.1644 <s> 4 0.0000
-2.1644 <s> 40 0.0000
-2.1644 <s> 400 0.0000
-2.1644 <s> 5 0.0000
-2.1644 <s> 50 0.0000
-2.1644 <s> 500 0.0000
-2.1644 <s> 6 0.0000
-2.1644 <s> 60 0.0000
-2.1644 <s> 600 0.0000
-2.1644 <s> 7 0.0000
-2.1644 <s> 70 0.0000
-2.1644 <s> 700 0.0000
-2.1644 <s> 8 0.0000
-2.1644 <s> 80 0.0000
-2.1644 <s> 800 0.0000
-2.1644 <s> 9 0.0000
-2.1644 <s> 90 0.0000
-2.1644 <s> 900 0.0000
-2.1644 <s> CROISSANT 0.0000
-2.1644 <s> DOWN 0.0000
-2.1644 <s> FLIP 0.0000
-2.1644 <s> GAETAN 0.0000
-2.1644 <s> HOUR 0.0000
-2.1644 <s> HOURS 0.0000
-1.6872 <s> HOW 0.0000
-2.1644 <s> I -0.1761
-1.8633 <s> LETS 0.0000
-2.1644 <s> MINUTE 0.0000
-2.1644 <s> MINUTES 0.0000
-2.1644 <s> NEGATIVE 0.0000
-2.1644 <s> OFF 0.0000
-2.1644 <s> ON 0.0000
-1.8633 <s> PLAY -0.1249
-2.1644 <s> ROLL 0.0000
-1.8633 <s> SEARCH 0.0000
-2.1644 <s> SECOND 0.0000
-2.1644 <s> SECONDS 0.0000
-2.1644 <s> SEND 0.0000
-2.1644 <s> SET 0.0000
-2.1644 <s> SHOW 0.0000
-2.1644 <s> TELL 0.0000
-2.1644 <s> TRANSLATE 0.0000
-2.1644 <s> TURN 0.0000
-2.1644 <s> UP 0.0000
-1.8633 <s> WHAT 0.0000
-1.8633 <s> WHERE 0.0000
-2.1644 <s> WHO 0.0000
-0.9031 A COIN 0.0000
-0.9031 A GAME 0.0000
-0.9031 A JOKE 0.0000
-0.9031 A TIMER 0.0000
-0.3010 AM I -0.1761
-0.3010 AN EMAIL 0.0000
-0.3010 ANTHEM </s> -0.3010
-0.6021 ARE THEY 0.0000
-0.6021 ARE YOU 0.0000
-0.3010 BITCOIN WORTH 0.0000
-0.3010 COIN </s> -0.3010
-0.3010 CONNECTED </s> -0.3010
-0.3010 CROISSANT </s> -0.3010
-0.3010 DICE </s> -0.3010
-0.3010 DOWN </s> -0.3010
-0.3010 EMAIL </s> -0.3010
-0.3010 FAST IS -0.2553
-0.3010 FEEL GRUMPY 0.0000
-0.3010 FLIP A -0.2430
-0.4771 FOR </s> -0.3010
-0.7782 FOR ME -0.2218
-0.3010 GAETAN </s> -0.3010
-0.3010 GAME </s> -0.3010
-0.3010 GRUMPY </s> -0.3010
-0.3010 HOUR </s> -0.3010
-0.3010 HOURS </s> -0.3010
-0.7782 HOW ARE -0.1761
-0.7782 HOW FAST 0.0000
-0.7782 HOW MUCH 0.0000
-0.6021 I </s> -0.3010
-0.6021 I FEEL 0.0000
-0.3010 INTERNET </s> -0.3010
-1.0000 IS BITCOIN 0.0000
-1.0000 IS CONNECTED 0.0000
-0.6990 IS IT 0.0000
-1.0000 IS MY -0.1761
-0.3010 IT </s> -0.3010
-0.3010 JOKE </s> -0.3010
-0.6021 LETS PLAY -0.2218
-0.6021 LETS WATCH 0.0000
-0.3010 LIGHTS </s> -0.3010
-0.7782 ME </s> -0.3010
-0.7782 ME A -0.2430
-0.7782 ME THE -0.2553
-0.3010 MINUTE </s> -0.3010
-0.3010 MINUTES </s> -0.3010
-0.3010 MUCH IS -0.2553
-0.3010 MUSIC </s> -0.3010
-0.6021 MY ANTHEM 0.0000
-0.6021 MY INTERNET 0.0000
-0.3010 NEGATIVE </s> -0.3010
-0.3010 NETFLIX </s> -0.3010
-0.3010 NEWS </s> -0.3010
-0.3010 OFF </s> -0.3010
-0.3010 ON </s> -0.3010
-0.7782 PLAY A -0.2430
-0.7782 PLAY MUSIC 0.0000
-0.7782 PLAY MY -0.1761
-0.3010 ROLL THE -0.2553
-0.3010 SEARCH THE -0.2041
-0.3010 SECOND </s> -0.3010
-0.3010 SECONDS </s> -0.3010
-0.3010 SEND AN 0.0000
-0.3010 SET A -0.2430
-0.3010 SHOW ME -0.2218
-0.3010 TELL ME -0.2218
-1.0000 THE DICE 0.0000
-1.0000 THE LIGHTS 0.0000
-1.0000 THE NEWS 0.0000
-0.6990 THE WEB 0.0000
-0.3010 THEY CONNECTED 0.0000
-0.3010 TIME IS -0.2041
-0.3010 TIMER FOR -0.1249
-0.3010 TRANSLATE FOR -0.2218
-0.3010 TURN THE -0.2553
-0.3010 UP </s> -0.3010
-0.3010 WATCH NETFLIX 0.0000
-0.6021 WEB </s> -0.3010
-0.6021 WEB FOR -0.1249
-0.3010 WHAT TIME 0.0000
-0.6021 WHERE AM 0.0000
-0.6021 WHERE ARE -0.1761
-0.3010 WHO IS -0.2553
-0.3010 WORTH </s> -0.3010
-0.3010 YOU </s> -0.3010

\3-grams:
-0.3010 <s> 1 </s>
-0.3010 <s> 10 </s>
-0.3010 <s> 100 </s>
-0.3010 <s> 1000 </s>
-0.3010 <s> 11 </s>
-0.3010 <s> 12 </s>
-0.3010 <s> 13 </s>
-0.3010 <s> 14 </s>
-0.3010 <s> 15 </s>
-0.3010 <s> 16 </s>
-0.3010 <s> 17 </s>
-0.3010 <s> 18 </s>
-0.3010 <s> 19 </s>
-0.3010 <s> 2 </s>
-0.3010 <s> 20 </s>
-0.3010 <s> 200 </s>
-0.3010 <s> 3 </s>
-0.3010 <s> 30 </s>
-0.3010 <s> 300 </s>
-0.3010 <s> 4 </s>
-0.3010 <s> 40 </s>
-0.3010 <s> 400 </s>
-0.3010 <s> 5 </s>
-0.3010 <s> 50 </s>
-0.3010 <s> 500 </s>
-0.3010 <s> 6 </s>
-0.3010 <s> 60 </s>
-0.3010 <s> 600 </s>
-0.3010 <s> 7 </s>
-0.3010 <s> 70 </s>
-0.3010 <s> 700 </s>
-0.3010 <s> 8 </s>
-0.3010 <s> 80 </s>
-0.3010 <s> 800 </s>
-0.3010 <s> 9 </s>
-0.3010 <s> 90 </s>
-0.3010 <s> 900 </s>
-0.3010 <s> CROISSANT </s>
-0.3010 <s> DOWN </s>
-0.3010 <s> FLIP A
-0.3010 <s> GAETAN </s>
-0.3010 <s> HOUR </s>
-0.3010 <s> HOURS </s>
-0.7782 <s> HOW ARE
-0.7782 <s> HOW FAST
-0.7782 <s> HOW MUCH
-0.3010 <s> I FEEL
-0.6021 <s> LETS PLAY
-0.6021 <s> LETS WATCH
-0.3010 <s> MINUTE </s>
-0.3010 <s> MINUTES </s>
-0.3010 <s> NEGATIVE </s>
-0.3010 <s> OFF </s>
-0.3010 <s> ON </s>
-0.6021 <s> PLAY MUSIC
-0.6021 <s> PLAY MY
-0.3010 <s> ROLL THE
-0.3010 <s> SEARCH THE
-0.3010 <s> SECOND </s>
-0.3010 <s> SECONDS </s>
-0.3010 <s> SEND AN
-0.3010 <s> SET A
-0.3010 <s> SHOW ME
-0.3010 <s> TELL ME
-0.3010 <s> TRANSLATE FOR
-0.3010 <s> TURN THE
-0.3010 <s> UP </s>
-0.3010 <s> WHAT TIME
-0.6021 <s> WHERE AM
-0.6021 <s> WHERE ARE
-0.3010 <s> WHO IS
-0.3010 A COIN </s>
-0.3010 A GAME </s>
-0.3010 A JOKE </s>
-0.3010 A TIMER FOR
-0.3010 AM I </s>
-0.3010 AN EMAIL </s>
-0.3010 ARE THEY CONNECTED
-0.3010 ARE YOU </s>
-0.3010 BITCOIN WORTH </s>
-0.3010 FAST IS MY
-0.3010 FEEL GRUMPY </s>
-0.3010 FLIP A COIN
-0.3010 FOR ME </s>
-0.3010 HOW ARE YOU
-0.3010 HOW FAST IS
-0.3010 HOW MUCH IS
-0.3010 I FEEL GRUMPY
-0.3010 IS BITCOIN WORTH
-0.3010 IS CONNECTED </s>
-0.3010 IS IT </s>
-0.3010 IS MY INTERNET
-0.3010 LETS PLAY A
-0.3010 LETS WATCH NETFLIX
-0.3010 ME A JOKE
-0.3010 ME THE NEWS
-0.3010 MUCH IS BITCOIN
-0.3010 MY ANTHEM </s>
-0.3010 MY INTERNET </s>
-0.3010 PLAY A GAME
-0.3010 PLAY MUSIC </s>
-0.3010 PLAY MY ANTHEM
-0.3010 ROLL THE DICE
-0.3010 SEARCH THE WEB
-0.3010 SEND AN EMAIL
-0.3010 SET A TIMER
-0.3010 SHOW ME THE
-0.3010 TELL ME A
-0.3010 THE DICE </s>
-0.3010 THE LIGHTS </s>
-0.3010 THE NEWS </s>
-0.6021 THE WEB </s>
-0.6021 THE WEB FOR
-0.3010 THEY CONNECTED </s>
-0.3010 TIME IS IT
-0.3010 TIMER FOR </s>
-0.3010 TRANSLATE FOR ME
-0.3010 TURN THE LIGHTS
-0.3010 WATCH NETFLIX </s>
-0.3010 WEB FOR </s>
-0.3010 WHAT TIME IS
-0.3010 WHERE AM I
-0.3010 WHERE ARE THEY
-0.3010 WHO IS CONNECTED

\end\
