Language model created by QuickLM on Thu Nov 30 00:36:55 EST 2017
Copyright (c) 1996-2010 Carnegie Mellon University and Alexander I. Rudnicky

The model is in standard ARPA format, designed by Doug Paul while he was at MITRE.

The code that was used to produce this language model is available in Open Source.
Please visit http://www.speech.cs.cmu.edu/tools/ for more information

The (fixed) discount mass is 0.5. The backoffs are computed using the ratio method.
This model based on a corpus of 9837 sentences and 9811 words

\data\
ngram 1=9811
ngram 2=19643
ngram 3=9845

\1-grams:
-0.7786 </s> -0.3010
-0.7786 <s> -0.2217
-4.1694 A -0.2219
-4.7715 AA -0.2219
-4.7715 AAA -0.2219
-4.7715 AARON -0.2219
-4.7715 AB -0.2219
-4.7715 ABANDONED -0.2219
-4.7715 ABC -0.2219
-4.7715 ABERDEEN -0.2219
-4.7715 ABILITIES -0.2219
-4.7715 ABILITY -0.2219
-4.7715 ABLE -0.2219
-4.7715 ABORIGINAL -0.2219
-4.7715 ABORTION -0.2219
-4.7715 ABOUT -0.2219
-4.7715 ABOVE -0.2219
-4.7715 ABRAHAM -0.2219
-4.7715 ABROAD -0.2219
-4.7715 ABS -0.2219
-4.7715 ABSENCE -0.2219
-4.7715 ABSENT -0.2219
-4.7715 ABSOLUTE -0.2219
-4.7715 ABSOLUTELY -0.2219
-4.7715 ABSORPTION -0.2219
-4.7715 ABSTRACT -0.2219
-4.7715 ABSTRACTS -0.2219
-4.7715 ABUSE -0.2219
-4.7715 AC -0.2219
-4.7715 ACADEMIC -0.2219
-4.7715 ACADEMICS -0.2219
-4.7715 ACADEMY -0.2219
-4.7715 ACC -0.2219
-4.7715 ACCENT -0.2219
-4.7715 ACCEPT -0.2219
-4.7715 ACCEPTABLE -0.2219
-4.7715 ACCEPTANCE -0.2219
-4.7715 ACCEPTED -0.2219
-4.7715 ACCEPTING -0.2219
-4.7715 ACCEPTS -0.2219
-4.7715 ACCESS -0.2219
-4.7715 ACCESSED -0.2219
-4.7715 ACCESSIBILITY -0.2219
-4.7715 ACCESSIBLE -0.2219
-4.7715 ACCESSING -0.2219
-4.7715 ACCESSORIES -0.2219
-4.7715 ACCESSORY -0.2219
-4.7715 ACCIDENT -0.2219
-4.7715 ACCIDENTS -0.2219
-4.7715 ACCOMMODATE -0.2219
-4.7715 ACCOMMODATION -0.2219
-4.7715 ACCOMMODATIONS -0.2219
-4.7715 ACCOMPANIED -0.2219
-4.7715 ACCOMPANYING -0.2219
-4.7715 ACCOMPLISH -0.2219
-4.7715 ACCOMPLISHED -0.2219
-4.7715 ACCORDANCE -0.2219
-4.7715 ACCORDING -0.2219
-4.7715 ACCORDINGLY -0.2219
-4.7715 ACCOUNT -0.2219
-4.7715 ACCOUNTABILITY -0.2219
-4.7715 ACCOUNTING -0.2219
-4.7715 ACCOUNTS -0.2219
-4.7715 ACCREDITATION -0.2219
-4.7715 ACCREDITED -0.2219
-4.7715 ACCURACY -0.2219
-4.7715 ACCURATE -0.2219
-4.7715 ACCURATELY -0.2219
-4.7715 ACCUSED -0.2219
-4.7715 ACDBENTITY -0.2219
-4.7715 ACE -0.2219
-4.7715 ACER -0.2219
-4.7715 ACHIEVE -0.2219
-4.7715 ACHIEVED -0.2219
-4.7715 ACHIEVEMENT -0.2219
-4.7715 ACHIEVEMENTS -0.2219
-4.7715 ACHIEVING -0.2219
-4.7715 ACID -0.2219
-4.7715 ACIDS -0.2219
-4.7715 ACKNOWLEDGE -0.2219
-4.7715 ACKNOWLEDGED -0.2219
-4.7715 ACNE -0.2219
-4.7715 ACOUSTIC -0.2219
-4.7715 ACQUIRE -0.2219
-4.7715 ACQUIRED -0.2219
-4.7715 ACQUISITION -0.2219
-4.7715 ACQUISITIONS -0.2219
-4.7715 ACRE -0.2219
-4.7715 ACRES -0.2219
-4.7715 ACROBAT -0.2219
-4.7715 ACROSS -0.2219
-4.7715 ACRYLIC -0.2219
-4.7715 ACT -0.2219
-4.7715 ACTING -0.2219
-4.7715 ACTION -0.2219
-4.7715 ACTIONS -0.2219
-4.7715 ACTIVATED -0.2219
-4.7715 ACTIVATION -0.2219
-4.7715 ACTIVE -0.2219
-4.7715 ACTIVELY -0.2219
-4.7715 ACTIVISTS -0.2219
-4.7715 ACTIVITIES -0.2219
-4.7715 ACTIVITY -0.2219
-4.7715 ACTOR -0.2219
-4.7715 ACTORS -0.2219
-4.7715 ACTRESS -0.2219
-4.7715 ACTS -0.2219
-4.7715 ACTUAL -0.2219
-4.7715 ACTUALLY -0.2219
-4.7715 ACUTE -0.2219
-4.7715 AD -0.2219
-4.7715 ADA -0.2219
-4.7715 ADAM -0.2219
-4.7715 ADAMS -0.2219
-4.7715 ADAPTATION -0.2219
-4.7715 ADAPTED -0.2219
-4.7715 ADAPTER -0.2219
-4.7715 ADAPTERS -0.2219
-4.7715 ADAPTIVE -0.2219
-4.7715 ADAPTOR -0.2219
-4.7715 ADD -0.2219
-4.7715 ADDED -0.2219
-4.7715 ADDICTION -0.2219
-4.7715 ADDING -0.2219
-4.7715 ADDITION -0.2219
-4.7715 ADDITIONAL -0.2219
-4.7715 ADDITIONALLY -0.2219
-4.7715 ADDITIONS -0.2219
-4.7715 ADDRESS -0.2219
-4.7715 ADDRESSED -0.2219
-4.7715 ADDRESSES -0.2219
-4.7715 ADDRESSING -0.2219
-4.7715 ADDS -0.2219
-4.7715 ADELAIDE -0.2219
-4.7715 ADEQUATE -0.2219
-4.7715 ADIDAS -0.2219
-4.7715 ADIPEX -0.2219
-4.7715 ADJACENT -0.2219
-4.7715 ADJUST -0.2219
-4.7715 ADJUSTABLE -0.2219
-4.7715 ADJUSTED -0.2219
-4.7715 ADJUSTMENT -0.2219
-4.7715 ADJUSTMENTS -0.2219
-4.7715 ADMIN -0.2219
-4.7715 ADMINISTERED -0.2219
-4.7715 ADMINISTRATION -0.2219
-4.7715 ADMINISTRATIVE -0.2219
-4.7715 ADMINISTRATOR -0.2219
-4.7715 ADMINISTRATORS -0.2219
-4.7715 ADMISSION -0.2219
-4.7715 ADMISSIONS -0.2219
-4.7715 ADMIT -0.2219
-4.7715 ADMITTED -0.2219
-4.7715 ADOBE -0.2219
-4.7715 ADOLESCENT -0.2219
-4.7715 ADOPT -0.2219
-4.7715 ADOPTED -0.2219
-4.7715 ADOPTION -0.2219
-4.7715 ADRIAN -0.2219
-4.7715 ADS -0.2219
-4.7715 ADSL -0.2219
-4.7715 ADULT -0.2219
-4.7715 ADULTS -0.2219
-4.7715 ADVANCE -0.2219
-4.7715 ADVANCED -0.2219
-4.7715 ADVANCEMENT -0.2219
-4.7715 ADVANCES -0.2219
-4.7715 ADVANTAGE -0.2219
-4.7715 ADVANTAGES -0.2219
-4.7715 ADVENTURE -0.2219
-4.7715 ADVENTURES -0.2219
-4.7715 ADVERSE -0.2219
-4.7715 ADVERT -0.2219
-4.7715 ADVERTISE -0.2219
-4.7715 ADVERTISEMENT -0.2219
-4.7715 ADVERTISEMENTS -0.2219
-4.7715 ADVERTISER -0.2219
-4.7715 ADVERTISERS -0.2219
-4.7715 ADVERTISING -0.2219
-4.7715 ADVICE -0.2219
-4.7715 ADVISE -0.2219
-4.7715 ADVISED -0.2219
-4.7715 ADVISOR -0.2219
-4.7715 ADVISORS -0.2219
-4.7715 ADVISORY -0.2219
-4.7715 ADVOCACY -0.2219
-4.7715 ADVOCATE -0.2219
-4.7715 ADWARE -0.2219
-4.7715 AE -0.2219
-4.7715 AERIAL -0.2219
-4.7715 AEROSPACE -0.2219
-4.7715 AF -0.2219
-4.7715 AFFAIR -0.2219
-4.7715 AFFAIRS -0.2219
-4.7715 AFFECT -0.2219
-4.7715 AFFECTED -0.2219
-4.7715 AFFECTING -0.2219
-4.7715 AFFECTS -0.2219
-4.7715 AFFILIATE -0.2219
-4.7715 AFFILIATED -0.2219
-4.7715 AFFILIATES -0.2219
-4.7715 AFFILIATION -0.2219
-4.7715 AFFORD -0.2219
-4.7715 AFFORDABLE -0.2219
-4.7715 AFGHANISTAN -0.2219
-4.7715 AFRAID -0.2219
-4.7715 AFRICA -0.2219
-4.7715 AFRICAN -0.2219
-4.7715 AFTER -0.2219
-4.7715 AFTERNOON -0.2219
-4.7715 AFTERWARDS -0.2219
-4.7715 AG -0.2219
-4.7715 AGAIN -0.2219
-4.7715 AGAINST -0.2219
-4.7715 AGE -0.2219
-4.7715 AGED -0.2219
-4.7715 AGENCIES -0.2219
-4.7715 AGENCY -0.2219
-4.7715 AGENDA -0.2219
-4.7715 AGENT -0.2219
-4.7715 AGENTS -0.2219
-4.7715 AGES -0.2219
-4.7715 AGGREGATE -0.2219
-4.7715 AGGRESSIVE -0.2219
-4.7715 AGING -0.2219
-4.7715 AGO -0.2219
-4.7715 AGREE -0.2219
-4.7715 AGREED -0.2219
-4.7715 AGREEMENT -0.2219
-4.7715 AGREEMENTS -0.2219
-4.7715 AGREES -0.2219
-4.7715 AGRICULTURAL -0.2219
-4.7715 AGRICULTURE -0.2219
-4.7715 AH -0.2219
-4.7715 AHEAD -0.2219
-4.7715 AI -0.2219
-4.7715 AID -0.2219
-4.7715 AIDS -0.2219
-4.7715 AIM -0.2219
-4.7715 AIMED -0.2219
-4.7715 AIMS -0.2219
-4.7715 AIR -0.2219
-4.7715 AIRCRAFT -0.2219
-4.7715 AIRFARE -0.2219
-4.7715 AIRLINE -0.2219
-4.7715 AIRLINES -0.2219
-4.7715 AIRPLANE -0.2219
-4.7715 AIRPORT -0.2219
-4.7715 AIRPORTS -0.2219
-4.7715 AJ -0.2219
-4.7715 AK -0.2219
-4.7715 AKA -0.2219
-4.7715 AL -0.2219
-4.7715 ALABAMA -0.2219
-4.7715 ALAN -0.2219
-4.7715 ALARM -0.2219
-4.7715 ALASKA -0.2219
-4.7715 ALBANIA -0.2219
-4.7715 ALBANY -0.2219
-4.7715 ALBERT -0.2219
-4.7715 ALBERTA -0.2219
-4.7715 ALBUM -0.2219
-4.7715 ALBUMS -0.2219
-4.7715 ALBUQUERQUE -0.2219
-4.7715 ALCOHOL -0.2219
-4.7715 ALERT -0.2219
-4.7715 ALERTS -0.2219
-4.7715 ALEX -0.2219
-4.7715 ALEXANDER -0.2219
-4.7715 ALEXANDRIA -0.2219
-4.7715 ALFRED -0.2219
-4.7715 ALGEBRA -0.2219
-4.7715 ALGERIA -0.2219
-4.7715 ALGORITHM -0.2219
-4.7715 ALGORITHMS -0.2219
-4.7715 ALI -0.2219
-4.7715 ALIAS -0.2219
-4.7715 ALICE -0.2219
-4.7715 ALIEN -0.2219
-4.7715 ALIGN -0.2219
-4.7715 ALIGNMENT -0.2219
-4.7715 ALIKE -0.2219
-4.7715 ALIVE -0.2219
-4.7715 ALL -0.2219
-4.7715 ALLAH -0.2219
-4.7715 ALLAN -0.2219
-4.7715 ALLEGED -0.2219
-4.7715 ALLEN -0.2219
-4.7715 ALLERGY -0.2219
-4.7715 ALLIANCE -0.2219
-4.7715 ALLIED -0.2219
-4.7715 ALLOCATED -0.2219
-4.7715 ALLOCATION -0.2219
-4.7715 ALLOW -0.2219
-4.7715 ALLOWANCE -0.2219
-4.7715 ALLOWED -0.2219
-4.7715 ALLOWING -0.2219
-4.7715 ALLOWS -0.2219
-4.7715 ALLOY -0.2219
-4.7715 ALMOST -0.2219
-4.7715 ALONE -0.2219
-4.7715 ALONG -0.2219
-4.7715 ALOT -0.2219
-4.7715 ALPHA -0.2219
-4.7715 ALPHABETICAL -0.2219
-4.7715 ALPINE -0.2219
-4.7715 ALREADY -0.2219
-4.7715 ALSO -0.2219
-4.7715 ALT -0.2219
-4.7715 ALTER -0.2219
-4.7715 ALTERED -0.2219
-4.7715 ALTERNATE -0.2219
-4.7715 ALTERNATIVE -0.2219
-4.7715 ALTERNATIVELY -0.2219
-4.7715 ALTERNATIVES -0.2219
-4.7715 ALTHOUGH -0.2219
-4.7715 ALUMINIUM -0.2219
-4.7715 ALUMINUM -0.2219
-4.7715 ALUMNI -0.2219
-4.7715 ALWAYS -0.2219
-4.7715 AM -0.2219
-4.7715 AMANDA -0.2219
-4.7715 AMATEUR -0.2219
-4.7715 AMAZING -0.2219
-4.7715 AMAZON -0.2219
-4.7715 AMBASSADOR -0.2219
-4.7715 AMBER -0.2219
-4.7715 AMBIEN -0.2219
-4.7715 AMBIENT -0.2219
-4.7715 AMD -0.2219
-4.7715 AMEND -0.2219
-4.7715 AMENDED -0.2219
-4.7715 AMENDMENT -0.2219
-4.7715 AMENDMENTS -0.2219
-4.7715 AMENITIES -0.2219
-4.7715 AMERICA -0.2219
-4.7715 AMERICAN -0.2219
-4.7715 AMERICANS -0.2219
-4.7715 AMERICAS -0.2219
-4.7715 AMINO -0.2219
-4.7715 AMONG -0.2219
-4.7715 AMONGST -0.2219
-4.7715 AMOUNT -0.2219
-4.7715 AMOUNTS -0.2219
-4.7715 AMP -0.2219
-4.7715 AMPLAND -0.2219
-4.7715 AMPLIFIER -0.2219
-4.7715 AMSTERDAM -0.2219
-4.7715 AMY -0.2219
-4.4704 AN -0.2219
-4.7715 ANA -0.2219
-4.7715 ANAHEIM -0.2219
-4.7715 ANAL -0.2219
-4.7715 ANALOG -0.2219
-4.7715 ANALYSIS -0.2219
-4.7715 ANALYST -0.2219
-4.7715 ANALYSTS -0.2219
-4.7715 ANALYTICAL -0.2219
-4.7715 ANALYZE -0.2219
-4.7715 ANALYZED -0.2219
-4.7715 ANALYZES -0.2219
-4.7715 ANATOMY -0.2219
-4.7715 ANCHOR -0.2219
-4.7715 ANCIENT -0.2219
-4.7715 AND -0.2219
-4.7715 ANDALE -0.2219
-4.7715 ANDERSON -0.2219
-4.7715 ANDORRA -0.2219
-4.7715 ANDREA -0.2219
-4.7715 ANDREAS -0.2219
-4.7715 ANDREW -0.2219
-4.7715 ANDREWS -0.2219
-4.7715 ANDY -0.2219
-4.7715 ANGEL -0.2219
-4.7715 ANGELA -0.2219
-4.7715 ANGELES -0.2219
-4.7715 ANGELS -0.2219
-4.7715 ANGER -0.2219
-4.7715 ANGLE -0.2219
-4.7715 ANGOLA -0.2219
-4.7715 ANGRY -0.2219
-4.7715 ANIMAL -0.2219
-4.7715 ANIMALS -0.2219
-4.7715 ANIMATED -0.2219
-4.7715 ANIMATION -0.2219
-4.7715 ANIME -0.2219
-4.7715 ANN -0.2219
-4.7715 ANNA -0.2219
-4.7715 ANNE -0.2219
-4.7715 ANNEX -0.2219
-4.7715 ANNIE -0.2219
-4.7715 ANNIVERSARY -0.2219
-4.7715 ANNOTATED -0.2219
-4.7715 ANNOTATION -0.2219
-4.7715 ANNOUNCE -0.2219
-4.7715 ANNOUNCED -0.2219
-4.7715 ANNOUNCEMENT -0.2219
-4.7715 ANNOUNCEMENTS -0.2219
-4.7715 ANNOUNCES -0.2219
-4.7715 ANNOYING -0.2219
-4.7715 ANNUAL -0.2219
-4.7715 ANNUALLY -0.2219
-4.7715 ANONYMOUS -0.2219
-4.7715 ANOTHER -0.2219
-4.7715 ANSWER -0.2219
-4.7715 ANSWERED -0.2219
-4.7715 ANSWERING -0.2219
-4.7715 ANSWERS -0.2219
-4.7715 ANTARCTICA -0.2219
-4.7715 ANTENNA -0.2219
-4.7715 ANTHONY -0.2219
-4.7715 ANTHROPOLOGY -0.2219
-4.7715 ANTI -0.2219
-4.7715 ANTIBODIES -0.2219
-4.7715 ANTIBODY -0.2219
-4.7715 ANTICIPATED -0.2219
-4.7715 ANTIGUA -0.2219
-4.7715 ANTIQUE -0.2219
-4.7715 ANTIQUES -0.2219
-4.7715 ANTIVIRUS -0.2219
-4.7715 ANTONIO -0.2219
-4.7715 ANXIETY -0.2219
-4.7715 ANY -0.2219
-4.7715 ANYBODY -0.2219
-4.7715 ANYMORE -0.2219
-4.7715 ANYONE -0.2219
-4.7715 ANYTHING -0.2219
-4.7715 ANYTIME -0.2219
-4.7715 ANYWAY -0.2219
-4.7715 ANYWHERE -0.2219
-4.7715 AOL -0.2219
-4.7715 AP -0.2219
-4.7715 APACHE -0.2219
-4.7715 APART -0.2219
-4.7715 APARTMENT -0.2219
-4.7715 APARTMENTS -0.2219
-4.7715 API -0.2219
-4.7715 APNIC -0.2219
-4.7715 APOLLO -0.2219
-4.7715 APPARATUS -0.2219
-4.7715 APPAREL -0.2219
-4.7715 APPARENT -0.2219
-4.7715 APPARENTLY -0.2219
-4.7715 APPEAL -0.2219
-4.7715 APPEALS -0.2219
-4.7715 APPEAR -0.2219
-4.7715 APPEARANCE -0.2219
-4.7715 APPEARED -0.2219
-4.7715 APPEARING -0.2219
-4.7715 APPEARS -0.2219
-4.7715 APPENDIX -0.2219
-4.7715 APPLE -0.2219
-4.7715 APPLIANCE -0.2219
-4.7715 APPLIANCES -0.2219
-4.7715 APPLICABLE -0.2219
-4.7715 APPLICANT -0.2219
-4.7715 APPLICANTS -0.2219
-4.7715 APPLICATION -0.2219
-4.7715 APPLICATIONS -0.2219
-4.7715 APPLIED -0.2219
-4.7715 APPLIES -0.2219
-4.7715 APPLY -0.2219
-4.7715 APPLYING -0.2219
-4.7715 APPOINTED -0.2219
-4.7715 APPOINTMENT -0.2219
-4.7715 APPOINTMENTS -0.2219
-4.7715 APPRAISAL -0.2219
-4.7715 APPRECIATE -0.2219
-4.7715 APPRECIATED -0.2219
-4.7715 APPRECIATION -0.2219
-4.7715 APPROACH -0.2219
-4.7715 APPROACHES -0.2219
-4.7715 APPROPRIATE -0.2219
-4.7715 APPROPRIATIONS -0.2219
-4.7715 APPROVAL -0.2219
-4.7715 APPROVE -0.2219
-4.7715 APPROVED -0.2219
-4.7715 APPROX -0.2219
-4.7715 APPROXIMATE -0.2219
-4.7715 APPROXIMATELY -0.2219
-4.7715 APPS -0.2219
-4.7715 APR -0.2219
-4.7715 APRIL -0.2219
-4.7715 AQUA -0.2219
-4.7715 AQUARIUM -0.2219
-4.7715 AQUATIC -0.2219
-4.7715 AR -0.2219
-4.7715 ARAB -0.2219
-4.7715 ARABIA -0.2219
-4.7715 ARABIC -0.2219
-4.7715 ARBITRARY -0.2219
-4.7715 ARBITRATION -0.2219
-4.7715 ARBOR -0.2219
-4.7715 ARCADE -0.2219
-4.7715 ARCH -0.2219
-4.7715 ARCHITECT -0.2219
-4.7715 ARCHITECTS -0.2219
-4.7715 ARCHITECTURAL -0.2219
-4.7715 ARCHITECTURE -0.2219
-4.7715 ARCHIVE -0.2219
-4.7715 ARCHIVED -0.2219
-4.7715 ARCHIVES -0.2219
-4.7715 ARCTIC -0.2219
-4.4704 ARE -0.2219
-4.7715 AREA -0.2219
-4.7715 AREAS -0.2219
-4.7715 ARENA -0.2219
-4.7715 ARG -0.2219
-4.7715 ARGENTINA -0.2219
-4.7715 ARGUE -0.2219
-4.7715 ARGUED -0.2219
-4.7715 ARGUMENT -0.2219
-4.7715 ARGUMENTS -0.2219
-4.7715 ARISE -0.2219
-4.7715 ARISING -0.2219
-4.7715 ARIZONA -0.2219
-4.7715 ARKANSAS -0.2219
-4.7715 ARLINGTON -0.2219
-4.7715 ARM -0.2219
-4.7715 ARMED -0.2219
-4.7715 ARMENIA -0.2219
-4.7715 ARMOR -0.2219
-4.7715 ARMS -0.2219
-4.7715 ARMSTRONG -0.2219
-4.7715 ARMY -0.2219
-4.7715 ARNOLD -0.2219
-4.7715 AROUND -0.2219
-4.7715 ARRANGE -0.2219
-4.7715 ARRANGED -0.2219
-4.7715 ARRANGEMENT -0.2219
-4.7715 ARRANGEMENTS -0.2219
-4.7715 ARRAY -0.2219
-4.7715 ARREST -0.2219
-4.7715 ARRESTED -0.2219
-4.7715 ARRIVAL -0.2219
-4.7715 ARRIVALS -0.2219
-4.7715 ARRIVE -0.2219
-4.7715 ARRIVED -0.2219
-4.7715 ARRIVES -0.2219
-4.7715 ARROW -0.2219
-4.7715 ART -0.2219
-4.7715 ARTHRITIS -0.2219
-4.7715 ARTHUR -0.2219
-4.7715 ARTICLE -0.2219
-4.7715 ARTICLES -0.2219
-4.7715 ARTIFICIAL -0.2219
-4.7715 ARTIST -0.2219
-4.7715 ARTISTIC -0.2219
-4.7715 ARTISTS -0.2219
-4.7715 ARTS -0.2219
-4.7715 ARTWORK -0.2219
-4.7715 ARUBA -0.2219
-4.7715 AS -0.2219
-4.7715 ASBESTOS -0.2219
-4.7715 ASCII -0.2219
-4.7715 ASH -0.2219
-4.7715 ASHLEY -0.2219
-4.7715 ASIA -0.2219
-4.7715 ASIAN -0.2219
-4.7715 ASIDE -0.2219
-4.7715 ASIN -0.2219
-4.7715 ASK -0.2219
-4.7715 ASKED -0.2219
-4.7715 ASKING -0.2219
-4.7715 ASKS -0.2219
-4.7715 ASP -0.2219
-4.7715 ASPECT -0.2219
-4.7715 ASPECTS -0.2219
-4.7715 ASS -0.2219
-4.7715 ASSAULT -0.2219
-4.7715 ASSEMBLED -0.2219
-4.7715 ASSEMBLY -0.2219
-4.7715 ASSESS -0.2219
-4.7715 ASSESSED -0.2219
-4.7715 ASSESSING -0.2219
-4.7715 ASSESSMENT -0.2219
-4.7715 ASSESSMENTS -0.2219
-4.7715 ASSET -0.2219
-4.7715 ASSETS -0.2219
-4.7715 ASSIGN -0.2219
-4.7715 ASSIGNED -0.2219
-4.7715 ASSIGNMENT -0.2219
-4.7715 ASSIGNMENTS -0.2219
-4.7715 ASSIST -0.2219
-4.7715 ASSISTANCE -0.2219
-4.7715 ASSISTANT -0.2219
-4.7715 ASSISTED -0.2219
-4.7715 ASSISTS -0.2219
-4.7715 ASSOCIATE -0.2219
-4.7715 ASSOCIATED -0.2219
-4.7715 ASSOCIATES -0.2219
-4.7715 ASSOCIATION -0.2219
-4.7715 ASSOCIATIONS -0.2219
-4.7715 ASSUME -0.2219
-4.7715 ASSUMED -0.2219
-4.7715 ASSUMES -0.2219
-4.7715 ASSUMING -0.2219
-4.7715 ASSUMPTION -0.2219
-4.7715 ASSUMPTIONS -0.2219
-4.7715 ASSURANCE -0.2219
-4.7715 ASSURE -0.2219
-4.7715 ASSURED -0.2219
-4.7715 ASTHMA -0.2219
-4.7715 ASTROLOGY -0.2219
-4.7715 ASTRONOMY -0.2219
-4.7715 ASUS -0.2219
-4.7715 ASYLUM -0.2219
-4.7715 AT -0.2219
-4.7715 ATA -0.2219
-4.7715 ATE -0.2219
-4.7715 ATHENS -0.2219
-4.7715 ATHLETES -0.2219
-4.7715 ATHLETIC -0.2219
-4.7715 ATHLETICS -0.2219
-4.7715 ATI -0.2219
-4.7715 ATLANTA -0.2219
-4.7715 ATLANTIC -0.2219
-4.7715 ATLAS -0.2219
-4.7715 ATM -0.2219
-4.7715 ATMOSPHERE -0.2219
-4.7715 ATMOSPHERIC -0.2219
-4.7715 ATOM -0.2219
-4.7715 ATOMIC -0.2219
-4.7715 ATTACH -0.2219
-4.7715 ATTACHED -0.2219
-4.7715 ATTACHMENT -0.2219
-4.7715 ATTACHMENTS -0.2219
-4.7715 ATTACK -0.2219
-4.7715 ATTACKED -0.2219
-4.7715 ATTACKS -0.2219
-4.7715 ATTEMPT -0.2219
-4.7715 ATTEMPTED -0.2219
-4.7715 ATTEMPTING -0.2219
-4.7715 ATTEMPTS -0.2219
-4.7715 ATTEND -0.2219
-4.7715 ATTENDANCE -0.2219
-4.7715 ATTENDED -0.2219
-4.7715 ATTENDING -0.2219
-4.7715 ATTENTION -0.2219
-4.7715 ATTITUDE -0.2219
-4.7715 ATTITUDES -0.2219
-4.7715 ATTORNEY -0.2219
-4.7715 ATTORNEYS -0.2219
-4.7715 ATTRACT -0.2219
-4.7715 ATTRACTION -0.2219
-4.7715 ATTRACTIONS -0.2219
-4.7715 ATTRACTIVE -0.2219
-4.7715 ATTRIBUTE -0.2219
-4.7715 ATTRIBUTES -0.2219
-4.7715 AU -0.2219
-4.7715 AUBURN -0.2219
-4.7715 AUCKLAND -0.2219
-4.7715 AUCTION -0.2219
-4.7715 AUCTIONS -0.2219
-4.7715 AUD -0.2219
-4.7715 AUDI -0.2219
-4.7715 AUDIENCE -0.2219
-4.7715 AUDIO -0.2219
-4.7715 AUDIT -0.2219
-4.7715 AUDITOR -0.2219
-4.7715 AUG -0.2219
-4.7715 AUGUST -0.2219
-4.7715 AURORA -0.2219
-4.7715 AUS -0.2219
-4.7715 AUSTIN -0.2219
-4.7715 AUSTRALIA -0.2219
-4.7715 AUSTRALIAN -0.2219
-4.7715 AUSTRIA -0.2219
-4.7715 AUTHENTIC -0.2219
-4.7715 AUTHENTICATION -0.2219
-4.7715 AUTHOR -0.2219
-4.7715 AUTHORITIES -0.2219
-4.7715 AUTHORITY -0.2219
-4.7715 AUTHORIZATION -0.2219
-4.7715 AUTHORIZED -0.2219
-4.7715 AUTHORS -0.2219
-4.7715 AUTO -0.2219
-4.7715 AUTOMATED -0.2219
-4.7715 AUTOMATIC -0.2219
-4.7715 AUTOMATICALLY -0.2219
-4.7715 AUTOMATION -0.2219
-4.7715 AUTOMOBILE -0.2219
-4.7715 AUTOMOBILES -0.2219
-4.7715 AUTOMOTIVE -0.2219
-4.7715 AUTOS -0.2219
-4.7715 AUTUMN -0.2219
-4.7715 AV -0.2219
-4.7715 AVAILABILITY -0.2219
-4.7715 AVAILABLE -0.2219
-4.7715 AVATAR -0.2219
-4.7715 AVE -0.2219
-4.7715 AVENUE -0.2219
-4.7715 AVERAGE -0.2219
-4.7715 AVG -0.2219
-4.7715 AVI -0.2219
-4.7715 AVIATION -0.2219
-4.7715 AVOID -0.2219
-4.7715 AVOIDING -0.2219
-4.7715 AVON -0.2219
-4.7715 AW -0.2219
-4.7715 AWARD -0.2219
-4.7715 AWARDED -0.2219
-4.7715 AWARDS -0.2219
-4.7715 AWARE -0.2219
-4.7715 AWARENESS -0.2219
-4.7715 AWAY -0.2219
-4.7715 AWESOME -0.2219
-4.7715 AWFUL -0.2219
-4.7715 AXIS -0.2219
-4.7715 AYE -0.2219
-4.7715 AZ -0.2219
-4.7715 AZERBAIJAN -0.2219
-4.7715 BA -0.2219
-4.7715 BABE -0.2219
-4.7715 BABES -0.2219
-4.7715 BABIES -0.2219
-4.7715 BABY -0.2219
-4.7715 BACHELOR -0.2219
-4.7715 BACK -0.2219
-4.7715 BACKED -0.2219
-4.7715 BACKGROUND -0.2219
-4.7715 BACKGROUNDS -0.2219
-4.7715 BACKING -0.2219
-4.7715 BACKUP -0.2219
-4.7715 BACON -0.2219
-4.7715 BACTERIA -0.2219
-4.7715 BACTERIAL -0.2219
-4.7715 BAD -0.2219
-4.7715 BADGE -0.2219
-4.7715 BADLY -0.2219
-4.7715 BAG -0.2219
-4.7715 BAGHDAD -0.2219
-4.7715 BAGS -0.2219
-4.7715 BAHAMAS -0.2219
-4.7715 BAHRAIN -0.2219
-4.7715 BAILEY -0.2219
-4.7715 BAKER -0.2219
-4.7715 BAKING -0.2219
-4.7715 BALANCE -0.2219
-4.7715 BALANCED -0.2219
-4.7715 BALD -0.2219
-4.7715 BALI -0.2219
-4.7715 BALL -0.2219
-4.7715 BALLET -0.2219
-4.7715 BALLOON -0.2219
-4.7715 BALLOT -0.2219
-4.7715 BALLS -0.2219
-4.7715 BALTIMORE -0.2219
-4.7715 BAN -0.2219
-4.7715 BANANA -0.2219
-4.7715 BAND -0.2219
-4.7715 BANDS -0.2219
-4.7715 BANDWIDTH -0.2219
-4.7715 BANG -0.2219
-4.7715 BANGBUS -0.2219
-4.7715 BANGKOK -0.2219
-4.7715 BANGLADESH -0.2219
-4.7715 BANK -0.2219
-4.7715 BANKING -0.2219
-4.7715 BANKRUPTCY -0.2219
-4.7715 BANKS -0.2219
-4.7715 BANNED -0.2219
-4.7715 BANNER -0.2219
-4.7715 BANNERS -0.2219
-4.7715 BAPTIST -0.2219
-4.7715 BAR -0.2219
-4.7715 BARBADOS -0.2219
-4.7715 BARBARA -0.2219
-4.7715 BARBIE -0.2219
-4.7715 BARCELONA -0.2219
-4.7715 BARE -0.2219
-4.7715 BARELY -0.2219
-4.7715 BARGAIN -0.2219
-4.7715 BARGAINS -0.2219
-4.7715 BARN -0.2219
-4.7715 BARNES -0.2219
-4.7715 BARREL -0.2219
-4.7715 BARRIER -0.2219
-4.7715 BARRIERS -0.2219
-4.7715 BARRY -0.2219
-4.7715 BARS -0.2219
-4.7715 BASE -0.2219
-4.7715 BASEBALL -0.2219
-4.7715 BASED -0.2219
-4.7715 BASELINE -0.2219
-4.7715 BASEMENT -0.2219
-4.7715 BASENAME -0.2219
-4.7715 BASES -0.2219
-4.7715 BASIC -0.2219
-4.7715 BASICALLY -0.2219
-4.7715 BASICS -0.2219
-4.7715 BASIN -0.2219
-4.7715 BASIS -0.2219
-4.7715 BASKET -0.2219
-4.7715 BASKETBALL -0.2219
-4.7715 BASKETS -0.2219
-4.7715 BASS -0.2219
-4.7715 BAT -0.2219
-4.7715 BATCH -0.2219
-4.7715 BATH -0.2219
-4.7715 BATHROOM -0.2219
-4.7715 BATHROOMS -0.2219
-4.7715 BATHS -0.2219
-4.7715 BATMAN -0.2219
-4.7715 BATTERIES -0.2219
-4.7715 BATTERY -0.2219
-4.7715 BATTLE -0.2219
-4.7715 BATTLEFIELD -0.2219
-4.7715 BAY -0.2219
-4.7715 BB -0.2219
-4.7715 BBC -0.2219
-4.7715 BBW -0.2219
-4.7715 BC -0.2219
-4.7715 BDSM -0.2219
-4.7715 BE -0.2219
-4.7715 BEACH -0.2219
-4.7715 BEACHES -0.2219
-4.7715 BEADS -0.2219
-4.7715 BEAM -0.2219
-4.7715 BEAN -0.2219
-4.7715 BEANS -0.2219
-4.7715 BEAR -0.2219
-4.7715 BEARING -0.2219
-4.7715 BEARS -0.2219
-4.7715 BEAST -0.2219
-4.7715 BEASTALITY -0.2219
-4.7715 BEASTIALITY -0.2219
-4.7715 BEAT -0.2219
-4.7715 BEATLES -0.2219
-4.7715 BEATS -0.2219
-4.7715 BEAUTIFUL -0.2219
-4.7715 BEAUTIFULLY -0.2219
-4.7715 BEAUTY -0.2219
-4.7715 BEAVER -0.2219
-4.7715 BECAME -0.2219
-4.7715 BECAUSE -0.2219
-4.7715 BECOME -0.2219
-4.7715 BECOMES -0.2219
-4.7715 BECOMING -0.2219
-4.7715 BED -0.2219
-4.7715 BEDDING -0.2219
-4.7715 BEDFORD -0.2219
-4.7715 BEDROOM -0.2219
-4.7715 BEDROOMS -0.2219
-4.7715 BEDS -0.2219
-4.7715 BEE -0.2219
-4.7715 BEEF -0.2219
-4.7715 BEEN -0.2219
-4.7715 BEER -0.2219
-4.7715 BEFORE -0.2219
-4.7715 BEGAN -0.2219
-4.7715 BEGIN -0.2219
-4.7715 BEGINNER -0.2219
-4.7715 BEGINNERS -0.2219
-4.7715 BEGINNING -0.2219
-4.7715 BEGINS -0.2219
-4.7715 BEGUN -0.2219
-4.7715 BEHALF -0.2219
-4.4704 BEHAVIOR -0.2219
-4.7715 BEHAVIORAL -0.2219
-4.7715 BEHIND -0.2219
-4.7715 BEIJING -0.2219
-4.7715 BEING -0.2219
-4.7715 BEINGS -0.2219
-4.7715 BELARUS -0.2219
-4.7715 BELFAST -0.2219
-4.7715 BELGIUM -0.2219
-4.7715 BELIEF -0.2219
-4.7715 BELIEFS -0.2219
-4.7715 BELIEVE -0.2219
-4.7715 BELIEVED -0.2219
-4.7715 BELIEVES -0.2219
-4.7715 BELIZE -0.2219
-4.7715 BELKIN -0.2219
-4.7715 BELL -0.2219
-4.7715 BELLE -0.2219
-4.7715 BELLY -0.2219
-4.7715 BELONG -0.2219
-4.7715 BELONGS -0.2219
-4.7715 BELOW -0.2219
-4.7715 BELT -0.2219
-4.7715 BELTS -0.2219
-4.7715 BEN -0.2219
-4.7715 BENCH -0.2219
-4.7715 BENCHMARK -0.2219
-4.7715 BEND -0.2219
-4.7715 BENEATH -0.2219
-4.7715 BENEFICIAL -0.2219
-4.7715 BENEFIT -0.2219
-4.7715 BENEFITS -0.2219
-4.7715 BENJAMIN -0.2219
-4.7715 BENNETT -0.2219
-4.7715 BENT -0.2219
-4.7715 BENZ -0.2219
-4.7715 BERKELEY -0.2219
-4.7715 BERLIN -0.2219
-4.7715 BERMUDA -0.2219
-4.7715 BERNARD -0.2219
-4.7715 BERRY -0.2219
-4.7715 BESIDE -0.2219
-4.7715 BESIDES -0.2219
-4.7715 BEST -0.2219
-4.7715 BESTIALITY -0.2219
-4.7715 BESTSELLERS -0.2219
-4.7715 BET -0.2219
-4.7715 BETA -0.2219
-4.7715 BETH -0.2219
-4.7715 BETTER -0.2219
-4.7715 BETTING -0.2219
-4.7715 BETTY -0.2219
-4.7715 BETWEEN -0.2219
-4.7715 BEVERAGE -0.2219
-4.7715 BEVERAGES -0.2219
-4.7715 BEVERLY -0.2219
-4.7715 BEYOND -0.2219
-4.7715 BHUTAN -0.2219
-4.7715 BI -0.2219
-4.7715 BIAS -0.2219
-4.7715 BIBLE -0.2219
-4.7715 BIBLICAL -0.2219
-4.7715 BIBLIOGRAPHIC -0.2219
-4.7715 BIBLIOGRAPHY -0.2219
-4.7715 BICYCLE -0.2219
-4.7715 BID -0.2219
-4.7715 BIDDER -0.2219
-4.7715 BIDDING -0.2219
-4.7715 BIDS -0.2219
-4.7715 BIG -0.2219
-4.7715 BIGGER -0.2219
-4.7715 BIGGEST -0.2219
-4.7715 BIKE -0.2219
-4.7715 BIKES -0.2219
-4.7715 BIKINI -0.2219
-4.7715 BILL -0.2219
-4.7715 BILLING -0.2219
-4.7715 BILLION -0.2219
-4.7715 BILLS -0.2219
-4.7715 BILLY -0.2219
-4.7715 BIN -0.2219
-4.7715 BINARY -0.2219
-4.7715 BIND -0.2219
-4.7715 BINDING -0.2219
-4.7715 BINGO -0.2219
-4.7715 BIO -0.2219
-4.7715 BIODIVERSITY -0.2219
-4.7715 BIOGRAPHIES -0.2219
-4.7715 BIOGRAPHY -0.2219
-4.7715 BIOL -0.2219
-4.7715 BIOLOGICAL -0.2219
-4.7715 BIOLOGY -0.2219
-4.7715 BIOS -0.2219
-4.7715 BIOTECHNOLOGY -0.2219
-4.7715 BIRD -0.2219
-4.7715 BIRDS -0.2219
-4.7715 BIRMINGHAM -0.2219
-4.7715 BIRTH -0.2219
-4.7715 BIRTHDAY -0.2219
-4.7715 BISHOP -0.2219
-4.7715 BIT -0.2219
-4.7715 BITCH -0.2219
-4.7715 BITE -0.2219
-4.7715 BITS -0.2219
-4.7715 BIZ -0.2219
-4.7715 BIZARRE -0.2219
-4.7715 BIZRATE -0.2219
-4.7715 BK -0.2219
-4.7715 BLACK -0.2219
-4.7715 BLACKBERRY -0.2219
-4.7715 BLACKJACK -0.2219
-4.7715 BLACKS -0.2219
-4.7715 BLADE -0.2219
-4.7715 BLADES -0.2219
-4.7715 BLAH -0.2219
-4.7715 BLAIR -0.2219
-4.7715 BLAKE -0.2219
-4.7715 BLAME -0.2219
-4.7715 BLANK -0.2219
-4.7715 BLANKET -0.2219
-4.7715 BLAST -0.2219
-4.7715 BLEEDING -0.2219
-4.7715 BLEND -0.2219
-4.7715 BLESS -0.2219
-4.7715 BLESSED -0.2219
-4.7715 BLIND -0.2219
-4.7715 BLINK -0.2219
-4.7715 BLOCK -0.2219
-4.7715 BLOCKED -0.2219
-4.7715 BLOCKING -0.2219
-4.7715 BLOCKS -0.2219
-4.7715 BLOG -0.2219
-4.7715 BLOGGER -0.2219
-4.7715 BLOGGERS -0.2219
-4.7715 BLOGGING -0.2219
-4.7715 BLOGS -0.2219
-4.7715 BLOND -0.2219
-4.7715 BLONDE -0.2219
-4.7715 BLOOD -0.2219
-4.7715 BLOODY -0.2219
-4.7715 BLOOM -0.2219
-4.7715 BLOOMBERG -0.2219
-4.7715 BLOW -0.2219
-4.7715 BLOWING -0.2219
-4.7715 BLOWJOB -0.2219
-4.7715 BLOWJOBS -0.2219
-4.7715 BLUE -0.2219
-4.7715 BLUES -0.2219
-4.7715 BLUETOOTH -0.2219
-4.7715 BLVD -0.2219
-4.7715 BM -0.2219
-4.7715 BMW -0.2219
-4.7715 BOARD -0.2219
-4.7715 BOARDS -0.2219
-4.7715 BOAT -0.2219
-4.7715 BOATING -0.2219
-4.7715 BOATS -0.2219
-4.7715 BOB -0.2219
-4.7715 BOBBY -0.2219
-4.7715 BODIES -0.2219
-4.7715 BODY -0.2219
-4.7715 BOLD -0.2219
-4.7715 BOLIVIA -0.2219
-4.7715 BOLT -0.2219
-4.7715 BOMB -0.2219
-4.7715 BOND -0.2219
-4.7715 BONDAGE -0.2219
-4.7715 BONDS -0.2219
-4.7715 BONE -0.2219
-4.7715 BONES -0.2219
-4.7715 BONUS -0.2219
-4.7715 BOOB -0.2219
-4.7715 BOOBS -0.2219
-4.7715 BOOK -0.2219
-4.7715 BOOKING -0.2219
-4.7715 BOOKINGS -0.2219
-4.7715 BOOKMARK -0.2219
-4.7715 BOOKMARKS -0.2219
-4.7715 BOOKS -0.2219
-4.7715 BOOKSTORE -0.2219
-4.7715 BOOL -0.2219
-4.7715 BOOLEAN -0.2219
-4.7715 BOOM -0.2219
-4.7715 BOOST -0.2219
-4.7715 BOOT -0.2219
-4.7715 BOOTH -0.2219
-4.7715 BOOTS -0.2219
-4.7715 BOOTY -0.2219
-4.7715 BORDER -0.2219
-4.7715 BORDERS -0.2219
-4.7715 BORED -0.2219
-4.7715 BORING -0.2219
-4.7715 BORN -0.2219
-4.7715 BOROUGH -0.2219
-4.7715 BOSNIA -0.2219
-4.7715 BOSS -0.2219
-4.7715 BOSTON -0.2219
-4.7715 BOTH -0.2219
-4.7715 BOTHER -0.2219
-4.7715 BOTSWANA -0.2219
-4.7715 BOTTLE -0.2219
-4.7715 BOTTLES -0.2219
-4.7715 BOTTOM -0.2219
-4.7715 BOUGHT -0.2219
-4.7715 BOULDER -0.2219
-4.7715 BOULEVARD -0.2219
-4.7715 BOUND -0.2219
-4.7715 BOUNDARIES -0.2219
-4.7715 BOUNDARY -0.2219
-4.7715 BOUQUET -0.2219
-4.7715 BOUTIQUE -0.2219
-4.7715 BOW -0.2219
-4.7715 BOWL -0.2219
-4.7715 BOWLING -0.2219
-4.7715 BOX -0.2219
-4.7715 BOXED -0.2219
-4.7715 BOXES -0.2219
-4.7715 BOXING -0.2219
-4.7715 BOY -0.2219
-4.7715 BOYS -0.2219
-4.7715 BP -0.2219
-4.7715 BR -0.2219
-4.7715 BRA -0.2219
-4.7715 BRACELET -0.2219
-4.7715 BRACELETS -0.2219
-4.7715 BRACKET -0.2219
-4.7715 BRAD -0.2219
-4.7715 BRADFORD -0.2219
-4.7715 BRADLEY -0.2219
-4.7715 BRAIN -0.2219
-4.7715 BRAKE -0.2219
-4.7715 BRAKES -0.2219
-4.7715 BRANCH -0.2219
-4.7715 BRANCHES -0.2219
-4.7715 BRAND -0.2219
-4.7715 BRANDON -0.2219
-4.7715 BRANDS -0.2219
-4.7715 BRAS -0.2219
-4.7715 BRASS -0.2219
-4.7715 BRAVE -0.2219
-4.7715 BRAZIL -0.2219
-4.7715 BRAZILIAN -0.2219
-4.7715 BREACH -0.2219
-4.7715 BREAD -0.2219
-4.7715 BREAK -0.2219
-4.7715 BREAKDOWN -0.2219
-4.7715 BREAKFAST -0.2219
-4.7715 BREAKING -0.2219
-4.7715 BREAKS -0.2219
-4.7715 BREAST -0.2219
-4.7715 BREASTS -0.2219
-4.7715 BREATH -0.2219
-4.7715 BREATHING -0.2219
-4.7715 BREED -0.2219
-4.7715 BREEDING -0.2219
-4.7715 BREEDS -0.2219
-4.7715 BRIAN -0.2219
-4.7715 BRICK -0.2219
-4.7715 BRIDAL -0.2219
-4.7715 BRIDE -0.2219
-4.7715 BRIDGE -0.2219
-4.7715 BRIDGES -0.2219
-4.7715 BRIEF -0.2219
-4.7715 BRIEFING -0.2219
-4.7715 BRIEFLY -0.2219
-4.7715 BRIEFS -0.2219
-4.7715 BRIGHT -0.2219
-4.7715 BRIGHTON -0.2219
-4.7715 BRILLIANT -0.2219
-4.7715 BRING -0.2219
-4.7715 BRINGING -0.2219
-4.7715 BRINGS -0.2219
-4.7715 BRISBANE -0.2219
-4.7715 BRISTOL -0.2219
-4.7715 BRITAIN -0.2219
-4.7715 BRITANNICA -0.2219
-4.7715 BRITISH -0.2219
-4.7715 BRITNEY -0.2219
-4.7715 BROAD -0.2219
-4.7715 BROADBAND -0.2219
-4.7715 BROADCAST -0.2219
-4.7715 BROADCASTING -0.2219
-4.7715 BROADER -0.2219
-4.7715 BROADWAY -0.2219
-4.7715 BROCHURE -0.2219
-4.7715 BROCHURES -0.2219
-4.7715 BROKE -0.2219
-4.7715 BROKEN -0.2219
-4.7715 BROKER -0.2219
-4.7715 BROKERS -0.2219
-4.7715 BRONZE -0.2219
-4.7715 BROOK -0.2219
-4.7715 BROOKLYN -0.2219
-4.7715 BROOKS -0.2219
-4.7715 BROTHER -0.2219
-4.7715 BROTHERS -0.2219
-4.7715 BROUGHT -0.2219
-4.7715 BROWN -0.2219
-4.7715 BROWSE -0.2219
-4.7715 BROWSER -0.2219
-4.7715 BROWSERS -0.2219
-4.7715 BROWSING -0.2219
-4.7715 BRUCE -0.2219
-4.7715 BRUNEI -0.2219
-4.7715 BRUNETTE -0.2219
-4.7715 BRUNSWICK -0.2219
-4.7715 BRUSH -0.2219
-4.7715 BRUSSELS -0.2219
-4.7715 BRUTAL -0.2219
-4.7715 BRYAN -0.2219
-4.7715 BRYANT -0.2219
-4.7715 BS -0.2219
-4.7715 BT -0.2219
-4.7715 BUBBLE -0.2219
-4.7715 BUCK -0.2219
-4.7715 BUCKS -0.2219
-4.7715 BUDAPEST -0.2219
-4.7715 BUDDY -0.2219
-4.7715 BUDGET -0.2219
-4.7715 BUDGETS -0.2219
-4.7715 BUF -0.2219
-4.7715 BUFFALO -0.2219
-4.7715 BUFFER -0.2219
-4.7715 BUFING -0.2219
-4.7715 BUG -0.2219
-4.7715 BUGS -0.2219
-4.7715 BUILD -0.2219
-4.7715 BUILDER -0.2219
-4.7715 BUILDERS -0.2219
-4.7715 BUILDING -0.2219
-4.7715 BUILDINGS -0.2219
-4.7715 BUILDS -0.2219
-4.7715 BUILT -0.2219
-4.7715 BUKKAKE -0.2219
-4.7715 BULGARIA -0.2219
-4.7715 BULGARIAN -0.2219
-4.7715 BULK -0.2219
-4.7715 BULL -0.2219
-4.7715 BULLET -0.2219
-4.7715 BULLETIN -0.2219
-4.7715 BUMPER -0.2219
-4.7715 BUNCH -0.2219
-4.7715 BUNDLE -0.2219
-4.7715 BUNNY -0.2219
-4.7715 BURDEN -0.2219
-4.7715 BUREAU -0.2219
-4.7715 BURIED -0.2219
-4.7715 BURKE -0.2219
-4.7715 BURLINGTON -0.2219
-4.7715 BURN -0.2219
-4.7715 BURNER -0.2219
-4.7715 BURNING -0.2219
-4.7715 BURNS -0.2219
-4.7715 BURST -0.2219
-4.7715 BURTON -0.2219
-4.7715 BUS -0.2219
-4.7715 BUSES -0.2219
-4.7715 BUSH -0.2219
-4.7715 BUSINESS -0.2219
-4.7715 BUSINESSES -0.2219
-4.7715 BUSTY -0.2219
-4.7715 BUSY -0.2219
-4.7715 BUT -0.2219
-4.7715 BUTLER -0.2219
-4.7715 BUTT -0.2219
-4.7715 BUTTER -0.2219
-4.7715 BUTTERFLY -0.2219
-4.7715 BUTTON -0.2219
-4.7715 BUTTONS -0.2219
-4.7715 BUTTS -0.2219
-4.7715 BUY -0.2219
-4.7715 BUYER -0.2219
-4.7715 BUYERS -0.2219
-4.7715 BUYING -0.2219
-4.7715 BUYS -0.2219
-4.7715 BUZZ -0.2219
-4.7715 BY -0.2219
-4.7715 BYE -0.2219
-4.7715 BYTE -0.2219
-4.7715 BYTES -0.2219
-4.7715 CA -0.2219
-4.7715 CAB -0.2219
-4.7715 CABIN -0.2219
-4.7715 CABINET -0.2219
-4.7715 CABINETS -0.2219
-4.7715 CABLE -0.2219
-4.7715 CABLES -0.2219
-4.7715 CACHE -0.2219
-4.7715 CACHED -0.2219
-4.7715 CAD -0.2219
-4.7715 CADILLAC -0.2219
-4.7715 CAFE -0.2219
-4.7715 CAGE -0.2219
-4.7715 CAKE -0.2219
-4.7715 CAKES -0.2219
-4.7715 CAL -0.2219
-4.7715 CALCIUM -0.2219
-4.7715 CALCULATE -0.2219
-4.7715 CALCULATED -0.2219
-4.7715 CALCULATION -0.2219
-4.7715 CALCULATIONS -0.2219
-4.7715 CALCULATOR -0.2219
-4.7715 CALCULATORS -0.2219
-4.7715 CALENDAR -0.2219
-4.7715 CALENDARS -0.2219
-4.7715 CALGARY -0.2219
-4.7715 CALIBRATION -0.2219
-4.7715 CALIFORNIA -0.2219
-4.7715 CALL -0.2219
-4.7715 CALLED -0.2219
-4.7715 CALLING -0.2219
-4.7715 CALLS -0.2219
-4.7715 CALM -0.2219
-4.7715 CALVIN -0.2219
-4.7715 CAM -0.2219
-4.7715 CAMBODIA -0.2219
-4.7715 CAMBRIDGE -0.2219
-4.7715 CAMCORDER -0.2219
-4.7715 CAMCORDERS -0.2219
-4.7715 CAME -0.2219
-4.7715 CAMEL -0.2219
-4.7715 CAMERA -0.2219
-4.7715 CAMERAS -0.2219
-4.7715 CAMERON -0.2219
-4.7715 CAMEROON -0.2219
-4.7715 CAMP -0.2219
-4.7715 CAMPAIGN -0.2219
-4.7715 CAMPAIGNS -0.2219
-4.7715 CAMPBELL -0.2219
-4.7715 CAMPING -0.2219
-4.7715 CAMPS -0.2219
-4.7715 CAMPUS -0.2219
-4.7715 CAMS -0.2219
-4.7715 CAN -0.2219
-4.7715 CANADA -0.2219
-4.7715 CANADIAN -0.2219
-4.7715 CANAL -0.2219
-4.7715 CANBERRA -0.2219
-4.7715 CANCEL -0.2219
-4.7715 CANCELLATION -0.2219
-4.7715 CANCELLED -0.2219
-4.7715 CANCER -0.2219
-4.7715 CANDIDATE -0.2219
-4.7715 CANDIDATES -0.2219
-4.7715 CANDLE -0.2219
-4.7715 CANDLES -0.2219
-4.7715 CANDY -0.2219
-4.7715 CANNON -0.2219
-4.7715 CANON -0.2219
-4.7715 CANT -0.2219
-4.7715 CANVAS -0.2219
-4.7715 CANYON -0.2219
-4.7715 CAP -0.2219
-4.7715 CAPABILITIES -0.2219
-4.7715 CAPABILITY -0.2219
-4.7715 CAPABLE -0.2219
-4.7715 CAPACITY -0.2219
-4.7715 CAPE -0.2219
-4.7715 CAPITAL -0.2219
-4.7715 CAPITOL -0.2219
-4.7715 CAPS -0.2219
-4.7715 CAPTAIN -0.2219
-4.7715 CAPTURE -0.2219
-4.7715 CAPTURED -0.2219
-4.7715 CAR -0.2219
-4.7715 CARB -0.2219
-4.7715 CARBON -0.2219
-4.7715 CARD -0.2219
-4.7715 CARDIAC -0.2219
-4.7715 CARDIFF -0.2219
-4.7715 CARDIOVASCULAR -0.2219
-4.7715 CARDS -0.2219
-4.7715 CARE -0.2219
-4.7715 CAREER -0.2219
-4.7715 CAREERS -0.2219
-4.7715 CAREFUL -0.2219
-4.7715 CAREFULLY -0.2219
-4.7715 CAREY -0.2219
-4.7715 CARGO -0.2219
-4.7715 CARIBBEAN -0.2219
-4.7715 CARING -0.2219
-4.7715 CARLO -0.2219
-4.7715 CARLOS -0.2219
-4.7715 CARMEN -0.2219
-4.7715 CARNIVAL -0.2219
-4.7715 CAROL -0.2219
-4.7715 CAROLINA -0.2219
-4.7715 CAROLINE -0.2219
-4.7715 CARPET -0.2219
-4.7715 CARRIED -0.2219
-4.7715 CARRIER -0.2219
-4.7715 CARRIERS -0.2219
-4.7715 CARRIES -0.2219
-4.7715 CARROLL -0.2219
-4.7715 CARRY -0.2219
-4.7715 CARRYING -0.2219
-4.7715 CARS -0.2219
-4.7715 CART -0.2219
-4.7715 CARTER -0.2219
-4.7715 CARTOON -0.2219
-4.7715 CARTOONS -0.2219
-4.7715 CARTRIDGE -0.2219
-4.7715 CARTRIDGES -0.2219
-4.7715 CASA -0.2219
-4.7715 CASE -0.2219
-4.7715 CASES -0.2219
-4.7715 CASEY -0.2219
-4.7715 CASH -0.2219
-4.7715 CASHIERS -0.2219
-4.7715 CASINO -0.2219
-4.7715 CASINOS -0.2219
-4.7715 CASIO -0.2219
-4.7715 CASSETTE -0.2219
-4.7715 CAST -0.2219
-4.7715 CASTING -0.2219
-4.7715 CASTLE -0.2219
-4.7715 CASUAL -0.2219
-4.7715 CAT -0.2219
-4.7715 CATALOG -0.2219
-4.7715 CATALOGS -0.2219
-4.7715 CATALOGUE -0.2219
-4.7715 CATALYST -0.2219
-4.7715 CATCH -0.2219
-4.7715 CATEGORIES -0.2219
-4.7715 CATEGORY -0.2219
-4.7715 CATERING -0.2219
-4.7715 CATHEDRAL -0.2219
-4.7715 CATHERINE -0.2219
-4.7715 CATHOLIC -0.2219
-4.7715 CATS -0.2219
-4.7715 CATTLE -0.2219
-4.7715 CAUGHT -0.2219
-4.7715 CAUSE -0.2219
-4.7715 CAUSED -0.2219
-4.7715 CAUSES -0.2219
-4.7715 CAUSING -0.2219
-4.7715 CAUTION -0.2219
-4.7715 CAVE -0.2219
-4.7715 CAYMAN -0.2219
-4.7715 CB -0.2219
-4.7715 CBS -0.2219
-4.7715 CC -0.2219
-4.7715 CD -0.2219
-4.7715 CDS -0.2219
-4.7715 CE -0.2219
-4.7715 CEDAR -0.2219
-4.7715 CEILING -0.2219
-4.7715 CELEBRATE -0.2219
-4.7715 CELEBRATION -0.2219
-4.7715 CELEBRITIES -0.2219
-4.7715 CELEBRITY -0.2219
-4.7715 CELEBS -0.2219
-4.7715 CELL -0.2219
-4.7715 CELLS -0.2219
-4.7715 CELLULAR -0.2219
-4.7715 CELTIC -0.2219
-4.7715 CEMENT -0.2219
-4.7715 CEMETERY -0.2219
-4.7715 CENSUS -0.2219
-4.7715 CENT -0.2219
-4.7715 CENTER -0.2219
-4.7715 CENTERED -0.2219
-4.7715 CENTERS -0.2219
-4.7715 CENTRAL -0.2219
-4.7715 CENTRE -0.2219
-4.7715 CENTRES -0.2219
-4.7715 CENTS -0.2219
-4.7715 CENTURIES -0.2219
-4.7715 CENTURY -0.2219
-4.7715 CEO -0.2219
-4.7715 CERAMIC -0.2219
-4.7715 CEREMONY -0.2219
-4.7715 CERTAIN -0.2219
-4.7715 CERTAINLY -0.2219
-4.7715 CERTIFICATE -0.2219
-4.7715 CERTIFICATES -0.2219
-4.7715 CERTIFICATION -0.2219
-4.7715 CERTIFIED -0.2219
-4.7715 CET -0.2219
-4.7715 CF -0.2219
-4.7715 CFR -0.2219
-4.7715 CG -0.2219
-4.7715 CGI -0.2219
-4.7715 CH -0.2219
-4.7715 CHAD -0.2219
-4.7715 CHAIN -0.2219
-4.7715 CHAINS -0.2219
-4.7715 CHAIR -0.2219
-4.7715 CHAIRMAN -0.2219
-4.7715 CHAIRS -0.2219
-4.7715 CHALLENGE -0.2219
-4.7715 CHALLENGED -0.2219
-4.7715 CHALLENGES -0.2219
-4.7715 CHALLENGING -0.2219
-4.7715 CHAMBER -0.2219
-4.7715 CHAMBERS -0.2219
-4.7715 CHAMPAGNE -0.2219
-4.7715 CHAMPION -0.2219
-4.7715 CHAMPIONS -0.2219
-4.7715 CHAMPIONSHIP -0.2219
-4.7715 CHAMPIONSHIPS -0.2219
-4.7715 CHAN -0.2219
-4.7715 CHANCE -0.2219
-4.7715 CHANCELLOR -0.2219
-4.7715 CHANCES -0.2219
-4.7715 CHANGE -0.2219
-4.7715 CHANGED -0.2219
-4.7715 CHANGELOG -0.2219
-4.7715 CHANGES -0.2219
-4.7715 CHANGING -0.2219
-4.7715 CHANNEL -0.2219
-4.7715 CHANNELS -0.2219
-4.7715 CHAOS -0.2219
-4.7715 CHAPEL -0.2219
-4.7715 CHAPTER -0.2219
-4.7715 CHAPTERS -0.2219
-4.7715 CHAR -0.2219
-4.7715 CHARACTER -0.2219
-4.7715 CHARACTERISTIC -0.2219
-4.7715 CHARACTERISTICS -0.2219
-4.7715 CHARACTERIZATION -0.2219
-4.7715 CHARACTERIZED -0.2219
-4.7715 CHARACTERS -0.2219
-4.7715 CHARGE -0.2219
-4.7715 CHARGED -0.2219
-4.7715 CHARGER -0.2219
-4.7715 CHARGERS -0.2219
-4.7715 CHARGES -0.2219
-4.7715 CHARGING -0.2219
-4.7715 CHARITABLE -0.2219
-4.7715 CHARITY -0.2219
-4.7715 CHARLES -0.2219
-4.7715 CHARLESTON -0.2219
-4.7715 CHARLIE -0.2219
-4.7715 CHARLOTTE -0.2219
-4.7715 CHARM -0.2219
-4.7715 CHARMING -0.2219
-4.7715 CHARMS -0.2219
-4.7715 CHART -0.2219
-4.7715 CHARTER -0.2219
-4.7715 CHARTS -0.2219
-4.7715 CHASE -0.2219
-4.7715 CHASSIS -0.2219
-4.7715 CHAT -0.2219
-4.7715 CHEAP -0.2219
-4.7715 CHEAPER -0.2219
-4.7715 CHEAPEST -0.2219
-4.7715 CHEAT -0.2219
-4.7715 CHEATS -0.2219
-4.7715 CHECK -0.2219
-4.7715 CHECKED -0.2219
-4.7715 CHECKING -0.2219
-4.7715 CHECKLIST -0.2219
-4.7715 CHECKOUT -0.2219
-4.7715 CHECKS -0.2219
-4.7715 CHEERS -0.2219
-4.7715 CHEESE -0.2219
-4.7715 CHEF -0.2219
-4.7715 CHELSEA -0.2219
-4.7715 CHEM -0.2219
-4.7715 CHEMICAL -0.2219
-4.7715 CHEMICALS -0.2219
-4.7715 CHEMISTRY -0.2219
-4.7715 CHEN -0.2219
-4.7715 CHEQUE -0.2219
-4.7715 CHERRY -0.2219
-4.7715 CHESS -0.2219
-4.7715 CHEST -0.2219
-4.7715 CHESTER -0.2219
-4.7715 CHEVROLET -0.2219
-4.7715 CHEVY -0.2219
-4.7715 CHI -0.2219
-4.7715 CHICAGO -0.2219
-4.7715 CHICK -0.2219
-4.7715 CHICKEN -0.2219
-4.7715 CHICKS -0.2219
-4.7715 CHIEF -0.2219
-4.7715 CHILD -0.2219
-4.7715 CHILDHOOD -0.2219
-4.7715 CHILDREN -0.2219
-4.7715 CHILDRENS -0.2219
-4.7715 CHILE -0.2219
-4.7715 CHINA -0.2219
-4.7715 CHINESE -0.2219
-4.7715 CHIP -0.2219
-4.7715 CHIPS -0.2219
-4.7715 CHOCOLATE -0.2219
-4.7715 CHOICE -0.2219
-4.7715 CHOICES -0.2219
-4.7715 CHOIR -0.2219
-4.7715 CHOLESTEROL -0.2219
-4.7715 CHOOSE -0.2219
-4.7715 CHOOSING -0.2219
-4.7715 CHORUS -0.2219
-4.7715 CHOSE -0.2219
-4.7715 CHOSEN -0.2219
-4.7715 CHRIS -0.2219
-4.7715 CHRIST -0.2219
-4.7715 CHRISTIAN -0.2219
-4.7715 CHRISTIANITY -0.2219
-4.7715 CHRISTIANS -0.2219
-4.7715 CHRISTINA -0.2219
-4.7715 CHRISTINE -0.2219
-4.7715 CHRISTMAS -0.2219
-4.7715 CHRISTOPHER -0.2219
-4.7715 CHROME -0.2219
-4.7715 CHRONIC -0.2219
-4.7715 CHRONICLE -0.2219
-4.7715 CHRONICLES -0.2219
-4.7715 CHRYSLER -0.2219
-4.7715 CHUBBY -0.2219
-4.7715 CHUCK -0.2219
-4.7715 CHURCH -0.2219
-4.7715 CHURCHES -0.2219
-4.7715 CI -0.2219
-4.7715 CIA -0.2219
-4.7715 CIALIS -0.2219
-4.7715 CIAO -0.2219
-4.7715 CIGARETTE -0.2219
-4.7715 CIGARETTES -0.2219
-4.7715 CINCINNATI -0.2219
-4.7715 CINDY -0.2219
-4.7715 CINEMA -0.2219
-4.7715 CINGULAR -0.2219
-4.7715 CIR -0.2219
-4.7715 CIRCLE -0.2219
-4.7715 CIRCLES -0.2219
-4.7715 CIRCUIT -0.2219
-4.7715 CIRCUITS -0.2219
-4.7715 CIRCULAR -0.2219
-4.7715 CIRCULATION -0.2219
-4.7715 CIRCUMSTANCES -0.2219
-4.7715 CIRCUS -0.2219
-4.7715 CISCO -0.2219
-4.7715 CITATION -0.2219
-4.7715 CITATIONS -0.2219
-4.7715 CITE -0.2219
-4.7715 CITED -0.2219
-4.7715 CITIES -0.2219
-4.7715 CITIZEN -0.2219
-4.7715 CITIZENS -0.2219
-4.7715 CITIZENSHIP -0.2219
-4.7715 CITY -0.2219
-4.7715 CITYSEARCH -0.2219
-4.7715 CIVIC -0.2219
-4.7715 CIVIL -0.2219
-4.7715 CIVILIAN -0.2219
-4.7715 CIVILIZATION -0.2219
-4.7715 CL -0.2219
-4.7715 CLAIM -0.2219
-4.7715 CLAIMED -0.2219
-4.7715 CLAIMS -0.2219
-4.7715 CLAIRE -0.2219
-4.7715 CLAN -0.2219
-4.7715 CLARA -0.2219
-4.7715 CLARITY -0.2219
-4.7715 CLARK -0.2219
-4.7715 CLARKE -0.2219
-4.7715 CLASS -0.2219
-4.7715 CLASSES -0.2219
-4.7715 CLASSIC -0.2219
-4.7715 CLASSICAL -0.2219
-4.7715 CLASSICS -0.2219
-4.7715 CLASSIFICATION -0.2219
-4.7715 CLASSIFIED -0.2219
-4.7715 CLASSIFIEDS -0.2219
-4.7715 CLASSROOM -0.2219
-4.7715 CLAUSE -0.2219
-4.7715 CLAY -0.2219
-4.7715 CLEAN -0.2219
-4.7715 CLEANER -0.2219
-4.7715 CLEANERS -0.2219
-4.7715 CLEANING -0.2219
-4.7715 CLEANUP -0.2219
-4.7715 CLEAR -0.2219
-4.7715 CLEARANCE -0.2219
-4.7715 CLEARED -0.2219
-4.7715 CLEARING -0.2219
-4.7715 CLEARLY -0.2219
-4.7715 CLERK -0.2219
-4.7715 CLEVELAND -0.2219
-4.7715 CLICK -0.2219
-4.7715 CLICKING -0.2219
-4.7715 CLICKS -0.2219
-4.7715 CLIENT -0.2219
-4.7715 CLIENTS -0.2219
-4.7715 CLIFF -0.2219
-4.7715 CLIMATE -0.2219
-4.7715 CLIMB -0.2219
-4.7715 CLIMBING -0.2219
-4.7715 CLINIC -0.2219
-4.7715 CLINICAL -0.2219
-4.7715 CLINICS -0.2219
-4.7715 CLINTON -0.2219
-4.7715 CLIP -0.2219
-4.7715 CLIPS -0.2219
-4.7715 CLOCK -0.2219
-4.7715 CLOCKS -0.2219
-4.7715 CLONE -0.2219
-4.7715 CLOSE -0.2219
-4.7715 CLOSED -0.2219
-4.7715 CLOSELY -0.2219
-4.7715 CLOSER -0.2219
-4.7715 CLOSES -0.2219
-4.7715 CLOSEST -0.2219
-4.7715 CLOSING -0.2219
-4.7715 CLOSURE -0.2219
-4.7715 CLOTH -0.2219
-4.7715 CLOTHES -0.2219
-4.7715 CLOTHING -0.2219
-4.7715 CLOUD -0.2219
-4.7715 CLOUDS -0.2219
-4.7715 CLOUDY -0.2219
-4.7715 CLUB -0.2219
-4.7715 CLUBS -0.2219
-4.7715 CLUSTER -0.2219
-4.7715 CLUSTERS -0.2219
-4.7715 CM -0.2219
-4.7715 CMS -0.2219
-4.7715 CN -0.2219
-4.7715 CNET -0.2219
-4.7715 CNN -0.2219
-4.7715 CO -0.2219
-4.7715 COACH -0.2219
-4.7715 COACHES -0.2219
-4.7715 COACHING -0.2219
-4.7715 COAL -0.2219
-4.7715 COALITION -0.2219
-4.7715 COAST -0.2219
-4.7715 COASTAL -0.2219
-4.7715 COAT -0.2219
-4.7715 COATED -0.2219
-4.7715 COATING -0.2219
-4.7715 COCK -0.2219
-4.7715 COCKS -0.2219
-4.7715 COCKTAIL -0.2219
-4.7715 COD -0.2219
-4.7715 CODE -0.2219
-4.7715 CODES -0.2219
-4.7715 CODING -0.2219
-4.7715 COFFEE -0.2219
-4.7715 COGNITIVE -0.2219
-4.7715 COHEN -0.2219
-4.4704 COIN -0.2219
-4.7715 COINS -0.2219
-4.7715 COL -0.2219
-4.7715 COLD -0.2219
-4.7715 COLE -0.2219
-4.7715 COLEMAN -0.2219
-4.7715 COLIN -0.2219
-4.7715 COLLABORATION -0.2219
-4.7715 COLLABORATIVE -0.2219
-4.7715 COLLAPSE -0.2219
-4.7715 COLLAR -0.2219
-4.7715 COLLEAGUE -0.2219
-4.7715 COLLEAGUES -0.2219
-4.7715 COLLECT -0.2219
-4.7715 COLLECTABLES -0.2219
-4.7715 COLLECTED -0.2219
-4.7715 COLLECTIBLE -0.2219
-4.7715 COLLECTIBLES -0.2219
-4.7715 COLLECTING -0.2219
-4.7715 COLLECTION -0.2219
-4.7715 COLLECTIONS -0.2219
-4.7715 COLLECTIVE -0.2219
-4.7715 COLLECTOR -0.2219
-4.7715 COLLECTORS -0.2219
-4.7715 COLLEGE -0.2219
-4.7715 COLLEGES -0.2219
-4.7715 COLLINS -0.2219
-4.7715 COLOGNE -0.2219
-4.7715 COLOMBIA -0.2219
-4.7715 COLON -0.2219
-4.7715 COLONIAL -0.2219
-4.7715 COLONY -0.2219
-4.4704 COLOR -0.2219
-4.7715 COLORADO -0.2219
-4.7715 COLORED -0.2219
-4.4704 COLORS -0.2219
-4.7715 COLUMBIA -0.2219
-4.7715 COLUMBUS -0.2219
-4.7715 COLUMN -0.2219
-4.7715 COLUMNISTS -0.2219
-4.7715 COLUMNS -0.2219
-4.7715 COM -0.2219
-4.7715 COMBAT -0.2219
-4.7715 COMBINATION -0.2219
-4.7715 COMBINATIONS -0.2219
-4.7715 COMBINE -0.2219
-4.7715 COMBINED -0.2219
-4.7715 COMBINES -0.2219
-4.7715 COMBINING -0.2219
-4.7715 COMBO -0.2219
-4.7715 COME -0.2219
-4.7715 COMEDY -0.2219
-4.7715 COMES -0.2219
-4.7715 COMFORT -0.2219
-4.7715 COMFORTABLE -0.2219
-4.7715 COMIC -0.2219
-4.7715 COMICS -0.2219
-4.7715 COMING -0.2219
-4.7715 COMM -0.2219
-4.7715 COMMAND -0.2219
-4.7715 COMMANDER -0.2219
-4.7715 COMMANDS -0.2219
-4.7715 COMMENT -0.2219
-4.7715 COMMENTARY -0.2219
-4.7715 COMMENTED -0.2219
-4.7715 COMMENTS -0.2219
-4.7715 COMMERCE -0.2219
-4.7715 COMMERCIAL -0.2219
-4.7715 COMMISSION -0.2219
-4.7715 COMMISSIONER -0.2219
-4.7715 COMMISSIONERS -0.2219
-4.7715 COMMISSIONS -0.2219
-4.7715 COMMIT -0.2219
-4.7715 COMMITMENT -0.2219
-4.7715 COMMITMENTS -0.2219
-4.7715 COMMITTED -0.2219
-4.7715 COMMITTEE -0.2219
-4.7715 COMMITTEES -0.2219
-4.7715 COMMODITIES -0.2219
-4.7715 COMMODITY -0.2219
-4.7715 COMMON -0.2219
-4.7715 COMMONLY -0.2219
-4.7715 COMMONS -0.2219
-4.7715 COMMONWEALTH -0.2219
-4.7715 COMMUNICATE -0.2219
-4.7715 COMMUNICATION -0.2219
-4.7715 COMMUNICATIONS -0.2219
-4.7715 COMMUNIST -0.2219
-4.7715 COMMUNITIES -0.2219
-4.7715 COMMUNITY -0.2219
-4.7715 COMP -0.2219
-4.7715 COMPACT -0.2219
-4.7715 COMPANIES -0.2219
-4.7715 COMPANION -0.2219
-4.7715 COMPANY -0.2219
-4.7715 COMPAQ -0.2219
-4.7715 COMPARABLE -0.2219
-4.7715 COMPARATIVE -0.2219
-4.7715 COMPARE -0.2219
-4.7715 COMPARED -0.2219
-4.7715 COMPARING -0.2219
-4.7715 COMPARISON -0.2219
-4.7715 COMPARISONS -0.2219
-4.7715 COMPATIBILITY -0.2219
-4.7715 COMPATIBLE -0.2219
-4.7715 COMPENSATION -0.2219
-4.7715 COMPETE -0.2219
-4.7715 COMPETENT -0.2219
-4.7715 COMPETING -0.2219
-4.7715 COMPETITION -0.2219
-4.7715 COMPETITIONS -0.2219
-4.7715 COMPETITIVE -0.2219
-4.7715 COMPETITORS -0.2219
-4.7715 COMPILATION -0.2219
-4.7715 COMPILE -0.2219
-4.7715 COMPILED -0.2219
-4.7715 COMPILER -0.2219
-4.7715 COMPLAINT -0.2219
-4.7715 COMPLAINTS -0.2219
-4.7715 COMPLEMENT -0.2219
-4.7715 COMPLETE -0.2219
-4.7715 COMPLETED -0.2219
-4.7715 COMPLETELY -0.2219
-4.7715 COMPLETING -0.2219
-4.7715 COMPLETION -0.2219
-4.7715 COMPLEX -0.2219
-4.7715 COMPLEXITY -0.2219
-4.7715 COMPLIANCE -0.2219
-4.7715 COMPLIANT -0.2219
-4.7715 COMPLICATED -0.2219
-4.7715 COMPLICATIONS -0.2219
-4.7715 COMPLIMENTARY -0.2219
-4.7715 COMPLY -0.2219
-4.7715 COMPONENT -0.2219
-4.7715 COMPONENTS -0.2219
-4.7715 COMPOSED -0.2219
-4.7715 COMPOSER -0.2219
-4.7715 COMPOSITE -0.2219
-4.7715 COMPOSITION -0.2219
-4.7715 COMPOUND -0.2219
-4.7715 COMPOUNDS -0.2219
-4.7715 COMPREHENSIVE -0.2219
-4.7715 COMPRESSED -0.2219
-4.7715 COMPRESSION -0.2219
-4.7715 COMPROMISE -0.2219
-4.7715 COMPUTATION -0.2219
-4.7715 COMPUTATIONAL -0.2219
-4.7715 COMPUTE -0.2219
-4.7715 COMPUTED -0.2219
-4.7715 COMPUTER -0.2219
-4.7715 COMPUTERS -0.2219
-4.7715 COMPUTING -0.2219
-4.7715 CON -0.2219
-4.7715 CONCENTRATE -0.2219
-4.7715 CONCENTRATION -0.2219
-4.7715 CONCENTRATIONS -0.2219
-4.7715 CONCEPT -0.2219
-4.7715 CONCEPTS -0.2219
-4.7715 CONCEPTUAL -0.2219
-4.7715 CONCERN -0.2219
-4.7715 CONCERNED -0.2219
-4.7715 CONCERNING -0.2219
-4.7715 CONCERNS -0.2219
-4.7715 CONCERT -0.2219
-4.7715 CONCERTS -0.2219
-4.7715 CONCLUDE -0.2219
-4.7715 CONCLUDED -0.2219
-4.7715 CONCLUSION -0.2219
-4.7715 CONCLUSIONS -0.2219
-4.7715 CONCORD -0.2219
-4.7715 CONCRETE -0.2219
-4.7715 CONDITION -0.2219
-4.7715 CONDITIONAL -0.2219
-4.7715 CONDITIONING -0.2219
-4.7715 CONDITIONS -0.2219
-4.7715 CONDO -0.2219
-4.7715 CONDOS -0.2219
-4.7715 CONDUCT -0.2219
-4.7715 CONDUCTED -0.2219
-4.7715 CONDUCTING -0.2219
-4.7715 CONFERENCE -0.2219
-4.7715 CONFERENCES -0.2219
-4.7715 CONFERENCING -0.2219
-4.7715 CONFIDENCE -0.2219
-4.7715 CONFIDENT -0.2219
-4.7715 CONFIDENTIAL -0.2219
-4.7715 CONFIDENTIALITY -0.2219
-4.7715 CONFIG -0.2219
-4.7715 CONFIGURATION -0.2219
-4.7715 CONFIGURATIONS -0.2219
-4.7715 CONFIGURE -0.2219
-4.7715 CONFIGURED -0.2219
-4.7715 CONFIGURING -0.2219
-4.7715 CONFIRM -0.2219
-4.7715 CONFIRMATION -0.2219
-4.7715 CONFIRMED -0.2219
-4.7715 CONFLICT -0.2219
-4.7715 CONFLICTS -0.2219
-4.7715 CONFUSED -0.2219
-4.7715 CONFUSION -0.2219
-4.7715 CONGO -0.2219
-4.7715 CONGRATULATIONS -0.2219
-4.7715 CONGRESS -0.2219
-4.7715 CONGRESSIONAL -0.2219
-4.7715 CONJUNCTION -0.2219
-4.7715 CONNECT -0.2219
-4.2943 CONNECTED -0.2219
-4.7715 CONNECTICUT -0.2219
-4.7715 CONNECTING -0.2219
-4.7715 CONNECTION -0.2219
-4.7715 CONNECTIONS -0.2219
-4.7715 CONNECTIVITY -0.2219
-4.7715 CONNECTOR -0.2219
-4.7715 CONNECTORS -0.2219
-4.7715 CONS -0.2219
-4.7715 CONSCIOUS -0.2219
-4.7715 CONSCIOUSNESS -0.2219
-4.7715 CONSECUTIVE -0.2219
-4.7715 CONSENSUS -0.2219
-4.7715 CONSENT -0.2219
-4.7715 CONSEQUENCE -0.2219
-4.7715 CONSEQUENCES -0.2219
-4.7715 CONSEQUENTLY -0.2219
-4.7715 CONSERVATION -0.2219
-4.7715 CONSERVATIVE -0.2219
-4.7715 CONSIDER -0.2219
-4.7715 CONSIDERABLE -0.2219
-4.7715 CONSIDERATION -0.2219
-4.7715 CONSIDERATIONS -0.2219
-4.7715 CONSIDERED -0.2219
-4.7715 CONSIDERING -0.2219
-4.7715 CONSIDERS -0.2219
-4.7715 CONSIST -0.2219
-4.7715 CONSISTENCY -0.2219
-4.7715 CONSISTENT -0.2219
-4.7715 CONSISTENTLY -0.2219
-4.7715 CONSISTING -0.2219
-4.7715 CONSISTS -0.2219
-4.7715 CONSOLE -0.2219
-4.7715 CONSOLES -0.2219
-4.7715 CONSOLIDATED -0.2219
-4.7715 CONSOLIDATION -0.2219
-4.7715 CONSORTIUM -0.2219
-4.7715 CONSPIRACY -0.2219
-4.7715 CONST -0.2219
-4.7715 CONSTANT -0.2219
-4.7715 CONSTANTLY -0.2219
-4.7715 CONSTITUTE -0.2219
-4.7715 CONSTITUTES -0.2219
-4.7715 CONSTITUTION -0.2219
-4.7715 CONSTITUTIONAL -0.2219
-4.7715 CONSTRAINT -0.2219
-4.7715 CONSTRAINTS -0.2219
-4.7715 CONSTRUCT -0.2219
-4.7715 CONSTRUCTED -0.2219
-4.7715 CONSTRUCTION -0.2219
-4.7715 CONSULT -0.2219
-4.7715 CONSULTANCY -0.2219
-4.7715 CONSULTANT -0.2219
-4.7715 CONSULTANTS -0.2219
-4.7715 CONSULTATION -0.2219
-4.7715 CONSULTING -0.2219
-4.7715 CONSUMER -0.2219
-4.7715 CONSUMERS -0.2219
-4.7715 CONSUMPTION -0.2219
-4.7715 CONTACT -0.2219
-4.7715 CONTACTED -0.2219
-4.7715 CONTACTING -0.2219
-4.7715 CONTACTS -0.2219
-4.7715 CONTAIN -0.2219
-4.7715 CONTAINED -0.2219
-4.7715 CONTAINER -0.2219
-4.7715 CONTAINERS -0.2219
-4.7715 CONTAINING -0.2219
-4.7715 CONTAINS -0.2219
-4.7715 CONTAMINATION -0.2219
-4.7715 CONTEMPORARY -0.2219
-4.7715 CONTENT -0.2219
-4.7715 CONTENTS -0.2219
-4.7715 CONTEST -0.2219
-4.7715 CONTESTS -0.2219
-4.7715 CONTEXT -0.2219
-4.7715 CONTINENT -0.2219
-4.7715 CONTINENTAL -0.2219
-4.7715 CONTINUALLY -0.2219
-4.7715 CONTINUE -0.2219
-4.7715 CONTINUED -0.2219
-4.7715 CONTINUES -0.2219
-4.7715 CONTINUING -0.2219
-4.7715 CONTINUITY -0.2219
-4.7715 CONTINUOUS -0.2219
-4.7715 CONTINUOUSLY -0.2219
-4.7715 CONTRACT -0.2219
-4.7715 CONTRACTING -0.2219
-4.7715 CONTRACTOR -0.2219
-4.7715 CONTRACTORS -0.2219
-4.7715 CONTRACTS -0.2219
-4.7715 CONTRARY -0.2219
-4.7715 CONTRAST -0.2219
-4.7715 CONTRIBUTE -0.2219
-4.7715 CONTRIBUTED -0.2219
-4.7715 CONTRIBUTING -0.2219
-4.7715 CONTRIBUTION -0.2219
-4.7715 CONTRIBUTIONS -0.2219
-4.7715 CONTRIBUTOR -0.2219
-4.7715 CONTRIBUTORS -0.2219
-4.7715 CONTROL -0.2219
-4.7715 CONTROLLED -0.2219
-4.7715 CONTROLLER -0.2219
-4.7715 CONTROLLERS -0.2219
-4.7715 CONTROLLING -0.2219
-4.7715 CONTROLS -0.2219
-4.7715 CONTROVERSIAL -0.2219
-4.7715 CONTROVERSY -0.2219
-4.7715 CONVENIENCE -0.2219
-4.7715 CONVENIENT -0.2219
-4.7715 CONVENTION -0.2219
-4.7715 CONVENTIONAL -0.2219
-4.7715 CONVENTIONS -0.2219
-4.7715 CONVERGENCE -0.2219
-4.7715 CONVERSATION -0.2219
-4.7715 CONVERSATIONS -0.2219
-4.7715 CONVERSION -0.2219
-4.7715 CONVERT -0.2219
-4.7715 CONVERTED -0.2219
-4.7715 CONVERTER -0.2219
-4.7715 CONVERTIBLE -0.2219
-4.7715 CONVICTED -0.2219
-4.7715 CONVICTION -0.2219
-4.7715 CONVINCED -0.2219
-4.7715 COOK -0.2219
-4.7715 COOKBOOK -0.2219
-4.7715 COOKED -0.2219
-4.7715 COOKIE -0.2219
-4.7715 COOKIES -0.2219
-4.7715 COOKING -0.2219
-4.7715 COOL -0.2219
-4.7715 COOLER -0.2219
-4.7715 COOLING -0.2219
-4.7715 COOPER -0.2219
-4.7715 COOPERATION -0.2219
-4.7715 COOPERATIVE -0.2219
-4.7715 COORDINATE -0.2219
-4.7715 COORDINATED -0.2219
-4.7715 COORDINATES -0.2219
-4.7715 COORDINATION -0.2219
-4.7715 COORDINATOR -0.2219
-4.7715 COP -0.2219
-4.7715 COPE -0.2219
-4.7715 COPIED -0.2219
-4.7715 COPIES -0.2219
-4.7715 COPPER -0.2219
-4.7715 COPY -0.2219
-4.7715 COPYING -0.2219
-4.7715 COPYRIGHT -0.2219
-4.7715 COPYRIGHTED -0.2219
-4.7715 COPYRIGHTS -0.2219
-4.7715 CORAL -0.2219
-4.7715 CORD -0.2219
-4.7715 CORDLESS -0.2219
-4.7715 CORE -0.2219
-4.7715 CORK -0.2219
-4.7715 CORN -0.2219
-4.7715 CORNELL -0.2219
-4.7715 CORNER -0.2219
-4.7715 CORNERS -0.2219
-4.7715 CORNWALL -0.2219
-4.7715 CORP -0.2219
-4.7715 CORPORATE -0.2219
-4.7715 CORPORATION -0.2219
-4.7715 CORPORATIONS -0.2219
-4.7715 CORPS -0.2219
-4.7715 CORPUS -0.2219
-4.7715 CORRECT -0.2219
-4.7715 CORRECTED -0.2219
-4.7715 CORRECTION -0.2219
-4.7715 CORRECTIONS -0.2219
-4.7715 CORRECTLY -0.2219
-4.7715 CORRELATION -0.2219
-4.7715 CORRESPONDENCE -0.2219
-4.7715 CORRESPONDING -0.2219
-4.7715 CORRUPTION -0.2219
-4.7715 COSMETIC -0.2219
-4.7715 COSMETICS -0.2219
-4.7715 COST -0.2219
-4.7715 COSTA -0.2219
-4.7715 COSTS -0.2219
-4.7715 COSTUME -0.2219
-4.7715 COSTUMES -0.2219
-4.7715 COTTAGE -0.2219
-4.7715 COTTAGES -0.2219
-4.7715 COTTON -0.2219
-4.7715 COULD -0.2219
-4.7715 COUNCIL -0.2219
-4.7715 COUNCILS -0.2219
-4.7715 COUNSEL -0.2219
-4.7715 COUNSELING -0.2219
-4.7715 COUNT -0.2219
-4.7715 COUNTED -0.2219
-4.7715 COUNTER -0.2219
-4.7715 COUNTERS -0.2219
-4.7715 COUNTIES -0.2219
-4.7715 COUNTING -0.2219
-4.7715 COUNTRIES -0.2219
-4.7715 COUNTRY -0.2219
-4.7715 COUNTS -0.2219
-4.7715 COUNTY -0.2219
-4.7715 COUPLE -0.2219
-4.7715 COUPLED -0.2219
-4.7715 COUPLES -0.2219
-4.7715 COUPON -0.2219
-4.7715 COUPONS -0.2219
-4.7715 COURAGE -0.2219
-4.7715 COURIER -0.2219
-4.7715 COURSE -0.2219
-4.7715 COURSES -0.2219
-4.7715 COURT -0.2219
-4.7715 COURTESY -0.2219
-4.7715 COURTS -0.2219
-4.7715 COVE -0.2219
-4.7715 COVER -0.2219
-4.7715 COVERAGE -0.2219
-4.7715 COVERED -0.2219
-4.7715 COVERING -0.2219
-4.7715 COVERS -0.2219
-4.7715 COW -0.2219
-4.7715 COWBOY -0.2219
-4.7715 COX -0.2219
-4.7715 CP -0.2219
-4.7715 CPU -0.2219
-4.7715 CR -0.2219
-4.7715 CRACK -0.2219
-4.7715 CRADLE -0.2219
-4.7715 CRAFT -0.2219
-4.7715 CRAFTS -0.2219
-4.7715 CRAIG -0.2219
-4.7715 CRAP -0.2219
-4.7715 CRAPS -0.2219
-4.7715 CRASH -0.2219
-4.7715 CRAWFORD -0.2219
-4.7715 CRAZY -0.2219
-4.7715 CREAM -0.2219
-4.7715 CREATE -0.2219
-4.7715 CREATED -0.2219
-4.7715 CREATES -0.2219
-4.7715 CREATING -0.2219
-4.7715 CREATION -0.2219
-4.7715 CREATIONS -0.2219
-4.7715 CREATIVE -0.2219
-4.7715 CREATIVITY -0.2219
-4.7715 CREATOR -0.2219
-4.7715 CREATURE -0.2219
-4.7715 CREATURES -0.2219
-4.7715 CREDIT -0.2219
-4.7715 CREDITS -0.2219
-4.7715 CREEK -0.2219
-4.7715 CREST -0.2219
-4.7715 CREW -0.2219
-4.7715 CRICKET -0.2219
-4.7715 CRIME -0.2219
-4.7715 CRIMES -0.2219
-4.7715 CRIMINAL -0.2219
-4.7715 CRISIS -0.2219
-4.7715 CRITERIA -0.2219
-4.7715 CRITERION -0.2219
-4.7715 CRITICAL -0.2219
-4.7715 CRITICISM -0.2219
-4.7715 CRITICS -0.2219
-4.7715 CRM -0.2219
-4.7715 CROATIA -0.2219
-4.7715 CROP -0.2219
-4.7715 CROPS -0.2219
-4.7715 CROSS -0.2219
-4.7715 CROSSING -0.2219
-4.7715 CROSSWORD -0.2219
-4.7715 CROWD -0.2219
-4.7715 CROWN -0.2219
-4.7715 CRUCIAL -0.2219
-4.7715 CRUDE -0.2219
-4.7715 CRUISE -0.2219
-4.7715 CRUISES -0.2219
-4.7715 CRUZ -0.2219
-4.7715 CRY -0.2219
-4.7715 CRYSTAL -0.2219
-4.7715 CS -0.2219
-4.7715 CSS -0.2219
-4.7715 CST -0.2219
-4.7715 CT -0.2219
-4.7715 CU -0.2219
-4.7715 CUBA -0.2219
-4.7715 CUBE -0.2219
-4.7715 CUBIC -0.2219
-4.7715 CUISINE -0.2219
-4.7715 CULT -0.2219
-4.7715 CULTURAL -0.2219
-4.7715 CULTURE -0.2219
-4.7715 CULTURES -0.2219
-4.7715 CUM -0.2219
-4.7715 CUMSHOT -0.2219
-4.7715 CUMSHOTS -0.2219
-4.7715 CUMULATIVE -0.2219
-4.7715 CUNT -0.2219
-4.7715 CUP -0.2219
-4.7715 CUPS -0.2219
-4.7715 CURE -0.2219
-4.7715 CURIOUS -0.2219
-4.7715 CURRENCIES -0.2219
-4.7715 CURRENCY -0.2219
-4.7715 CURRENT -0.2219
-4.7715 CURRENTLY -0.2219
-4.7715 CURRICULUM -0.2219
-4.7715 CURSOR -0.2219
-4.7715 CURTIS -0.2219
-4.7715 CURVE -0.2219
-4.7715 CURVES -0.2219
-4.7715 CUSTODY -0.2219
-4.7715 CUSTOM -0.2219
-4.7715 CUSTOMER -0.2219
-4.7715 CUSTOMERS -0.2219
-4.4704 CUSTOMIZE -0.2219
-4.7715 CUSTOMIZED -0.2219
-4.7715 CUSTOMS -0.2219
-4.7715 CUT -0.2219
-4.7715 CUTE -0.2219
-4.7715 CUTS -0.2219
-4.7715 CUTTING -0.2219
-4.7715 CV -0.2219
-4.7715 CVS -0.2219
-4.7715 CYBER -0.2219
-4.7715 CYCLE -0.2219
-4.7715 CYCLES -0.2219
-4.7715 CYCLING -0.2219
-4.7715 CYLINDER -0.2219
-4.7715 CYPRUS -0.2219
-4.7715 CZECH -0.2219
-4.7715 DA -0.2219
-4.7715 DAD -0.2219
-4.7715 DADDY -0.2219
-4.7715 DAILY -0.2219
-4.7715 DAIRY -0.2219
-4.7715 DAISY -0.2219
-4.7715 DAKOTA -0.2219
-4.7715 DALE -0.2219
-4.7715 DALLAS -0.2219
-4.7715 DAM -0.2219
-4.7715 DAMAGE -0.2219
-4.7715 DAMAGED -0.2219
-4.7715 DAMAGES -0.2219
-4.7715 DAME -0.2219
-4.7715 DAMN -0.2219
-4.7715 DAN -0.2219
-4.7715 DANA -0.2219
-4.7715 DANCE -0.2219
-4.7715 DANCING -0.2219
-4.7715 DANGER -0.2219
-4.7715 DANGEROUS -0.2219
-4.7715 DANIEL -0.2219
-4.7715 DANISH -0.2219
-4.7715 DANNY -0.2219
-4.7715 DANS -0.2219
-4.7715 DARE -0.2219
-4.7715 DARK -0.2219
-4.7715 DARKNESS -0.2219
-4.7715 DARWIN -0.2219
-4.7715 DAS -0.2219
-4.7715 DASH -0.2219
-4.7715 DATA -0.2219
-4.7715 DATABASE -0.2219
-4.7715 DATABASES -0.2219
-4.7715 DATE -0.2219
-4.7715 DATED -0.2219
-4.7715 DATES -0.2219
-4.7715 DATING -0.2219
-4.7715 DAUGHTER -0.2219
-4.7715 DAUGHTERS -0.2219
-4.7715 DAVE -0.2219
-4.7715 DAVID -0.2219
-4.7715 DAVIDSON -0.2219
-4.7715 DAVIS -0.2219
-4.7715 DAWN -0.2219
-4.7715 DAY -0.2219
-4.7715 DAYS -0.2219
-4.7715 DAYTON -0.2219
-4.7715 DB -0.2219
-4.7715 DC -0.2219
-4.7715 DD -0.2219
-4.7715 DDR -0.2219
-4.7715 DE -0.2219
-4.7715 DEAD -0.2219
-4.7715 DEADLINE -0.2219
-4.7715 DEADLY -0.2219
-4.7715 DEAF -0.2219
-4.7715 DEAL -0.2219
-4.7715 DEALER -0.2219
-4.7715 DEALERS -0.2219
-4.7715 DEALING -0.2219
-4.7715 DEALS -0.2219
-4.7715 DEALT -0.2219
-4.7715 DEALTIME -0.2219
-4.7715 DEAN -0.2219
-4.7715 DEAR -0.2219
-4.7715 DEATH -0.2219
-4.7715 DEATHS -0.2219
-4.7715 DEBATE -0.2219
-4.7715 DEBIAN -0.2219
-4.7715 DEBORAH -0.2219
-4.7715 DEBT -0.2219
-4.7715 DEBUG -0.2219
-4.7715 DEBUT -0.2219
-4.7715 DEC -0.2219
-4.7715 DECADE -0.2219
-4.7715 DECADES -0.2219
-4.7715 DECEMBER -0.2219
-4.7715 DECENT -0.2219
-4.7715 DECIDE -0.2219
-4.7715 DECIDED -0.2219
-4.7715 DECIMAL -0.2219
-4.7715 DECISION -0.2219
-4.7715 DECISIONS -0.2219
-4.7715 DECK -0.2219
-4.7715 DECLARATION -0.2219
-4.7715 DECLARE -0.2219
-4.7715 DECLARED -0.2219
-4.7715 DECLINE -0.2219
-4.7715 DECLINED -0.2219
-4.7715 DECOR -0.2219
-4.7715 DECORATING -0.2219
-4.7715 DECORATIVE -0.2219
-4.7715 DECREASE -0.2219
-4.7715 DECREASED -0.2219
-4.7715 DEDICATED -0.2219
-4.7715 DEE -0.2219
-4.7715 DEEMED -0.2219
-4.7715 DEEP -0.2219
-4.7715 DEEPER -0.2219
-4.7715 DEEPLY -0.2219
-4.7715 DEER -0.2219
-4.7715 DEF -0.2219
-4.7715 DEFAULT -0.2219
-4.7715 DEFEAT -0.2219
-4.7715 DEFECTS -0.2219
-4.7715 DEFENCE -0.2219
-4.7715 DEFEND -0.2219
-4.7715 DEFENDANT -0.2219
-4.7715 DEFENSE -0.2219
-4.7715 DEFENSIVE -0.2219
-4.7715 DEFERRED -0.2219
-4.7715 DEFICIT -0.2219
-4.7715 DEFINE -0.2219
-4.7715 DEFINED -0.2219
-4.7715 DEFINES -0.2219
-4.7715 DEFINING -0.2219
-4.7715 DEFINITELY -0.2219
-4.7715 DEFINITION -0.2219
-4.7715 DEFINITIONS -0.2219
-4.7715 DEGREE -0.2219
-4.7715 DEGREES -0.2219
-4.7715 DEL -0.2219
-4.7715 DELAWARE -0.2219
-4.7715 DELAY -0.2219
-4.7715 DELAYED -0.2219
-4.7715 DELAYS -0.2219
-4.7715 DELEGATION -0.2219
-4.7715 DELETE -0.2219
-4.7715 DELETED -0.2219
-4.7715 DELHI -0.2219
-4.7715 DELICIOUS -0.2219
-4.7715 DELIGHT -0.2219
-4.7715 DELIVER -0.2219
-4.7715 DELIVERED -0.2219
-4.7715 DELIVERING -0.2219
-4.7715 DELIVERS -0.2219
-4.7715 DELIVERY -0.2219
-4.7715 DELL -0.2219
-4.7715 DELTA -0.2219
-4.7715 DELUXE -0.2219
-4.7715 DEM -0.2219
-4.7715 DEMAND -0.2219
-4.7715 DEMANDING -0.2219
-4.7715 DEMANDS -0.2219
-4.7715 DEMO -0.2219
-4.7715 DEMOCRACY -0.2219
-4.7715 DEMOCRAT -0.2219
-4.7715 DEMOCRATIC -0.2219
-4.7715 DEMOCRATS -0.2219
-4.7715 DEMOGRAPHIC -0.2219
-4.7715 DEMONSTRATE -0.2219
-4.7715 DEMONSTRATED -0.2219
-4.7715 DEMONSTRATES -0.2219
-4.7715 DEMONSTRATION -0.2219
-4.7715 DEN -0.2219
-4.7715 DENIAL -0.2219
-4.7715 DENIED -0.2219
-4.7715 DENMARK -0.2219
-4.7715 DENNIS -0.2219
-4.7715 DENSE -0.2219
-4.7715 DENSITY -0.2219
-4.7715 DENTAL -0.2219
-4.7715 DENTISTS -0.2219
-4.7715 DENVER -0.2219
-4.7715 DENY -0.2219
-4.7715 DEPARTMENT -0.2219
-4.7715 DEPARTMENTAL -0.2219
-4.7715 DEPARTMENTS -0.2219
-4.7715 DEPARTURE -0.2219
-4.7715 DEPEND -0.2219
-4.7715 DEPENDENCE -0.2219
-4.7715 DEPENDENT -0.2219
-4.7715 DEPENDING -0.2219
-4.7715 DEPENDS -0.2219
-4.7715 DEPLOYMENT -0.2219
-4.7715 DEPOSIT -0.2219
-4.7715 DEPOSITS -0.2219
-4.7715 DEPOT -0.2219
-4.7715 DEPRESSION -0.2219
-4.7715 DEPT -0.2219
-4.7715 DEPTH -0.2219
-4.7715 DEPUTY -0.2219
-4.7715 DER -0.2219
-4.7715 DERBY -0.2219
-4.7715 DEREK -0.2219
-4.7715 DERIVED -0.2219
-4.7715 DES -0.2219
-4.7715 DESCENDING -0.2219
-4.7715 DESCRIBE -0.2219
-4.7715 DESCRIBED -0.2219
-4.7715 DESCRIBES -0.2219
-4.7715 DESCRIBING -0.2219
-4.7715 DESCRIPTION -0.2219
-4.7715 DESCRIPTIONS -0.2219
-4.7715 DESERT -0.2219
-4.7715 DESERVE -0.2219
-4.7715 DESIGN -0.2219
-4.7715 DESIGNATED -0.2219
-4.7715 DESIGNATION -0.2219
-4.7715 DESIGNED -0.2219
-4.7715 DESIGNER -0.2219
-4.7715 DESIGNERS -0.2219
-4.7715 DESIGNING -0.2219
-4.7715 DESIGNS -0.2219
-4.7715 DESIRABLE -0.2219
-4.7715 DESIRE -0.2219
-4.7715 DESIRED -0.2219
-4.7715 DESK -0.2219
-4.7715 DESKTOP -0.2219
-4.7715 DESKTOPS -0.2219
-4.7715 DESPERATE -0.2219
-4.7715 DESPITE -0.2219
-4.7715 DESTINATION -0.2219
-4.7715 DESTINATIONS -0.2219
-4.7715 DESTINY -0.2219
-4.7715 DESTROY -0.2219
-4.7715 DESTROYED -0.2219
-4.7715 DESTRUCTION -0.2219
-4.7715 DETAIL -0.2219
-4.7715 DETAILED -0.2219
-4.7715 DETAILS -0.2219
-4.7715 DETECT -0.2219
-4.7715 DETECTED -0.2219
-4.7715 DETECTION -0.2219
-4.7715 DETECTIVE -0.2219
-4.7715 DETECTOR -0.2219
-4.7715 DETERMINATION -0.2219
-4.7715 DETERMINE -0.2219
-4.7715 DETERMINED -0.2219
-4.7715 DETERMINES -0.2219
-4.7715 DETERMINING -0.2219
-4.7715 DETROIT -0.2219
-4.7715 DEUTSCH -0.2219
-4.7715 DEUTSCHE -0.2219
-4.7715 DEUTSCHLAND -0.2219
-4.7715 DEV -0.2219
-4.7715 DEVEL -0.2219
-4.7715 DEVELOP -0.2219
-4.7715 DEVELOPED -0.2219
-4.7715 DEVELOPER -0.2219
-4.7715 DEVELOPERS -0.2219
-4.7715 DEVELOPING -0.2219
-4.7715 DEVELOPMENT -0.2219
-4.7715 DEVELOPMENTAL -0.2219
-4.7715 DEVELOPMENTS -0.2219
-4.7715 DEVELOPS -0.2219
-4.7715 DEVIANT -0.2219
-4.7715 DEVIATION -0.2219
-4.7715 DEVICE -0.2219
-4.7715 DEVICES -0.2219
-4.7715 DEVIL -0.2219
-4.7715 DEVON -0.2219
-4.7715 DEVOTED -0.2219
-4.7715 DI -0.2219
-4.7715 DIABETES -0.2219
-4.7715 DIAGNOSIS -0.2219
-4.7715 DIAGNOSTIC -0.2219
-4.7715 DIAGRAM -0.2219
-4.7715 DIAL -0.2219
-4.7715 DIALOG -0.2219
-4.7715 DIALOGUE -0.2219
-4.7715 DIAMETER -0.2219
-4.7715 DIAMOND -0.2219
-4.7715 DIAMONDS -0.2219
-4.7715 DIANA -0.2219
-4.7715 DIANE -0.2219
-4.7715 DIARY -0.2219
-4.4704 DICE -0.2219
-4.7715 DICK -0.2219
-4.7715 DICKE -0.2219
-4.7715 DICKS -0.2219
-4.7715 DICTIONARIES -0.2219
-4.7715 DICTIONARY -0.2219
-4.7715 DID -0.2219
-4.7715 DIE -0.2219
-4.7715 DIED -0.2219
-4.7715 DIEGO -0.2219
-4.7715 DIES -0.2219
-4.7715 DIESEL -0.2219
-4.7715 DIET -0.2219
-4.7715 DIETARY -0.2219
-4.7715 DIFF -0.2219
-4.7715 DIFFER -0.2219
-4.7715 DIFFERENCE -0.2219
-4.7715 DIFFERENCES -0.2219
-4.7715 DIFFERENT -0.2219
-4.7715 DIFFERENTIAL -0.2219
-4.7715 DIFFERENTLY -0.2219
-4.7715 DIFFICULT -0.2219
-4.7715 DIFFICULTIES -0.2219
-4.7715 DIFFICULTY -0.2219
-4.7715 DIFFS -0.2219
-4.7715 DIG -0.2219
-4.7715 DIGEST -0.2219
-4.7715 DIGIT -0.2219
-4.7715 DIGITAL -0.2219
-4.7715 DILDO -0.2219
-4.7715 DILDOS -0.2219
-4.7715 DIM -0.2219
-4.7715 DIMENSION -0.2219
-4.7715 DIMENSIONAL -0.2219
-4.7715 DIMENSIONS -0.2219
-4.7715 DINING -0.2219
-4.7715 DINNER -0.2219
-4.7715 DIP -0.2219
-4.7715 DIPLOMA -0.2219
-4.7715 DIR -0.2219
-4.7715 DIRECT -0.2219
-4.7715 DIRECTED -0.2219
-4.7715 DIRECTION -0.2219
-4.7715 DIRECTIONS -0.2219
-4.7715 DIRECTIVE -0.2219
-4.7715 DIRECTLY -0.2219
-4.7715 DIRECTOR -0.2219
-4.7715 DIRECTORIES -0.2219
-4.7715 DIRECTORS -0.2219
-4.7715 DIRECTORY -0.2219
-4.7715 DIRT -0.2219
-4.7715 DIRTY -0.2219
-4.7715 DIS -0.2219
-4.7715 DISABILITIES -0.2219
-4.7715 DISABILITY -0.2219
-4.7715 DISABLE -0.2219
-4.7715 DISABLED -0.2219
-4.7715 DISAGREE -0.2219
-4.7715 DISAPPOINTED -0.2219
-4.7715 DISASTER -0.2219
-4.7715 DISC -0.2219
-4.7715 DISCHARGE -0.2219
-4.7715 DISCIPLINARY -0.2219
-4.7715 DISCIPLINE -0.2219
-4.7715 DISCIPLINES -0.2219
-4.7715 DISCLAIMER -0.2219
-4.7715 DISCLAIMERS -0.2219
-4.7715 DISCLOSE -0.2219
-4.7715 DISCLOSURE -0.2219
-4.7715 DISCO -0.2219
-4.7715 DISCOUNT -0.2219
-4.7715 DISCOUNTED -0.2219
-4.7715 DISCOUNTS -0.2219
-4.7715 DISCOVER -0.2219
-4.7715 DISCOVERED -0.2219
-4.7715 DISCOVERY -0.2219
-4.7715 DISCRETE -0.2219
-4.7715 DISCRETION -0.2219
-4.7715 DISCRIMINATION -0.2219
-4.7715 DISCS -0.2219
-4.7715 DISCUSS -0.2219
-4.7715 DISCUSSED -0.2219
-4.7715 DISCUSSES -0.2219
-4.7715 DISCUSSING -0.2219
-4.7715 DISCUSSION -0.2219
-4.7715 DISCUSSIONS -0.2219
-4.7715 DISEASE -0.2219
-4.7715 DISEASES -0.2219
-4.7715 DISH -0.2219
-4.7715 DISHES -0.2219
-4.7715 DISK -0.2219
-4.7715 DISKS -0.2219
-4.7715 DISNEY -0.2219
-4.7715 DISORDER -0.2219
-4.7715 DISORDERS -0.2219
-4.7715 DISPATCH -0.2219
-4.7715 DISPATCHED -0.2219
-4.7715 DISPLAY -0.2219
-4.7715 DISPLAYED -0.2219
-4.7715 DISPLAYING -0.2219
-4.7715 DISPLAYS -0.2219
-4.7715 DISPOSAL -0.2219
-4.7715 DISPOSITION -0.2219
-4.7715 DISPUTE -0.2219
-4.7715 DISPUTES -0.2219
-4.7715 DIST -0.2219
-4.7715 DISTANCE -0.2219
-4.7715 DISTANCES -0.2219
-4.7715 DISTANT -0.2219
-4.7715 DISTINCT -0.2219
-4.7715 DISTINCTION -0.2219
-4.7715 DISTINGUISHED -0.2219
-4.7715 DISTRIBUTE -0.2219
-4.7715 DISTRIBUTED -0.2219
-4.7715 DISTRIBUTION -0.2219
-4.7715 DISTRIBUTIONS -0.2219
-4.7715 DISTRIBUTOR -0.2219
-4.7715 DISTRIBUTORS -0.2219
-4.7715 DISTRICT -0.2219
-4.7715 DISTRICTS -0.2219
-4.7715 DISTURBED -0.2219
-4.7715 DIV -0.2219
-4.7715 DIVE -0.2219
-4.7715 DIVERSE -0.2219
-4.7715 DIVERSITY -0.2219
-4.7715 DIVIDE -0.2219
-4.7715 DIVIDED -0.2219
-4.7715 DIVIDEND -0.2219
-4.7715 DIVINE -0.2219
-4.7715 DIVING -0.2219
-4.7715 DIVISION -0.2219
-4.7715 DIVISIONS -0.2219
-4.7715 DIVORCE -0.2219
-4.7715 DIVX -0.2219
-4.7715 DIY -0.2219
-4.7715 DJ -0.2219
-4.7715 DL -0.2219
-4.7715 DM -0.2219
-4.7715 DNA -0.2219
-4.7715 DNS -0.2219
-4.7715 DO -0.2219
-4.7715 DOC -0.2219
-4.7715 DOCK -0.2219
-4.7715 DOCS -0.2219
-4.7715 DOCTOR -0.2219
-4.7715 DOCTORS -0.2219
-4.7715 DOCTRINE -0.2219
-4.7715 DOCUMENT -0.2219
-4.7715 DOCUMENTARY -0.2219
-4.7715 DOCUMENTATION -0.2219
-4.7715 DOCUMENTED -0.2219
-4.7715 DOCUMENTS -0.2219
-4.7715 DOD -0.2219
-4.7715 DODGE -0.2219
-4.7715 DOE -0.2219
-4.7715 DOES -0.2219
-4.7715 DOG -0.2219
-4.7715 DOGS -0.2219
-4.7715 DOING -0.2219
-4.7715 DOLL -0.2219
-4.7715 DOLLAR -0.2219
-4.7715 DOLLARS -0.2219
-4.7715 DOLLS -0.2219
-4.7715 DOM -0.2219
-4.7715 DOMAIN -0.2219
-4.7715 DOMAINS -0.2219
-4.7715 DOME -0.2219
-4.7715 DOMESTIC -0.2219
-4.7715 DOMINANT -0.2219
-4.7715 DOMINICAN -0.2219
-4.7715 DON -0.2219
-4.7715 DONALD -0.2219
-4.7715 DONATE -0.2219
-4.7715 DONATED -0.2219
-4.7715 DONATION -0.2219
-4.7715 DONATIONS -0.2219
-4.7715 DONE -0.2219
-4.7715 DONNA -0.2219
-4.7715 DONOR -0.2219
-4.7715 DONORS -0.2219
-4.7715 DONT -0.2219
-4.7715 DOOM -0.2219
-4.7715 DOOR -0.2219
-4.7715 DOORS -0.2219
-4.7715 DOS -0.2219
-4.7715 DOSAGE -0.2219
-4.7715 DOSE -0.2219
-4.7715 DOT -0.2219
-4.7715 DOUBLE -0.2219
-4.7715 DOUBT -0.2219
-4.7715 DOUG -0.2219
-4.7715 DOUGLAS -0.2219
-4.7715 DOVER -0.2219
-4.4704 DOWN -0.2219
-4.7715 DOWNLOAD -0.2219
-4.7715 DOWNLOADABLE -0.2219
-4.7715 DOWNLOADED -0.2219
-4.7715 DOWNLOADING -0.2219
-4.7715 DOWNLOADS -0.2219
-4.7715 DOWNTOWN -0.2219
-4.7715 DOZEN -0.2219
-4.7715 DOZENS -0.2219
-4.7715 DP -0.2219
-4.7715 DPI -0.2219
-4.7715 DR -0.2219
-4.7715 DRAFT -0.2219
-4.7715 DRAG -0.2219
-4.7715 DRAGON -0.2219
-4.7715 DRAIN -0.2219
-4.7715 DRAINAGE -0.2219
-4.7715 DRAMA -0.2219
-4.7715 DRAMATIC -0.2219
-4.7715 DRAMATICALLY -0.2219
-4.7715 DRAW -0.2219
-4.7715 DRAWING -0.2219
-4.7715 DRAWINGS -0.2219
-4.7715 DRAWN -0.2219
-4.7715 DRAWS -0.2219
-4.7715 DREAM -0.2219
-4.7715 DREAMS -0.2219
-4.7715 DRESS -0.2219
-4.7715 DRESSED -0.2219
-4.7715 DRESSES -0.2219
-4.7715 DRESSING -0.2219
-4.7715 DREW -0.2219
-4.7715 DRIED -0.2219
-4.7715 DRILL -0.2219
-4.7715 DRILLING -0.2219
-4.7715 DRINK -0.2219
-4.7715 DRINKING -0.2219
-4.7715 DRINKS -0.2219
-4.7715 DRIVE -0.2219
-4.7715 DRIVEN -0.2219
-4.7715 DRIVER -0.2219
-4.7715 DRIVERS -0.2219
-4.7715 DRIVES -0.2219
-4.7715 DRIVING -0.2219
-4.7715 DROP -0.2219
-4.7715 DROPPED -0.2219
-4.7715 DROPS -0.2219
-4.7715 DROVE -0.2219
-4.7715 DRUG -0.2219
-4.7715 DRUGS -0.2219
-4.7715 DRUM -0.2219
-4.7715 DRUMS -0.2219
-4.7715 DRUNK -0.2219
-4.7715 DRY -0.2219
-4.7715 DRYER -0.2219
-4.7715 DS -0.2219
-4.7715 DSL -0.2219
-4.7715 DT -0.2219
-4.7715 DU -0.2219
-4.7715 DUAL -0.2219
-4.7715 DUBAI -0.2219
-4.7715 DUBLIN -0.2219
-4.7715 DUCK -0.2219
-4.7715 DUDE -0.2219
-4.7715 DUE -0.2219
-4.7715 DUKE -0.2219
-4.7715 DUMB -0.2219
-4.7715 DUMP -0.2219
-4.7715 DUNCAN -0.2219
-4.7715 DUO -0.2219
-4.7715 DUPLICATE -0.2219
-4.7715 DURABLE -0.2219
-4.7715 DURATION -0.2219
-4.7715 DURHAM -0.2219
-4.7715 DURING -0.2219
-4.7715 DUST -0.2219
-4.7715 DUTCH -0.2219
-4.7715 DUTIES -0.2219
-4.7715 DUTY -0.2219
-4.7715 DV -0.2219
-4.7715 DVD -0.2219
-4.7715 DVDS -0.2219
-4.7715 DX -0.2219
-4.7715 DYING -0.2219
-4.7715 DYLAN -0.2219
-4.7715 DYNAMIC -0.2219
-4.7715 DYNAMICS -0.2219
-4.7715 EA -0.2219
-4.7715 EACH -0.2219
-4.7715 EAGLE -0.2219
-4.7715 EAGLES -0.2219
-4.7715 EAR -0.2219
-4.7715 EARL -0.2219
-4.7715 EARLIER -0.2219
-4.7715 EARLIEST -0.2219
-4.7715 EARLY -0.2219
-4.7715 EARN -0.2219
-4.7715 EARNED -0.2219
-4.7715 EARNING -0.2219
-4.7715 EARNINGS -0.2219
-4.7715 EARRINGS -0.2219
-4.7715 EARS -0.2219
-4.7715 EARTH -0.2219
-4.7715 EARTHQUAKE -0.2219
-4.7715 EASE -0.2219
-4.7715 EASIER -0.2219
-4.7715 EASILY -0.2219
-4.7715 EAST -0.2219
-4.7715 EASTER -0.2219
-4.7715 EASTERN -0.2219
-4.7715 EASY -0.2219
-4.7715 EAT -0.2219
-4.7715 EATING -0.2219
-4.7715 EBAY -0.2219
-4.7715 EBONY -0.2219
-4.7715 EBOOK -0.2219
-4.7715 EBOOKS -0.2219
-4.7715 EC -0.2219
-4.7715 ECHO -0.2219
-4.7715 ECLIPSE -0.2219
-4.7715 ECO -0.2219
-4.7715 ECOLOGICAL -0.2219
-4.7715 ECOLOGY -0.2219
-4.7715 ECOMMERCE -0.2219
-4.7715 ECONOMIC -0.2219
-4.7715 ECONOMICS -0.2219
-4.7715 ECONOMIES -0.2219
-4.7715 ECONOMY -0.2219
-4.7715 ECUADOR -0.2219
-4.7715 ED -0.2219
-4.7715 EDDIE -0.2219
-4.7715 EDEN -0.2219
-4.7715 EDGAR -0.2219
-4.7715 EDGE -0.2219
-4.7715 EDGES -0.2219
-4.7715 EDINBURGH -0.2219
-4.7715 EDIT -0.2219
-4.7715 EDITED -0.2219
-4.7715 EDITING -0.2219
-4.7715 EDITION -0.2219
-4.7715 EDITIONS -0.2219
-4.7715 EDITOR -0.2219
-4.7715 EDITORIAL -0.2219
-4.7715 EDITORIALS -0.2219
-4.7715 EDITORS -0.2219
-4.7715 EDMONTON -0.2219
-4.7715 EDS -0.2219
-4.7715 EDT -0.2219
-4.7715 EDUCATED -0.2219
-4.7715 EDUCATION -0.2219
-4.7715 EDUCATIONAL -0.2219
-4.7715 EDUCATORS -0.2219
-4.7715 EDWARD -0.2219
-4.7715 EDWARDS -0.2219
-4.7715 EE -0.2219
-4.7715 EF -0.2219
-4.7715 EFFECT -0.2219
-4.7715 EFFECTIVE -0.2219
-4.7715 EFFECTIVELY -0.2219
-4.7715 EFFECTIVENESS -0.2219
-4.7715 EFFECTS -0.2219
-4.7715 EFFICIENCY -0.2219
-4.7715 EFFICIENT -0.2219
-4.7715 EFFICIENTLY -0.2219
-4.7715 EFFORT -0.2219
-4.7715 EFFORTS -0.2219
-4.7715 EG -0.2219
-4.7715 EGG -0.2219
-4.7715 EGGS -0.2219
-4.7715 EGYPT -0.2219
-4.7715 EGYPTIAN -0.2219
-4.7715 EH -0.2219
-4.7715 EIGHT -0.2219
-4.7715 EITHER -0.2219
-4.7715 EJACULATION -0.2219
-4.7715 EL -0.2219
-4.7715 ELDER -0.2219
-4.7715 ELDERLY -0.2219
-4.7715 ELECT -0.2219
-4.7715 ELECTED -0.2219
-4.7715 ELECTION -0.2219
-4.7715 ELECTIONS -0.2219
-4.7715 ELECTORAL -0.2219
-4.7715 ELECTRIC -0.2219
-4.7715 ELECTRICAL -0.2219
-4.7715 ELECTRICITY -0.2219
-4.7715 ELECTRO -0.2219
-4.7715 ELECTRON -0.2219
-4.7715 ELECTRONIC -0.2219
-4.7715 ELECTRONICS -0.2219
-4.7715 ELEGANT -0.2219
-4.7715 ELEMENT -0.2219
-4.7715 ELEMENTARY -0.2219
-4.7715 ELEMENTS -0.2219
-4.7715 ELEPHANT -0.2219
-4.7715 ELEVATION -0.2219
-4.7715 ELEVEN -0.2219
-4.7715 ELIGIBILITY -0.2219
-4.7715 ELIGIBLE -0.2219
-4.7715 ELIMINATE -0.2219
-4.7715 ELIMINATION -0.2219
-4.7715 ELITE -0.2219
-4.7715 ELIZABETH -0.2219
-4.7715 ELLEN -0.2219
-4.7715 ELLIOTT -0.2219
-4.7715 ELLIS -0.2219
-4.7715 ELSE -0.2219
-4.7715 ELSEWHERE -0.2219
-4.7715 ELVIS -0.2219
-4.7715 EM -0.2219
-4.7715 EMACS -0.2219
-4.4704 EMAIL -0.2219
-4.7715 EMAILS -0.2219
-4.7715 EMBASSY -0.2219
-4.7715 EMBEDDED -0.2219
-4.7715 EMERALD -0.2219
-4.7715 EMERGENCY -0.2219
-4.7715 EMERGING -0.2219
-4.7715 EMILY -0.2219
-4.7715 EMINEM -0.2219
-4.7715 EMIRATES -0.2219
-4.7715 EMISSION -0.2219
-4.7715 EMISSIONS -0.2219
-4.7715 EMMA -0.2219
-4.7715 EMOTIONAL -0.2219
-4.7715 EMOTIONS -0.2219
-4.7715 EMPEROR -0.2219
-4.7715 EMPHASIS -0.2219
-4.7715 EMPIRE -0.2219
-4.7715 EMPIRICAL -0.2219
-4.7715 EMPLOY -0.2219
-4.7715 EMPLOYED -0.2219
-4.7715 EMPLOYEE -0.2219
-4.7715 EMPLOYEES -0.2219
-4.7715 EMPLOYER -0.2219
-4.7715 EMPLOYERS -0.2219
-4.7715 EMPLOYMENT -0.2219
-4.7715 EMPTY -0.2219
-4.7715 EN -0.2219
-4.7715 ENABLE -0.2219
-4.7715 ENABLED -0.2219
-4.7715 ENABLES -0.2219
-4.7715 ENABLING -0.2219
-4.7715 ENCLOSED -0.2219
-4.7715 ENCLOSURE -0.2219
-4.7715 ENCODING -0.2219
-4.7715 ENCOUNTER -0.2219
-4.7715 ENCOUNTERED -0.2219
-4.7715 ENCOURAGE -0.2219
-4.7715 ENCOURAGED -0.2219
-4.7715 ENCOURAGES -0.2219
-4.7715 ENCOURAGING -0.2219
-4.7715 ENCRYPTION -0.2219
-4.7715 ENCYCLOPEDIA -0.2219
-4.7715 END -0.2219
-4.7715 ENDANGERED -0.2219
-4.7715 ENDED -0.2219
-4.7715 ENDIF -0.2219
-4.7715 ENDING -0.2219
-4.7715 ENDLESS -0.2219
-4.7715 ENDORSED -0.2219
-4.7715 ENDORSEMENT -0.2219
-4.7715 ENDS -0.2219
-4.7715 ENEMIES -0.2219
-4.7715 ENEMY -0.2219
-4.7715 ENERGY -0.2219
-4.7715 ENFORCEMENT -0.2219
-4.7715 ENG -0.2219
-4.7715 ENGAGE -0.2219
-4.7715 ENGAGED -0.2219
-4.7715 ENGAGEMENT -0.2219
-4.7715 ENGAGING -0.2219
-4.7715 ENGINE -0.2219
-4.7715 ENGINEER -0.2219
-4.7715 ENGINEERING -0.2219
-4.7715 ENGINEERS -0.2219
-4.7715 ENGINES -0.2219
-4.7715 ENGLAND -0.2219
-4.7715 ENGLISH -0.2219
-4.7715 ENHANCE -0.2219
-4.7715 ENHANCED -0.2219
-4.7715 ENHANCEMENT -0.2219
-4.7715 ENHANCEMENTS -0.2219
-4.7715 ENHANCING -0.2219
-4.7715 ENJOY -0.2219
-4.7715 ENJOYED -0.2219
-4.7715 ENJOYING -0.2219
-4.7715 ENLARGE -0.2219
-4.7715 ENLARGEMENT -0.2219
-4.7715 ENORMOUS -0.2219
-4.7715 ENOUGH -0.2219
-4.7715 ENQUIRIES -0.2219
-4.7715 ENQUIRY -0.2219
-4.7715 ENROLLED -0.2219
-4.7715 ENROLLMENT -0.2219
-4.7715 ENSEMBLE -0.2219
-4.7715 ENSURE -0.2219
-4.7715 ENSURES -0.2219
-4.7715 ENSURING -0.2219
-4.7715 ENT -0.2219
-4.7715 ENTER -0.2219
-4.7715 ENTERED -0.2219
-4.7715 ENTERING -0.2219
-4.7715 ENTERPRISE -0.2219
-4.7715 ENTERPRISES -0.2219
-4.7715 ENTERS -0.2219
-4.7715 ENTERTAINING -0.2219
-4.7715 ENTERTAINMENT -0.2219
-4.7715 ENTIRE -0.2219
-4.7715 ENTIRELY -0.2219
-4.7715 ENTITIES -0.2219
-4.7715 ENTITLED -0.2219
-4.7715 ENTITY -0.2219
-4.7715 ENTRANCE -0.2219
-4.7715 ENTREPRENEUR -0.2219
-4.7715 ENTREPRENEURS -0.2219
-4.7715 ENTRIES -0.2219
-4.7715 ENTRY -0.2219
-4.7715 ENVELOPE -0.2219
-4.7715 ENVIRONMENT -0.2219
-4.7715 ENVIRONMENTAL -0.2219
-4.7715 ENVIRONMENTS -0.2219
-4.7715 ENZYME -0.2219
-4.7715 EP -0.2219
-4.7715 EPA -0.2219
-4.7715 EPIC -0.2219
-4.7715 EPINIONS -0.2219
-4.7715 EPISODE -0.2219
-4.7715 EPISODES -0.2219
-4.7715 EPSON -0.2219
-4.7715 EQ -0.2219
-4.7715 EQUAL -0.2219
-4.7715 EQUALITY -0.2219
-4.7715 EQUALLY -0.2219
-4.7715 EQUATION -0.2219
-4.7715 EQUATIONS -0.2219
-4.7715 EQUILIBRIUM -0.2219
-4.7715 EQUIPMENT -0.2219
-4.7715 EQUIPPED -0.2219
-4.7715 EQUITY -0.2219
-4.7715 EQUIVALENT -0.2219
-4.7715 ER -0.2219
-4.7715 ERA -0.2219
-4.7715 ERIC -0.2219
-4.7715 ERICSSON -0.2219
-4.7715 ERIK -0.2219
-4.7715 EROTIC -0.2219
-4.7715 EROTICA -0.2219
-4.7715 ERROR -0.2219
-4.7715 ERRORS -0.2219
-4.7715 ES -0.2219
-4.7715 ESCAPE -0.2219
-4.7715 ESCORT -0.2219
-4.7715 ESCORTS -0.2219
-4.7715 ESPECIALLY -0.2219
-4.7715 ESPN -0.2219
-4.7715 ESSAY -0.2219
-4.7715 ESSAYS -0.2219
-4.7715 ESSENCE -0.2219
-4.7715 ESSENTIAL -0.2219
-4.7715 ESSENTIALLY -0.2219
-4.7715 ESSENTIALS -0.2219
-4.7715 ESSEX -0.2219
-4.7715 EST -0.2219
-4.7715 ESTABLISH -0.2219
-4.7715 ESTABLISHED -0.2219
-4.7715 ESTABLISHING -0.2219
-4.7715 ESTABLISHMENT -0.2219
-4.7715 ESTATE -0.2219
-4.7715 ESTATES -0.2219
-4.7715 ESTIMATE -0.2219
-4.7715 ESTIMATED -0.2219
-4.7715 ESTIMATES -0.2219
-4.7715 ESTIMATION -0.2219
-4.7715 ESTONIA -0.2219
-4.7715 ET -0.2219
-4.7715 ETC -0.2219
-4.7715 ETERNAL -0.2219
-4.7715 ETHERNET -0.2219
-4.7715 ETHICAL -0.2219
-4.7715 ETHICS -0.2219
-4.7715 ETHIOPIA -0.2219
-4.7715 ETHNIC -0.2219
-4.7715 EU -0.2219
-4.7715 EUGENE -0.2219
-4.7715 EUR -0.2219
-4.7715 EURO -0.2219
-4.7715 EUROPE -0.2219
-4.7715 EUROPEAN -0.2219
-4.7715 EUROS -0.2219
-4.7715 EVA -0.2219
-4.7715 EVAL -0.2219
-4.7715 EVALUATE -0.2219
-4.7715 EVALUATED -0.2219
-4.7715 EVALUATING -0.2219
-4.7715 EVALUATION -0.2219
-4.7715 EVALUATIONS -0.2219
-4.7715 EVANESCENCE -0.2219
-4.7715 EVANS -0.2219
-4.7715 EVE -0.2219
-4.7715 EVEN -0.2219
-4.7715 EVENING -0.2219
-4.7715 EVENT -0.2219
-4.7715 EVENTS -0.2219
-4.7715 EVENTUALLY -0.2219
-4.7715 EVER -0.2219
-4.7715 EVERY -0.2219
-4.7715 EVERYBODY -0.2219
-4.7715 EVERYDAY -0.2219
-4.7715 EVERYONE -0.2219
-4.7715 EVERYTHING -0.2219
-4.7715 EVERYWHERE -0.2219
-4.7715 EVIDENCE -0.2219
-4.7715 EVIDENT -0.2219
-4.7715 EVIL -0.2219
-4.7715 EVOLUTION -0.2219
-4.7715 EX -0.2219
-4.7715 EXACT -0.2219
-4.7715 EXACTLY -0.2219
-4.7715 EXAM -0.2219
-4.7715 EXAMINATION -0.2219
-4.7715 EXAMINATIONS -0.2219
-4.7715 EXAMINE -0.2219
-4.7715 EXAMINED -0.2219
-4.7715 EXAMINES -0.2219
-4.7715 EXAMINING -0.2219
-4.7715 EXAMPLE -0.2219
-4.7715 EXAMPLES -0.2219
-4.7715 EXAMS -0.2219
-4.7715 EXCEED -0.2219
-4.7715 EXCEL -0.2219
-4.7715 EXCELLENCE -0.2219
-4.7715 EXCELLENT -0.2219
-4.7715 EXCEPT -0.2219
-4.7715 EXCEPTION -0.2219
-4.7715 EXCEPTIONAL -0.2219
-4.7715 EXCEPTIONS -0.2219
-4.7715 EXCERPT -0.2219
-4.7715 EXCESS -0.2219
-4.7715 EXCESSIVE -0.2219
-4.7715 EXCHANGE -0.2219
-4.7715 EXCHANGES -0.2219
-4.7715 EXCITED -0.2219
-4.7715 EXCITEMENT -0.2219
-4.7715 EXCITING -0.2219
-4.7715 EXCLUDE -0.2219
-4.7715 EXCLUDED -0.2219
-4.7715 EXCLUDING -0.2219
-4.7715 EXCLUSION -0.2219
-4.7715 EXCLUSIVE -0.2219
-4.7715 EXCLUSIVELY -0.2219
-4.7715 EXCUSE -0.2219
-4.7715 EXEC -0.2219
-4.7715 EXECUTE -0.2219
-4.7715 EXECUTED -0.2219
-4.7715 EXECUTION -0.2219
-4.7715 EXECUTIVE -0.2219
-4.7715 EXECUTIVES -0.2219
-4.7715 EXEMPT -0.2219
-4.7715 EXEMPTION -0.2219
-4.7715 EXERCISE -0.2219
-4.7715 EXERCISES -0.2219
-4.7715 EXHAUST -0.2219
-4.7715 EXHIBIT -0.2219
-4.7715 EXHIBITION -0.2219
-4.7715 EXHIBITIONS -0.2219
-4.7715 EXHIBITS -0.2219
-4.7715 EXIST -0.2219
-4.7715 EXISTED -0.2219
-4.7715 EXISTENCE -0.2219
-4.7715 EXISTING -0.2219
-4.7715 EXISTS -0.2219
-4.7715 EXIT -0.2219
-4.7715 EXOTIC -0.2219
-4.7715 EXP -0.2219
-4.7715 EXPAND -0.2219
-4.7715 EXPANDED -0.2219
-4.7715 EXPANDING -0.2219
-4.7715 EXPANSION -0.2219
-4.7715 EXPANSYS -0.2219
-4.7715 EXPECT -0.2219
-4.7715 EXPECTATIONS -0.2219
-4.7715 EXPECTED -0.2219
-4.7715 EXPECTS -0.2219
-4.7715 EXPEDIA -0.2219
-4.7715 EXPENDITURE -0.2219
-4.7715 EXPENDITURES -0.2219
-4.7715 EXPENSE -0.2219
-4.7715 EXPENSES -0.2219
-4.7715 EXPENSIVE -0.2219
-4.7715 EXPERIENCE -0.2219
-4.7715 EXPERIENCED -0.2219
-4.7715 EXPERIENCES -0.2219
-4.7715 EXPERIENCING -0.2219
-4.7715 EXPERIMENT -0.2219
-4.7715 EXPERIMENTAL -0.2219
-4.7715 EXPERIMENTS -0.2219
-4.7715 EXPERT -0.2219
-4.7715 EXPERTISE -0.2219
-4.7715 EXPERTS -0.2219
-4.7715 EXPIRATION -0.2219
-4.7715 EXPIRED -0.2219
-4.7715 EXPIRES -0.2219
-4.7715 EXPLAIN -0.2219
-4.7715 EXPLAINED -0.2219
-4.7715 EXPLAINING -0.2219
-4.7715 EXPLAINS -0.2219
-4.7715 EXPLANATION -0.2219
-4.7715 EXPLICIT -0.2219
-4.7715 EXPLICITLY -0.2219
-4.7715 EXPLORATION -0.2219
-4.7715 EXPLORE -0.2219
-4.7715 EXPLORER -0.2219
-4.7715 EXPLORING -0.2219
-4.7715 EXPLOSION -0.2219
-4.7715 EXPO -0.2219
-4.7715 EXPORT -0.2219
-4.7715 EXPORTS -0.2219
-4.7715 EXPOSED -0.2219
-4.7715 EXPOSURE -0.2219
-4.7715 EXPRESS -0.2219
-4.7715 EXPRESSED -0.2219
-4.7715 EXPRESSION -0.2219
-4.7715 EXPRESSIONS -0.2219
-4.7715 EXT -0.2219
-4.7715 EXTEND -0.2219
-4.7715 EXTENDED -0.2219
-4.7715 EXTENDING -0.2219
-4.7715 EXTENDS -0.2219
-4.7715 EXTENSION -0.2219
-4.7715 EXTENSIONS -0.2219
-4.7715 EXTENSIVE -0.2219
-4.7715 EXTENT -0.2219
-4.7715 EXTERIOR -0.2219
-4.7715 EXTERNAL -0.2219
-4.7715 EXTRA -0.2219
-4.7715 EXTRACT -0.2219
-4.7715 EXTRACTION -0.2219
-4.7715 EXTRAORDINARY -0.2219
-4.7715 EXTRAS -0.2219
-4.7715 EXTREME -0.2219
-4.7715 EXTREMELY -0.2219
-4.7715 EYE -0.2219
-4.7715 EYED -0.2219
-4.7715 EYES -0.2219
-4.7715 EZ -0.2219
-4.7715 F -0.2219
-4.7715 FA -0.2219
-4.7715 FABRIC -0.2219
-4.7715 FABRICS -0.2219
-4.7715 FABULOUS -0.2219
-4.7715 FACE -0.2219
-4.7715 FACED -0.2219
-4.7715 FACES -0.2219
-4.7715 FACIAL -0.2219
-4.7715 FACILITATE -0.2219
-4.7715 FACILITIES -0.2219
-4.7715 FACILITY -0.2219
-4.7715 FACING -0.2219
-4.7715 FACT -0.2219
-4.7715 FACTOR -0.2219
-4.7715 FACTORS -0.2219
-4.7715 FACTORY -0.2219
-4.7715 FACTS -0.2219
-4.7715 FACULTY -0.2219
-4.7715 FAIL -0.2219
-4.7715 FAILED -0.2219
-4.7715 FAILING -0.2219
-4.7715 FAILS -0.2219
-4.7715 FAILURE -0.2219
-4.7715 FAILURES -0.2219
-4.7715 FAIR -0.2219
-4.7715 FAIRFIELD -0.2219
-4.7715 FAIRLY -0.2219
-4.7715 FAIRY -0.2219
-4.7715 FAITH -0.2219
-4.7715 FAKE -0.2219
-4.7715 FALL -0.2219
-4.7715 FALLEN -0.2219
-4.7715 FALLING -0.2219
-4.7715 FALLS -0.2219
-4.7715 FALSE -0.2219
-4.7715 FAME -0.2219
-4.7715 FAMILIAR -0.2219
-4.7715 FAMILIES -0.2219
-4.7715 FAMILY -0.2219
-4.7715 FAMOUS -0.2219
-4.7715 FAN -0.2219
-4.7715 FANCY -0.2219
-4.7715 FANS -0.2219
-4.7715 FANTASTIC -0.2219
-4.7715 FANTASY -0.2219
-4.7715 FAQ -0.2219
-4.7715 FAQS -0.2219
-4.7715 FAR -0.2219
-4.7715 FARE -0.2219
-4.7715 FARES -0.2219
-4.7715 FARM -0.2219
-4.7715 FARMER -0.2219
-4.7715 FARMERS -0.2219
-4.7715 FARMING -0.2219
-4.7715 FARMS -0.2219
-4.7715 FASCINATING -0.2219
-4.7715 FASHION -0.2219
-4.7715 FAST -0.2219
-4.7715 FASTER -0.2219
-4.7715 FASTEST -0.2219
-4.7715 FAT -0.2219
-4.7715 FATAL -0.2219
-4.7715 FATE -0.2219
-4.7715 FATHER -0.2219
-4.7715 FATHERS -0.2219
-4.7715 FATTY -0.2219
-4.7715 FAULT -0.2219
-4.4704 FAVOR -0.2219
-4.4704 FAVORITE -0.2219
-4.4704 FAVORITES -0.2219
-4.7715 FAVORS -0.2219
-4.7715 FAX -0.2219
-4.7715 FBI -0.2219
-4.7715 FC -0.2219
-4.7715 FDA -0.2219
-4.7715 FE -0.2219
-4.7715 FEAR -0.2219
-4.7715 FEARS -0.2219
-4.7715 FEAT -0.2219
-4.7715 FEATURE -0.2219
-4.7715 FEATURED -0.2219
-4.7715 FEATURES -0.2219
-4.7715 FEATURING -0.2219
-4.7715 FEB -0.2219
-4.7715 FEBRUARY -0.2219
-4.7715 FEDERAL -0.2219
-4.7715 FEDERATION -0.2219
-4.7715 FEE -0.2219
-4.7715 FEED -0.2219
-4.7715 FEEDBACK -0.2219
-4.7715 FEEDING -0.2219
-4.7715 FEEDS -0.2219
-4.7715 FEEL -0.2219
-4.7715 FEELING -0.2219
-4.7715 FEELINGS -0.2219
-4.7715 FEELS -0.2219
-4.7715 FEES -0.2219
-4.7715 FEET -0.2219
-4.7715 FELL -0.2219
-4.7715 FELLOW -0.2219
-4.7715 FELLOWSHIP -0.2219
-4.7715 FELT -0.2219
-4.7715 FEMALE -0.2219
-4.7715 FEMALES -0.2219
-4.7715 FENCE -0.2219
-4.7715 FERRARI -0.2219
-4.7715 FERRY -0.2219
-4.7715 FESTIVAL -0.2219
-4.7715 FESTIVALS -0.2219
-4.7715 FETISH -0.2219
-4.7715 FEVER -0.2219
-4.7715 FEW -0.2219
-4.7715 FEWER -0.2219
-4.7715 FF -0.2219
-4.7715 FG -0.2219
-4.7715 FI -0.2219
-4.7715 FIBER -0.2219
-4.7715 FIBRE -0.2219
-4.7715 FICTION -0.2219
-4.7715 FIELD -0.2219
-4.7715 FIELDS -0.2219
-4.7715 FIFTEEN -0.2219
-4.7715 FIFTH -0.2219
-4.7715 FIFTY -0.2219
-4.7715 FIG -0.2219
-4.7715 FIGHT -0.2219
-4.7715 FIGHTER -0.2219
-4.7715 FIGHTERS -0.2219
-4.7715 FIGHTING -0.2219
-4.7715 FIGURE -0.2219
-4.7715 FIGURED -0.2219
-4.7715 FIGURES -0.2219
-4.7715 FIJI -0.2219
-4.7715 FILE -0.2219
-4.7715 FILED -0.2219
-4.7715 FILENAME -0.2219
-4.7715 FILES -0.2219
-4.7715 FILING -0.2219
-4.7715 FILL -0.2219
-4.7715 FILLED -0.2219
-4.7715 FILLING -0.2219
-4.7715 FILM -0.2219
-4.7715 FILME -0.2219
-4.7715 FILMS -0.2219
-4.7715 FILTER -0.2219
-4.7715 FILTERING -0.2219
-4.7715 FILTERS -0.2219
-4.7715 FINAL -0.2219
-4.7715 FINALLY -0.2219
-4.7715 FINALS -0.2219
-4.7715 FINANCE -0.2219
-4.7715 FINANCES -0.2219
-4.7715 FINANCIAL -0.2219
-4.7715 FINANCING -0.2219
-4.7715 FIND -0.2219
-4.7715 FINDARTICLES -0.2219
-4.7715 FINDER -0.2219
-4.7715 FINDING -0.2219
-4.7715 FINDINGS -0.2219
-4.7715 FINDLAW -0.2219
-4.7715 FINDS -0.2219
-4.7715 FINE -0.2219
-4.7715 FINEST -0.2219
-4.7715 FINGER -0.2219
-4.7715 FINGERING -0.2219
-4.7715 FINGERS -0.2219
-4.7715 FINISH -0.2219
-4.7715 FINISHED -0.2219
-4.7715 FINISHING -0.2219
-4.7715 FINITE -0.2219
-4.7715 FINLAND -0.2219
-4.7715 FINNISH -0.2219
-4.7715 FIORICET -0.2219
-4.7715 FIRE -0.2219
-4.7715 FIRED -0.2219
-4.7715 FIREFOX -0.2219
-4.7715 FIREPLACE -0.2219
-4.7715 FIRES -0.2219
-4.7715 FIREWALL -0.2219
-4.7715 FIREWIRE -0.2219
-4.7715 FIRM -0.2219
-4.7715 FIRMS -0.2219
-4.7715 FIRMWARE -0.2219
-4.7715 FIRST -0.2219
-4.7715 FISCAL -0.2219
-4.7715 FISH -0.2219
-4.7715 FISHER -0.2219
-4.7715 FISHERIES -0.2219
-4.7715 FISHING -0.2219
-4.7715 FIST -0.2219
-4.7715 FISTING -0.2219
-4.7715 FIT -0.2219
-4.7715 FITNESS -0.2219
-4.7715 FITS -0.2219
-4.7715 FITTED -0.2219
-4.7715 FITTING -0.2219
-4.7715 FIVE -0.2219
-4.7715 FIX -0.2219
-4.7715 FIXED -0.2219
-4.7715 FIXES -0.2219
-4.7715 FIXTURES -0.2219
-4.7715 FL -0.2219
-4.7715 FLAG -0.2219
-4.7715 FLAGS -0.2219
-4.7715 FLAME -0.2219
-4.7715 FLASH -0.2219
-4.7715 FLASHERS -0.2219
-4.7715 FLASHING -0.2219
-4.7715 FLAT -0.2219
-4.7715 FLAVOR -0.2219
-4.7715 FLEECE -0.2219
-4.7715 FLEET -0.2219
-4.7715 FLESH -0.2219
-4.7715 FLEX -0.2219
-4.7715 FLEXIBILITY -0.2219
-4.7715 FLEXIBLE -0.2219
-4.7715 FLICKR -0.2219
-4.7715 FLIGHT -0.2219
-4.7715 FLIGHTS -0.2219
-4.4704 FLIP -0.2219
-4.7715 FLOAT -0.2219
-4.7715 FLOATING -0.2219
-4.7715 FLOOD -0.2219
-4.7715 FLOOR -0.2219
-4.7715 FLOORING -0.2219
-4.7715 FLOORS -0.2219
-4.7715 FLOPPY -0.2219
-4.7715 FLORAL -0.2219
-4.7715 FLORENCE -0.2219
-4.7715 FLORIDA -0.2219
-4.7715 FLORIST -0.2219
-4.7715 FLORISTS -0.2219
-4.7715 FLOUR -0.2219
-4.7715 FLOW -0.2219
-4.7715 FLOWER -0.2219
-4.7715 FLOWERS -0.2219
-4.7715 FLOWS -0.2219
-4.7715 FLOYD -0.2219
-4.7715 FLU -0.2219
-4.7715 FLUID -0.2219
-4.7715 FLUSH -0.2219
-4.7715 FLUX -0.2219
-4.7715 FLY -0.2219
-4.7715 FLYER -0.2219
-4.7715 FLYING -0.2219
-4.7715 FM -0.2219
-4.7715 FOAM -0.2219
-4.7715 FOCAL -0.2219
-4.7715 FOCUS -0.2219
-4.7715 FOCUSED -0.2219
-4.7715 FOCUSES -0.2219
-4.7715 FOCUSING -0.2219
-4.7715 FOG -0.2219
-4.7715 FOLD -0.2219
-4.7715 FOLDER -0.2219
-4.7715 FOLDERS -0.2219
-4.7715 FOLDING -0.2219
-4.7715 FOLK -0.2219
-4.7715 FOLKS -0.2219
-4.7715 FOLLOW -0.2219
-4.7715 FOLLOWED -0.2219
-4.7715 FOLLOWING -0.2219
-4.7715 FOLLOWS -0.2219
-4.7715 FONT -0.2219
-4.7715 FONTS -0.2219
-4.7715 FOO -0.2219
-4.7715 FOOD -0.2219
-4.7715 FOODS -0.2219
-4.7715 FOOL -0.2219
-4.7715 FOOT -0.2219
-4.7715 FOOTAGE -0.2219
-4.7715 FOOTBALL -0.2219
-4.7715 FOOTWEAR -0.2219
-4.2943 FOR -0.2219
-4.7715 FORBES -0.2219
-4.7715 FORBIDDEN -0.2219
-4.7715 FORCE -0.2219
-4.7715 FORCED -0.2219
-4.7715 FORCES -0.2219
-4.7715 FORD -0.2219
-4.7715 FORECAST -0.2219
-4.7715 FORECASTS -0.2219
-4.7715 FOREIGN -0.2219
-4.7715 FOREST -0.2219
-4.7715 FORESTRY -0.2219
-4.7715 FORESTS -0.2219
-4.7715 FOREVER -0.2219
-4.7715 FORGE -0.2219
-4.7715 FORGET -0.2219
-4.7715 FORGOT -0.2219
-4.7715 FORGOTTEN -0.2219
-4.7715 FORK -0.2219
-4.7715 FORM -0.2219
-4.7715 FORMAL -0.2219
-4.7715 FORMAT -0.2219
-4.7715 FORMATION -0.2219
-4.7715 FORMATS -0.2219
-4.7715 FORMATTING -0.2219
-4.7715 FORMED -0.2219
-4.7715 FORMER -0.2219
-4.7715 FORMERLY -0.2219
-4.7715 FORMING -0.2219
-4.7715 FORMS -0.2219
-4.7715 FORMULA -0.2219
-4.7715 FORT -0.2219
-4.7715 FORTH -0.2219
-4.7715 FORTUNE -0.2219
-4.7715 FORTY -0.2219
-4.7715 FORUM -0.2219
-4.7715 FORUMS -0.2219
-4.7715 FORWARD -0.2219
-4.7715 FORWARDING -0.2219
-4.7715 FOSSIL -0.2219
-4.7715 FOSTER -0.2219
-4.7715 FOTO -0.2219
-4.7715 FOTOS -0.2219
-4.7715 FOUGHT -0.2219
-4.7715 FOUL -0.2219
-4.7715 FOUND -0.2219
-4.7715 FOUNDATION -0.2219
-4.7715 FOUNDATIONS -0.2219
-4.7715 FOUNDED -0.2219
-4.7715 FOUNDER -0.2219
-4.7715 FOUNTAIN -0.2219
-4.7715 FOUR -0.2219
-4.7715 FOURTH -0.2219
-4.7715 FOX -0.2219
-4.7715 FP -0.2219
-4.7715 FR -0.2219
-4.7715 FRACTION -0.2219
-4.7715 FRAGRANCE -0.2219
-4.7715 FRAGRANCES -0.2219
-4.7715 FRAME -0.2219
-4.7715 FRAMED -0.2219
-4.7715 FRAMES -0.2219
-4.7715 FRAMEWORK -0.2219
-4.7715 FRAMING -0.2219
-4.7715 FRANCE -0.2219
-4.7715 FRANCHISE -0.2219
-4.7715 FRANCIS -0.2219
-4.7715 FRANCISCO -0.2219
-4.7715 FRANK -0.2219
-4.7715 FRANKFURT -0.2219
-4.7715 FRANKLIN -0.2219
-4.7715 FRASER -0.2219
-4.7715 FRAUD -0.2219
-4.7715 FRED -0.2219
-4.7715 FREDERICK -0.2219
-4.7715 FREE -0.2219
-4.7715 FREEBSD -0.2219
-4.7715 FREEDOM -0.2219
-4.7715 FREELANCE -0.2219
-4.7715 FREELY -0.2219
-4.7715 FREEWARE -0.2219
-4.7715 FREEZE -0.2219
-4.7715 FREIGHT -0.2219
-4.7715 FRENCH -0.2219
-4.7715 FREQUENCIES -0.2219
-4.7715 FREQUENCY -0.2219
-4.7715 FREQUENT -0.2219
-4.7715 FREQUENTLY -0.2219
-4.7715 FRESH -0.2219
-4.7715 FRI -0.2219
-4.7715 FRIDAY -0.2219
-4.7715 FRIDGE -0.2219
-4.7715 FRIEND -0.2219
-4.7715 FRIENDLY -0.2219
-4.7715 FRIENDS -0.2219
-4.7715 FRIENDSHIP -0.2219
-4.7715 FROG -0.2219
-4.7715 FROM -0.2219
-4.7715 FRONT -0.2219
-4.7715 FRONTIER -0.2219
-4.7715 FRONTPAGE -0.2219
-4.7715 FROST -0.2219
-4.7715 FROZEN -0.2219
-4.7715 FRUIT -0.2219
-4.7715 FRUITS -0.2219
-4.7715 FS -0.2219
-4.7715 FT -0.2219
-4.7715 FTP -0.2219
-4.7715 FUCK -0.2219
-4.7715 FUCKED -0.2219
-4.7715 FUCKING -0.2219
-4.7715 FUEL -0.2219
-4.7715 FUJI -0.2219
-4.7715 FUJITSU -0.2219
-4.7715 FULL -0.2219
-4.7715 FULLY -0.2219
-4.7715 FUN -0.2219
-4.7715 FUNCTION -0.2219
-4.7715 FUNCTIONAL -0.2219
-4.7715 FUNCTIONALITY -0.2219
-4.7715 FUNCTIONING -0.2219
-4.7715 FUNCTIONS -0.2219
-4.7715 FUND -0.2219
-4.7715 FUNDAMENTAL -0.2219
-4.7715 FUNDAMENTALS -0.2219
-4.7715 FUNDED -0.2219
-4.7715 FUNDING -0.2219
-4.7715 FUNDRAISING -0.2219
-4.7715 FUNDS -0.2219
-4.7715 FUNERAL -0.2219
-4.7715 FUNK -0.2219
-4.7715 FUNKY -0.2219
-4.7715 FUNNY -0.2219
-4.7715 FUR -0.2219
-4.7715 FURNISHED -0.2219
-4.7715 FURNISHINGS -0.2219
-4.7715 FURNITURE -0.2219
-4.7715 FURTHER -0.2219
-4.7715 FURTHERMORE -0.2219
-4.7715 FUSION -0.2219
-4.7715 FUTURE -0.2219
-4.7715 FUTURES -0.2219
-4.7715 FUZZY -0.2219
-4.7715 FW -0.2219
-4.7715 FWD -0.2219
-4.7715 FX -0.2219
-4.7715 FY -0.2219
-4.7715 G -0.2219
-4.7715 GA -0.2219
-4.7715 GABRIEL -0.2219
-4.7715 GADGETS -0.2219
-4.7715 GAGE -0.2219
-4.7715 GAIN -0.2219
-4.7715 GAINED -0.2219
-4.7715 GAINS -0.2219
-4.7715 GALAXY -0.2219
-4.7715 GALE -0.2219
-4.7715 GALLERIES -0.2219
-4.7715 GALLERY -0.2219
-4.7715 GAMBLING -0.2219
-4.7715 GAME -0.2219
-4.7715 GAMECUBE -0.2219
-4.7715 GAMES -0.2219
-4.7715 GAMESPOT -0.2219
-4.7715 GAMING -0.2219
-4.7715 GAMMA -0.2219
-4.7715 GANG -0.2219
-4.7715 GANGBANG -0.2219
-4.7715 GAP -0.2219
-4.7715 GAPS -0.2219
-4.7715 GARAGE -0.2219
-4.7715 GARBAGE -0.2219
-4.7715 GARCIA -0.2219
-4.7715 GARDEN -0.2219
-4.7715 GARDENING -0.2219
-4.7715 GARDENS -0.2219
-4.7715 GARLIC -0.2219
-4.7715 GARMIN -0.2219
-4.7715 GARY -0.2219
-4.7715 GAS -0.2219
-4.7715 GASOLINE -0.2219
-4.7715 GATE -0.2219
-4.7715 GATES -0.2219
-4.7715 GATEWAY -0.2219
-4.7715 GATHER -0.2219
-4.7715 GATHERED -0.2219
-4.7715 GATHERING -0.2219
-4.7715 GAUGE -0.2219
-4.7715 GAVE -0.2219
-4.7715 GAY -0.2219
-4.7715 GAYS -0.2219
-4.7715 GAZETTE -0.2219
-4.7715 GB -0.2219
-4.7715 GBA -0.2219
-4.7715 GBP -0.2219
-4.7715 GC -0.2219
-4.7715 GCC -0.2219
-4.7715 GDP -0.2219
-4.7715 GE -0.2219
-4.7715 GEAR -0.2219
-4.7715 GEEK -0.2219
-4.7715 GEL -0.2219
-4.7715 GEM -0.2219
-4.7715 GEN -0.2219
-4.7715 GENDER -0.2219
-4.7715 GENE -0.2219
-4.7715 GENEALOGY -0.2219
-4.7715 GENERAL -0.2219
-4.7715 GENERALLY -0.2219
-4.7715 GENERATE -0.2219
-4.7715 GENERATED -0.2219
-4.7715 GENERATES -0.2219
-4.7715 GENERATING -0.2219
-4.7715 GENERATION -0.2219
-4.7715 GENERATIONS -0.2219
-4.7715 GENERATOR -0.2219
-4.7715 GENERATORS -0.2219
-4.7715 GENERIC -0.2219
-4.7715 GENEROUS -0.2219
-4.7715 GENES -0.2219
-4.7715 GENESIS -0.2219
-4.7715 GENETIC -0.2219
-4.7715 GENETICS -0.2219
-4.7715 GENEVA -0.2219
-4.7715 GENIUS -0.2219
-4.7715 GENOME -0.2219
-4.7715 GENRE -0.2219
-4.7715 GENRES -0.2219
-4.7715 GENTLE -0.2219
-4.7715 GENTLEMAN -0.2219
-4.7715 GENTLY -0.2219
-4.7715 GENUINE -0.2219
-4.7715 GEO -0.2219
-4.7715 GEOGRAPHIC -0.2219
-4.7715 GEOGRAPHICAL -0.2219
-4.7715 GEOGRAPHY -0.2219
-4.7715 GEOLOGICAL -0.2219
-4.7715 GEOLOGY -0.2219
-4.7715 GEOMETRY -0.2219
-4.7715 GEORGE -0.2219
-4.7715 GEORGIA -0.2219
-4.7715 GERALD -0.2219
-4.7715 GERMAN -0.2219
-4.7715 GERMANY -0.2219
-4.7715 GET -0.2219
-4.7715 GETS -0.2219
-4.7715 GETTING -0.2219
-4.7715 GHANA -0.2219
-4.7715 GHOST -0.2219
-4.7715 GHZ -0.2219
-4.7715 GI -0.2219
-4.7715 GIANT -0.2219
-4.7715 GIANTS -0.2219
-4.7715 GIBRALTAR -0.2219
-4.7715 GIBSON -0.2219
-4.7715 GIF -0.2219
-4.7715 GIFT -0.2219
-4.7715 GIFTS -0.2219
-4.7715 GILBERT -0.2219
-4.7715 GIRL -0.2219
-4.7715 GIRLFRIEND -0.2219
-4.7715 GIRLS -0.2219
-4.7715 GIS -0.2219
-4.7715 GIVE -0.2219
-4.7715 GIVEN -0.2219
-4.7715 GIVES -0.2219
-4.7715 GIVING -0.2219
-4.7715 GLAD -0.2219
-4.7715 GLANCE -0.2219
-4.7715 GLASGOW -0.2219
-4.7715 GLASS -0.2219
-4.7715 GLASSES -0.2219
-4.7715 GLEN -0.2219
-4.7715 GLENN -0.2219
-4.7715 GLOBAL -0.2219
-4.7715 GLOBE -0.2219
-4.7715 GLORY -0.2219
-4.7715 GLOSSARY -0.2219
-4.7715 GLOVES -0.2219
-4.7715 GLOW -0.2219
-4.7715 GLUCOSE -0.2219
-4.7715 GM -0.2219
-4.7715 GMBH -0.2219
-4.7715 GMC -0.2219
-4.7715 GMT -0.2219
-4.7715 GNOME -0.2219
-4.7715 GNU -0.2219
-4.7715 GO -0.2219
-4.7715 GOAL -0.2219
-4.7715 GOALS -0.2219
-4.7715 GOAT -0.2219
-4.7715 GOD -0.2219
-4.7715 GODS -0.2219
-4.7715 GOES -0.2219
-4.7715 GOING -0.2219
-4.7715 GOLD -0.2219
-4.7715 GOLDEN -0.2219
-4.7715 GOLF -0.2219
-4.7715 GONE -0.2219
-4.7715 GONNA -0.2219
-4.7715 GOOD -0.2219
-4.7715 GOODS -0.2219
-4.7715 GOOGLE -0.2219
-4.7715 GORDON -0.2219
-4.7715 GORE -0.2219
-4.7715 GORGEOUS -0.2219
-4.7715 GOSPEL -0.2219
-4.7715 GOSSIP -0.2219
-4.7715 GOT -0.2219
-4.7715 GOTHIC -0.2219
-4.7715 GOTO -0.2219
-4.7715 GOTTA -0.2219
-4.7715 GOTTEN -0.2219
-4.7715 GOURMET -0.2219
-4.7715 GOVERNANCE -0.2219
-4.7715 GOVERNING -0.2219
-4.7715 GOVERNMENT -0.2219
-4.7715 GOVERNMENTAL -0.2219
-4.7715 GOVERNMENTS -0.2219
-4.7715 GOVERNOR -0.2219
-4.7715 GP -0.2219
-4.7715 GPL -0.2219
-4.7715 GPS -0.2219
-4.7715 GR -0.2219
-4.7715 GRAB -0.2219
-4.7715 GRACE -0.2219
-4.7715 GRAD -0.2219
-4.7715 GRADE -0.2219
-4.7715 GRADES -0.2219
-4.7715 GRADUALLY -0.2219
-4.7715 GRADUATE -0.2219
-4.7715 GRADUATED -0.2219
-4.7715 GRADUATES -0.2219
-4.7715 GRADUATION -0.2219
-4.7715 GRAHAM -0.2219
-4.7715 GRAIN -0.2219
-4.7715 GRAMMAR -0.2219
-4.7715 GRAMS -0.2219
-4.7715 GRAND -0.2219
-4.7715 GRANDE -0.2219
-4.7715 GRANNY -0.2219
-4.7715 GRANT -0.2219
-4.7715 GRANTED -0.2219
-4.7715 GRANTS -0.2219
-4.7715 GRAPH -0.2219
-4.7715 GRAPHIC -0.2219
-4.7715 GRAPHICAL -0.2219
-4.7715 GRAPHICS -0.2219
-4.7715 GRAPHS -0.2219
-4.7715 GRAS -0.2219
-4.7715 GRASS -0.2219
-4.7715 GRATEFUL -0.2219
-4.7715 GRATIS -0.2219
-4.7715 GRATUIT -0.2219
-4.7715 GRAVE -0.2219
-4.7715 GRAVITY -0.2219
-4.7715 GRAY -0.2219
-4.7715 GREAT -0.2219
-4.7715 GREATER -0.2219
-4.7715 GREATEST -0.2219
-4.7715 GREATLY -0.2219
-4.7715 GREECE -0.2219
-4.7715 GREEK -0.2219
-4.7715 GREEN -0.2219
-4.7715 GREENE -0.2219
-4.7715 GREENHOUSE -0.2219
-4.7715 GREENSBORO -0.2219
-4.7715 GREETING -0.2219
-4.7715 GREETINGS -0.2219
-4.7715 GREG -0.2219
-4.7715 GREGORY -0.2219
-4.7715 GRENADA -0.2219
-4.7715 GREW -0.2219
-4.7715 GREY -0.2219
-4.7715 GRID -0.2219
-4.7715 GRIFFIN -0.2219
-4.7715 GRILL -0.2219
-4.7715 GRIP -0.2219
-4.7715 GROCERY -0.2219
-4.7715 GROOVE -0.2219
-4.7715 GROSS -0.2219
-4.7715 GROUND -0.2219
-4.7715 GROUNDS -0.2219
-4.7715 GROUNDWATER -0.2219
-4.7715 GROUP -0.2219
-4.7715 GROUPS -0.2219
-4.7715 GROVE -0.2219
-4.7715 GROW -0.2219
-4.7715 GROWING -0.2219
-4.7715 GROWN -0.2219
-4.7715 GROWS -0.2219
-4.7715 GROWTH -0.2219
-4.7715 GS -0.2219
-4.7715 GSM -0.2219
-4.7715 GST -0.2219
-4.7715 GT -0.2219
-4.7715 GUAM -0.2219
-4.7715 GUARANTEE -0.2219
-4.7715 GUARANTEED -0.2219
-4.7715 GUARANTEES -0.2219
-4.7715 GUARD -0.2219
-4.7715 GUARDIAN -0.2219
-4.7715 GUARDS -0.2219
-4.7715 GUATEMALA -0.2219
-4.7715 GUESS -0.2219
-4.7715 GUEST -0.2219
-4.7715 GUESTBOOK -0.2219
-4.7715 GUESTS -0.2219
-4.7715 GUI -0.2219
-4.7715 GUIDANCE -0.2219
-4.7715 GUIDE -0.2219
-4.7715 GUIDED -0.2219
-4.7715 GUIDELINES -0.2219
-4.7715 GUIDES -0.2219
-4.7715 GUILD -0.2219
-4.7715 GUILTY -0.2219
-4.7715 GUINEA -0.2219
-4.7715 GUITAR -0.2219
-4.7715 GUITARS -0.2219
-4.7715 GULF -0.2219
-4.7715 GUN -0.2219
-4.7715 GUNS -0.2219
-4.7715 GURU -0.2219
-4.7715 GUY -0.2219
-4.7715 GUYANA -0.2219
-4.7715 GUYS -0.2219
-4.7715 GYM -0.2219
-4.7715 H -0.2219
-4.7715 HA -0.2219
-4.7715 HABITAT -0.2219
-4.7715 HABITS -0.2219
-4.7715 HACK -0.2219
-4.7715 HACKER -0.2219
-4.7715 HAD -0.2219
-4.7715 HAIR -0.2219
-4.7715 HAIRY -0.2219
-4.7715 HAITI -0.2219
-4.7715 HALF -0.2219
-4.7715 HALIFAX -0.2219
-4.7715 HALL -0.2219
-4.7715 HALLOWEEN -0.2219
-4.7715 HALO -0.2219
-4.7715 HAM -0.2219
-4.7715 HAMBURG -0.2219
-4.7715 HAMILTON -0.2219
-4.7715 HAMMER -0.2219
-4.7715 HAMPSHIRE -0.2219
-4.7715 HAMPTON -0.2219
-4.7715 HAND -0.2219
-4.7715 HANDBAGS -0.2219
-4.7715 HANDBOOK -0.2219
-4.7715 HANDED -0.2219
-4.7715 HANDHELD -0.2219
-4.7715 HANDHELDS -0.2219
-4.7715 HANDJOB -0.2219
-4.7715 HANDJOBS -0.2219
-4.7715 HANDLE -0.2219
-4.7715 HANDLED -0.2219
-4.7715 HANDLES -0.2219
-4.7715 HANDLING -0.2219
-4.7715 HANDMADE -0.2219
-4.7715 HANDS -0.2219
-4.7715 HANDY -0.2219
-4.7715 HANG -0.2219
-4.7715 HANGING -0.2219
-4.7715 HANS -0.2219
-4.7715 HANSEN -0.2219
-4.7715 HAPPEN -0.2219
-4.7715 HAPPENED -0.2219
-4.7715 HAPPENING -0.2219
-4.7715 HAPPENS -0.2219
-4.7715 HAPPINESS -0.2219
-4.7715 HAPPY -0.2219
-4.7715 HARASSMENT -0.2219
-4.4704 HARBOR -0.2219
-4.7715 HARD -0.2219
-4.7715 HARDCORE -0.2219
-4.7715 HARDCOVER -0.2219
-4.7715 HARDER -0.2219
-4.7715 HARDLY -0.2219
-4.7715 HARDWARE -0.2219
-4.7715 HARDWOOD -0.2219
-4.7715 HARLEY -0.2219
-4.7715 HARM -0.2219
-4.7715 HARMFUL -0.2219
-4.7715 HARMONY -0.2219
-4.7715 HAROLD -0.2219
-4.7715 HARPER -0.2219
-4.7715 HARRIS -0.2219
-4.7715 HARRISON -0.2219
-4.7715 HARRY -0.2219
-4.7715 HART -0.2219
-4.7715 HARTFORD -0.2219
-4.7715 HARVARD -0.2219
-4.7715 HARVEST -0.2219
-4.7715 HARVEY -0.2219
-4.7715 HAS -0.2219
-4.7715 HASH -0.2219
-4.7715 HAT -0.2219
-4.7715 HATE -0.2219
-4.7715 HATS -0.2219
-4.7715 HAVE -0.2219
-4.7715 HAVEN -0.2219
-4.7715 HAVING -0.2219
-4.7715 HAWAII -0.2219
-4.7715 HAWAIIAN -0.2219
-4.7715 HAWK -0.2219
-4.7715 HAY -0.2219
-4.7715 HAYES -0.2219
-4.7715 HAZARD -0.2219
-4.7715 HAZARDOUS -0.2219
-4.7715 HAZARDS -0.2219
-4.7715 HB -0.2219
-4.7715 HC -0.2219
-4.7715 HD -0.2219
-4.7715 HDTV -0.2219
-4.7715 HE -0.2219
-4.7715 HEAD -0.2219
-4.7715 HEADED -0.2219
-4.7715 HEADER -0.2219
-4.7715 HEADERS -0.2219
-4.7715 HEADING -0.2219
-4.7715 HEADLINE -0.2219
-4.7715 HEADLINES -0.2219
-4.7715 HEADPHONES -0.2219
-4.7715 HEADQUARTERS -0.2219
-4.7715 HEADS -0.2219
-4.7715 HEADSET -0.2219
-4.7715 HEALING -0.2219
-4.7715 HEALTH -0.2219
-4.7715 HEALTHCARE -0.2219
-4.7715 HEALTHY -0.2219
-4.7715 HEAR -0.2219
-4.7715 HEARD -0.2219
-4.7715 HEARING -0.2219
-4.7715 HEARINGS -0.2219
-4.7715 HEART -0.2219
-4.7715 HEARTS -0.2219
-4.7715 HEAT -0.2219
-4.7715 HEATED -0.2219
-4.7715 HEATER -0.2219
-4.7715 HEATH -0.2219
-4.7715 HEATHER -0.2219
-4.7715 HEATING -0.2219
-4.7715 HEAVEN -0.2219
-4.7715 HEAVILY -0.2219
-4.7715 HEAVY -0.2219
-4.7715 HEBREW -0.2219
-4.7715 HEEL -0.2219
-4.7715 HEIGHT -0.2219
-4.7715 HEIGHTS -0.2219
-4.7715 HELD -0.2219
-4.7715 HELEN -0.2219
-4.7715 HELENA -0.2219
-4.7715 HELICOPTER -0.2219
-4.7715 HELL -0.2219
-4.7715 HELLO -0.2219
-4.7715 HELMET -0.2219
-4.7715 HELP -0.2219
-4.7715 HELPED -0.2219
-4.7715 HELPFUL -0.2219
-4.7715 HELPING -0.2219
-4.7715 HELPS -0.2219
-4.7715 HENCE -0.2219
-4.7715 HENDERSON -0.2219
-4.7715 HENRY -0.2219
-4.7715 HENTAI -0.2219
-4.7715 HEPATITIS -0.2219
-4.7715 HER -0.2219
-4.7715 HERALD -0.2219
-4.7715 HERB -0.2219
-4.7715 HERBAL -0.2219
-4.7715 HERBS -0.2219
-4.7715 HERE -0.2219
-4.7715 HEREBY -0.2219
-4.7715 HEREIN -0.2219
-4.7715 HERITAGE -0.2219
-4.7715 HERO -0.2219
-4.7715 HEROES -0.2219
-4.7715 HERSELF -0.2219
-4.7715 HEWLETT -0.2219
-4.7715 HEY -0.2219
-4.7715 HI -0.2219
-4.7715 HIDDEN -0.2219
-4.7715 HIDE -0.2219
-4.7715 HIERARCHY -0.2219
-4.7715 HIGH -0.2219
-4.7715 HIGHER -0.2219
-4.7715 HIGHEST -0.2219
-4.7715 HIGHLAND -0.2219
-4.7715 HIGHLIGHT -0.2219
-4.7715 HIGHLIGHTED -0.2219
-4.7715 HIGHLIGHTS -0.2219
-4.7715 HIGHLY -0.2219
-4.7715 HIGHS -0.2219
-4.7715 HIGHWAY -0.2219
-4.7715 HIGHWAYS -0.2219
-4.7715 HIKING -0.2219
-4.7715 HILL -0.2219
-4.7715 HILLS -0.2219
-4.7715 HILTON -0.2219
-4.7715 HIM -0.2219
-4.7715 HIMSELF -0.2219
-4.7715 HINDU -0.2219
-4.7715 HINT -0.2219
-4.7715 HINTS -0.2219
-4.7715 HIP -0.2219
-4.7715 HIRE -0.2219
-4.7715 HIRED -0.2219
-4.7715 HIRING -0.2219
-4.7715 HIS -0.2219
-4.7715 HISPANIC -0.2219
-4.7715 HIST -0.2219
-4.7715 HISTORIC -0.2219
-4.7715 HISTORICAL -0.2219
-4.7715 HISTORY -0.2219
-4.7715 HIT -0.2219
-4.7715 HITACHI -0.2219
-4.7715 HITS -0.2219
-4.7715 HITTING -0.2219
-4.7715 HIV -0.2219
-4.7715 HO -0.2219
-4.7715 HOBBIES -0.2219
-4.7715 HOBBY -0.2219
-4.7715 HOCKEY -0.2219
-4.7715 HOLD -0.2219
-4.7715 HOLDEM -0.2219
-4.7715 HOLDER -0.2219
-4.7715 HOLDERS -0.2219
-4.7715 HOLDING -0.2219
-4.7715 HOLDINGS -0.2219
-4.7715 HOLDS -0.2219
-4.7715 HOLE -0.2219
-4.7715 HOLES -0.2219
-4.7715 HOLIDAY -0.2219
-4.7715 HOLIDAYS -0.2219
-4.7715 HOLLAND -0.2219
-4.7715 HOLLOW -0.2219
-4.7715 HOLLY -0.2219
-4.7715 HOLLYWOOD -0.2219
-4.7715 HOLMES -0.2219
-4.7715 HOLOCAUST -0.2219
-4.7715 HOLY -0.2219
-4.7715 HOME -0.2219
-4.7715 HOMELAND -0.2219
-4.7715 HOMELESS -0.2219
-4.7715 HOMEPAGE -0.2219
-4.7715 HOMES -0.2219
-4.7715 HOMETOWN -0.2219
-4.7715 HOMEWORK -0.2219
-4.7715 HON -0.2219
-4.7715 HONDA -0.2219
-4.7715 HONDURAS -0.2219
-4.7715 HONEST -0.2219
-4.7715 HONEY -0.2219
-4.7715 HONG -0.2219
-4.7715 HONOLULU -0.2219
-4.7715 HONOR -0.2219
-4.7715 HONORS -0.2219
-4.7715 HOOD -0.2219
-4.7715 HOOK -0.2219
